0.04740626425663199 0.025638411989777593 0.06851254045433364 0.033887081755288456 0.0525591405051053 -0.03500780839142659 0.014295524541960923 -0.02111732273195513 -0.06337863734444403 -0.017565677089485462 0.04752024082428005 0.017656178542725675 0.04928004520777854 -0.07755515455843286 0.16092854975832036 0.0521457373950598 0.13062523956232672 0.04865033234764849 -0.027261927025123787 0.01903885424436169 0.05893352476974114 -0.06345426336908881 -0.06714955632686105 0.009671142150940358 0.07382432122807885 0.04662760574141788 -0.05257896308573616 0.034551116330291454 0.030629316179486502 0.007056465723172663 -0.07506051007080031 0.013809331946454064 0.03207409307804422 -0.05616824395487829 -0.07241503541040047 -0.0460386923780983 -0.08918572925263081 -0.036161539725667415 0.040643660725113835 -0.0823743467690795 -0.027099210970258365 0.0408615097705322 -0.12091871493364331 -0.02454308483278555 0.04832443653266062 -0.06302118416152538 -0.040793265440419 0.011272248880449398 -0.07542467775722297 0.10427141617450776 -0.04225445467544517 0.05269031548345052 -0.005156936549113017 0.049862839564118314 0.02947084846183841 0.014976727316409833 0.06688232777655705 0.08426196728519814 -0.09903623244188985 0.05089913132130015 0.04054084674251237 -0.04212595819586907 -0.05910071820076982 0.031157486137320927 -0.08269796742820708 -0.043233998125592976 0.04603253596060261 0.16365312683119349 -0.08730902291810066 0.12424549351598173 -0.029732191654732558 0.02179805908395638 0.0673623322984604 -0.15311324127144343 0.08613741601633285 0.058341846117770026 0.055258978191937064 -0.024605636133020567 -0.018969950025364 -0.06813339723739044 -0.10571206011192176 -0.02929853161786362 0.1041102926680218 -0.00020935234621372774 -0.03683888094383361 0.03659135635753738 0.07351159006719915 0.13556137511169947 0.02726043068909043 -0.05137624608500445 -0.07944349469308923 -0.07588877935845498 -0.05035695793855132 0.025243896882418893 0.041559400403008956 0.013991554734341887 -0.011254889037794424 -0.09873755695049632 0.04990216868760631 -0.0027989198589929132 -0.008809690166425526 0.029847331219833077 -0.031457387671422005 -0.03717797321912546 -0.020782517908726303 0.14024677235529065 -0.0030491328021100767 0.007392458535462927 0.05694119888938398 0.07076245728559112 -0.032881543632736585 -0.014322837484276438 0.027525579723487133 0.0007251682134478703 -0.12759727224935705 0.025371252193134564 0.01287144669679223 0.03408850157005721 0.07310357884099931 0.05734167738178877 -0.0394581490208599 -0.04965066062344331 -0.03769111910186207 0.08035355718049242 -0.02208464751422369 0.0232509671195594 -0.046427602895629055 -0.13621605534676692 0.019335287692030415 -0.1726592981601366 -0.0242015859910275 0.07072370202053781 -0.06942565979222459 -0.12461319198282664 0.09547339213317305 -0.0912574293237433 -0.16001967449414478 -0.04440554160964098 -0.0996962738697599 -0.046109693412067526 -0.0684938847502589 -0.011007263702533148 -0.031652177525711436 -0.026698902245380532 0.015017808563851124 -0.04260840047243812 -0.062321395597822314 -0.088252848505269 -0.01718317043031923 -0.1144659278313359 0.032374481753365734 0.17162089848072404 -0.0008591698024447105 0.03142852884928757 0.03450323091140668 0.13965326779004716 -0.03779348898314789 0.06873387583224387 0.02108796606345165 0.011680024556815912 -0.05216182731362454 -0.05536409290710335 -0.11970023700057665 0.08700582007300031 0.03583010398128879 0.06023390010106124 0.20999371723165297 -0.1004642400688601 0.03322048700927647 -0.11623224682984266 0.09078649121793636 -0.03698369391824197 0.046211483454165654 -0.01967888698613853 -0.03823923787483466 0.07308002745274447 -0.024589725097387344 0.008909752298013995 0.08333891873457477 -0.048349281132588635 -0.03400181396741886 0.037797386874378044 0.05709877314251821 -0.03827717742038587 -0.08417482250529403 -0.014989107554968385 0.09965361663675587 0.08113681118858512 -0.05128571398748818 0.0832977021312579 0.06397105894953233 0.0481989690051479 -0.02538528503711505 0.07954202831156443 -0.022938094716883826 0.10287694145030879 0.07273073538976726 -0.028414265332122407 -0.053548967212455244 -0.10503295332413208 -0.11137752104423969 0.05394156344688633 -0.07191450531654314 -0.07195627885662871 0.03339979729070927 0.09828245256286505 0.016339262256049005 -0.043038837117105225 0.13344505318706767 -0.11877573329075138 0.042148908453599004 0.045083680171684314 0.04104928294307223 -0.09612512313022867 -0.032921083686613895 -0.06874664601821828 0.10220738891041481 -0.06439399314225687 -0.05114977157780011 -0.04395628829878959 0.062230114771599024 -0.06662365025740316 -0.058069666757047333 0.015245131969030011 -0.04837367232508233 0.1774397252952009 0.09836894789267682 0.013204346394459344 0.034663171059297955 0.07200277492577437 -0.04419251350590603 0.10709388055910476 -0.15047483308834436 -0.04260375347822379 -0.1467686636592234 -0.0945259879500819 -0.03904185033861314 -0.07853272598376591 0.004379557483600223 -0.21401229895298196 0.04194047627649702 -0.22292448380658483 -0.029572891177248664 -0.04785614094066375 0.014513185982199948 -0.14707893876801506 -0.046224945948962974 -0.10189528591068972 -0.08009605381267654 -0.04834929083766677 0.03754744931393031 0.007250184839842899 -0.03839890234744437 -0.06740178006862711 0.18033835489015568 0.13322276846853534 -0.12581770925935856 0.08111585867418859 0.12994739680678716 -0.14967002264219695 -0.06243196750670169 -0.0018970694852868345 0.04971348063401011 -0.07038660261556823 -0.06797681400125614 -0.14725789752573978 0.06675051408648533 -0.086590491409716 -0.019407073085900235 0.004146435394952702 0.062016399904309516 -0.014037055176199787 -0.15076365873415545 -0.06511542774024798 -0.07006117500953618 0.0029247739162771786 0.1934618334510006 -0.07026126580842264 -0.08747209639128607 -0.0824552251106671 0.04486310601340123 0.08332775272123817 -0.024893355110754606 0.07905661634301435 0.13533227782701676 -0.26784639901211055 0.054485802496546595 -0.010358864684666902 0.01832164092511129 0.051407419684144876 -0.0735770853386176 0.12442658025776303 0.09949090543410002 -0.1111914056984465 -0.2215225382796812 0.034747985863603795 -0.0004014516394160494 0.14104171892055886 0.024675448345480574 -0.1478478648293266 -0.019113523179682557 -0.0031937281282744907 -0.04617459702909275 0.07769387658633208 -0.03641450472916269 -0.090492562269311 0.12964941741479263 0.05333061594130039 -0.05371171657668627 0.013399555852020871 -0.05182182449993106 0.057985507874131835 0.09770075220973277 -0.02516809765751705 -0.18353662798893133 0.02656033459533479 -0.04402168824625911 0.08688731749695841 0.05464944922359579 0.03385285531303146 -0.13167024169618852 -0.023235700703225268 -0.03917170084073952 0.0015142808057887925 -0.03733001417721643 -0.030998312402083207 0.012665942942340627 0.0814562202696016 0.0915204239200532 -0.26932252988064526 -0.10656594035206109 0.1130398729022393 -0.03915218338116455 0.012333251998468596 0.0345451301997383 -0.0713107059911382 -0.029124629636965698 -0.0047233131008464525 -0.091637810376645 -0.12948734355409242 -0.05892092835052462 -0.3091994052871307 -0.009647068263770278 -0.1697417069721341 0.02243422478563813 0.06124021351157429 -0.050516519095110304 0.07243113523459516 -0.1761267628977575 -0.024330719415468008 -0.04411775979602611 0.033556305209761675 -0.0776334044147746 -0.05717917513510527 0.05283599198838484 -0.012663063149952513 0.026061226344471968 -0.10730951870966425 -0.12102849631210534 -0.022415290676852224 0.012876172413205293 -0.0032012702718117476 0.051771723544942666 0.08188733018173902 -0.1036394617275972 -0.19935516647753831 -0.05963745065900522 0.15596235586409407 0.10083424407205335 0.09802119656309477 -0.0007893151963615105 0.18758964417125884 -0.02137951607325026 -0.12270958684482136 0.12336831031213229 -0.06347606929424636 0.03941539125250184 0.23673388935926126 -0.20586394196090693 -0.05172494912376943 0.10931588574577708 0.10510206376173595 0.061242660399992654 -0.02885768424558794 -0.027340984113808815 -0.05609793803130165 -0.07343890859833463 -0.15272828722092988 -0.006825193714207271 0.01647779114604559 -0.019042542833408834 0.07026786371159874 0.06280274570320256 0.24358429156012537 -0.091569418637005 -0.0703342727960257 -0.0807764066725088 -0.0346048422563536 -0.146723356743891 0.07331789934866129 -0.07237218230411524 -0.0640825648591445 0.05517835139745602 -0.11715036036895456 0.06121182552285195 0.13142751828164184 -0.0877031106816053 0.0013946398210926904 0.005988488541809406 -0.21572767807688886 0.06779637904473984 0.11810535088293005 -0.1014421017953267 -0.12684572833057697 -0.09879813935350551 -0.009302757263869208 0.029943480480116833 -0.06175061953701229 0.027810609581984766 -0.07966074208526085 0.07656066183005837 0.14382056564505422 0.09934651057893072 0.0980312813690657 0.10221751144978926 0.016616478061603875 0.13706658135866673 0.051873596271876855 -0.13005157160178818 -0.08635431516973871 -0.11963351512544738 -0.24213042267949816 0.07894473142493226 -0.12806548927088987 -0.09908528916444395 -0.07675896363571036 -0.05328644624182046 0.02838971275520197 -0.07453655576350691 -0.01710040947171493 -0.04542943621658905 -0.0741825964726195 0.19950074613116847 0.049810456898970984 -0.08965137963165348 -0.04733047217365779 0.0419932038969297 0.06576101020357533 -0.0362362472657065 -0.06310476869216933 -0.04767144901629725 -0.0332306819541588 -0.022579446481057155 0.0320328033037927 -0.10919542036197752 -0.014432908751614865 -0.03268726603553997 -0.010936740567150464 -0.10500100391272647 -0.03448959380967947 -0.0705333849639535 -0.012585369452514436 0.046578524246875405 -0.045543028407510365 -0.07835735943838107 0.10742245392186928 -0.018020062350161615 -0.003996104556571419 0.06644255684059305 0.04822735356187061 -0.06504194351080393 -0.03694043403589043 0.11405321683201089 0.06991393051298306 -0.08578707695440435 0.05997282373378107 -0.11541562278715087 -0.12437657113504555 0.012975404021335351 -0.04591327861261141 -0.025290411064618164 -0.008369270850855877 -0.10729251975607543 0.04607492878196189 0.03832992302380733 0.024010658909862845 -0.0983096040336879 0.07797123586103316 -0.023248171998544585 -0.06336560731462117 -0.01723584662885543 0.08809474806706111 0.038864970141580205 0.02319521514980182 0.10333584447356865 0.012937970691236863 0.009473344998239255 -0.03964773842488232 0.10871835476547766 0.0686843869454582 0.16274570841977137 0.05259374710746962 0.06456186607100865 -0.007393141961391708 0.0032818309112218544 -0.08693433111677223 0.09503219984387606 -0.1244653264615695 -0.06339008680230813 -0.08145629346951246 -0.024607833924815803 -0.07541450125423929 0.005323107332604172 0.013343122709271753 -0.03873981238012455 0.05396485665451968 -0.028786326829984818 -0.07898914040613116 -0.04583684160624676 -0.04816609615819477 -0.07488486821117683 0.11854886477181356 0.014108115208499191 0.027195351458561876 -0.07000619934956681 0.06456916263344017 -0.0883937015082244 -0.042783312027767424 -0.050329708645451075 -0.0512748381454423 -0.042333748054175155 -0.016289499105122483 -0.05958910903144149 0.12793943159361723 0.09196373963256076 0.10330387408322338 -0.07593013669402622 0.04828624964424996 -0.08366913913860137 -0.0130696669160193 -0.06972266615280628 0.10572201112425166 -0.03644268105681189 -0.08014352893855209 -0.06790239203507745 -0.06529024904639871 0.074647452747085 0.04807517934702099 -0.03168341827110089 0.10760203826683214 0.25718014289000213 -0.038086261907188675 0.007235660691212072 -0.13022190821490617 0.06730310935799486 -0.05054255459838471 0.008491290033199168 0.19270213026645924 0.03831650954635983 -0.125548321841963 -0.009701564834385147 -0.03516398154988807 0.0519156843576271 -0.017854590586182047 -0.05680263538315712 -0.08781893766110886 0.16208654453229557 0.041443565044689705 -0.06071475750068866 -0.08815370447999682 0.08582266068389474 -0.07213563627861383 0.04535152363943077 -0.04855744266377681 0.01661693606426786 -0.09787551022597926 -0.06581815027922404 0.060189861548986395 -0.04792079527752754 0.047101846472604215 -0.0022720439394984197 -0.07137957652031493 -0.08926191647818597 0.007610471787388048 0.03411006057472625 0.11388530160363455 0.021767287383071612 -0.04497152248974121 -0.011816466909435292 -0.07647010943155738 -0.025749253005872358 0.051231521778895235 0.03559169091597342 0.024859620176632163 -0.10161867480877738 0.14916746117961266 0.054472393724057766 0.17464447851414788 -0.04769501740232179 -0.08636083167972103 -0.0357188638455202 -0.005959816572547869 0.04656653379942441 -0.04067207411385226 0.09490757749785057 0.048733662839047634 -0.008920645195248383 -0.11008380898649318 0.048922486152380366 0.023773365745615692 -0.040424561231318754 -0.024862348028982444 0.030550832572314602 -0.08377361019994678 0.0715348063400123 -0.07338365341096155 0.0784598071632014 -0.07287437362193978 -0.04394620006274694 0.004449948225391737 0.07694605109582124 0.09903415013009913 -0.05509120389585153 -0.000544482647562075 -0.05371058267250546 0.010605497905178906 0.169476376921441 -0.1100060003951586 0.18758867607825097 -0.17086649448764757 -0.008334914616217388 -0.019914919950409043 0.060009259876737484 0.041204256337185094 0.07553370294283575 -0.048587426690994084 0.03773955974613451 0.1283239575416881 0.04987110851143384 0.0817906350978304 0.02777292191607154 0.00592110375535489 0.10911919515885433 -0.271054015112926 -0.05540208939478949 0.05753300088567367 -0.012495908071026528 0.038066244920538755 -0.13340592838903614 0.05732598167861133 0.17063003935537552 -0.08269623640297756 0.008918679126041875 -0.12112950329211912 0.01732197170190904 -0.02708856584744437 -0.12600731303415816 -0.08192567583645483 0.04030584785882322 0.04898512459567782 0.04924709975758668 0.039290434983606244 -0.1394227948602596 -0.15311296863002624 0.05009340684851255 -0.17961718420043438 -0.05058712408544194 0.06820845933917992 -0.045735097709714186 -0.18026769129175285 0.08704378956014286 0.013572533638781324 0.020044304003227997 0.006076982712876563 -0.0456257597983835 0.09725831339852924 -0.06904426719640054 0.004849321814989192 -0.08156072483160477 0.09221221133386935 -0.16212196089590017 -0.020726571575573123 -0.019062165873672623 -0.006491716410100022 -0.3370218407332269 -0.13677845578260886 0.08999487673867036 -0.028466540008374158 0.005353227914046777 -0.11698591931639005 -0.04172096534241017 0.09335704866361169 -0.03069062297638952 -0.016376804291417132 -0.049929182672532525 0.030318473945712788 0.04277634946597004 -0.2925384633210155 0.09960041450668257 -0.08766812280123776 -0.2057759106716123 0.07545339951839179 0.03392450181820786 0.005276874693982272 -0.04414612680060229 -0.047140944476317004 0.029626544571716065 -0.14099416940957188 -0.008290246089997644 -0.1169536817394465 0.08261406931961766 -0.07288596521250036 0.14207096100269243 -0.07926945299767103 0.10939341296483024 0.06974860234046626 -0.06373153242596988 0.09116588546646785 -0.08581019630678678 0.052303283587753074 0.019302571400643304 0.01583431797279294 -0.0731534843708946 -0.12536258627670804 0.0058475454925625905 -0.17859743960090715 0.01542170819440621 0.0915852569788164 -0.03166037587606815 -0.0721979030561353 0.07913182673021137 -0.1148304588114627 0.1432697078147649 0.09716966645645263 0.13108913826070906 -0.0273424579763939 -0.01573742259179663 -0.15423763650486147 0.08326707215676919 0.16635897790903953 0.011429144376017657 -0.054851940073753644 -0.032897304284451555 0.03184363048661538 -0.0886260794472362 -0.08950083067402577 -0.10333810295369775 0.040707171237247694 -0.018471703637290678 -0.1859269839387653 0.07499625348754486 0.0786321206898973 -0.06809691902109725 -0.001490905066220905 -0.16294242974570486 0.14779457835166782 0.06031994035816763 0.06884140988230661 0.023372396148979978 0.026178953190353377 0.1361964864830377 0.06814776535146064 -0.11895502251093626 -0.04486568988052277 -0.1061285478513571 0.037403605370402486 -0.17962540371539573 -0.06525938139185972 -0.06496995305735083 -0.038300353309966347 -0.10864122853282857 -0.09505682243670785 0.029237381508165197 -0.01115658801307098 -0.005932980682410834 0.14508546963659646 0.1670404837651814 0.2516132704150206 -0.12461010675385895 -0.04554186439340746 -0.004913033227950936 -0.16061629105314065 -0.03894951720209387 0.02002887260805699 0.04508782906123989 -0.0017933800890162699 0.0024676913932913293 -0.08396247032360232 0.04953477323482479 0.06824262287859031 -0.20331597883293498 -0.04453158503211288 0.1154344330713693 0.06325336495457504 0.08053843468760848 0.0052356092860545555 0.03889998767478048 -0.012497012940134025 -0.06775438244488824 -0.0009198010531866168 0.06658046225039722 0.14879159382622958 0.03984902000107336 0.1021848094121321 0.05043525682869009 -0.1430645057099721 -0.006285648519462729 -0.03001517072426091 -0.03399369267155321 -0.036477285128370854 0.13590289609323336 -0.0205483394052652 -0.017091805915169258 -0.06642240305896194 0.028926190430065564 0.044179755024909444 -0.028766964658093353 -0.030423700647019925 -0.07171770791269245 0.04052958252643141 -0.08127117798401474 0.052686113648702 0.054024050776239195 0.0847540698232344 0.014607383548432096 -0.04548178919303179 0.3086198712488985 0.07758101443260068 -0.0356329170313223 -0.016092250520773864 0.056586350252555956 -0.1518467492606795 0.016671777089609357 -0.028119532155491747 -0.09879190659184728 0.10880418981665825 -0.007239952805335845 0.05453856682157029 0.006778686019691149 0.09519100792134387 -0.06792045556160932 0.12064666849357324 0.11457546905765377 -0.08426613713758895 -0.19005864168906572 -0.05284144563169596 0.05077330536350551 -0.005140325965123356 0.08984068617370747 0.12390554804705171 -0.09201640683441542 -0.12200165541422811 0.10657343940009328 -0.08758610663393128 -0.07252313313745534 -0.0593306734297754 0.14214688586250163 -0.008618191645080698 -0.08972689352477942 -0.05181518092936003 0.3003693335159687 0.13234721112027314 0.05188685889951047 0.16439479150878114 -0.01900689845340891 -0.13368643848229642 -0.024378712975520512 -0.06886219543119013 0.07812511441661196 0.05826205723578652 0.1408185657737077 -0.023835538627594653 0.07037172006572297 -0.04936233223776453 -0.07576575062437191 -0.02962262063247062 0.033981271979903784 0.12597327769208289 -0.025175071166872655 -0.11784142882477107 -0.07482228135715437 0.0005382373434038159 0.14513420826881396 -0.11160774603607042 0.10094182930221607 -0.014770096802536242 -0.03413346501708752 -0.08307444234618165 0.04499619020683265 -0.131839017290031 0.14604294561319509 -0.02062470262484255 -0.06736537073461149 -0.014478656800294564 -0.2617027316151814 0.10636595035644138 0.05925063674870795 0.11344392513283151 0.02668350992182352 -0.12630604303499685 -0.01627595489886932 -0.022381098558495204 0.05459765960477338 -0.07690885222186333 -0.11841165353853836 0.016543725052400017 0.11878494384406028 -0.007064212714915721 -0.06607556111155308 0.08424295922655146 -0.00838696502282796 -0.06215360130161572 0.020865411750251684 0.10852242145230778 0.03693030296237929 0.025271032822179677 0.009817212302513945 0.07125339685939462 -0.04228163449087192 0.05712588779804204 -0.01563679266704656 0.006992432324897487 0.052232772213717575 0.06264679767314374 -0.014649976739168265 -0.14244498210259032 0.010657357651736156 0.06535726364105952 0.006037002368651967 -0.09859597818392923 -0.06647331752085507 -0.0009150589023045308 -0.019301663635471207 -0.01384149816322865 -0.092005173331545 -0.0442847704557835 -0.03420394197599576 0.024177619592260308 0.02407854721432259 -0.07816080635541482 -0.1434668899532307 -0.0017045874322593937 0.05743931030872313 -0.15015251261598317 -0.013932493250587236 -0.09117137821128009 0.002949053959153466 -0.0719259703342194 -0.023029004697678466 -0.052967243155293914 -0.11301808105297666 0.08309643380803586 0.050113084035060054 0.028952129488353025 -0.05301984560666106 0.08214236677241926 0.02775884562042881 0.057216239730167005 -0.036873713659254674 0.2273450280887882 0.059022912483119416 -0.038582402063435904 0.02754757889824642 -0.0471442018019391 0.07286340981172403 0.05333422883674223 -0.011185331304241783 -0.08738142456572805 0.024421677923924624 -0.14014661388094884 -0.08949683223248611 -0.01597555276975641 -0.06064414798210011 -0.06593236826258403 0.08757154076363188 0.0467531817603623 0.017036265870140954 -0.003299343803225299 -0.07629998542455567 -0.10742541329283165 0.047010898633217765 -0.17622772104299414 -0.016159397289862078 -0.024730653936961472 0.06098250091760171 -0.013595767050420047 -0.0020140424889724864 -0.033334901090538376 0.019071041057285507 0.0851707518838483 -0.04028915385745523 0.05963175809742902 0.08000342219762183 -0.08473380449983403 0.041328398567149344 0.0409086818634337 -0.09148391123005664 -0.05495165417985947 0.03144166983941796 0.023068034142788033 -0.038817055707182954 0.017807564150087538 0.04969491463696347 -0.07402935018584919 -0.051400358808467064 -0.1638178529077843 -0.02319715047046013 0.17749798004504821 -0.007094205452370946 0.05225475606880193 -0.159596238838012 0.11963390196243662 0.023113270405201555 -0.08391177002878278 0.034494787304075125 0.0795400228920626 0.01337695106220577 0.15343992688575692 -0.290753884090708 -0.02837489174578835 0.045013159329900077 -0.03251407803699083 0.029949062778367983 -0.19737413977184812 0.04211562244797568 0.030059923325848174 -0.020689072121409833 -0.13965455590908804 0.009830070057609991 0.05679181322962851 -0.0660042422629951 0.025091750877537972 0.09500952655099798 0.11600597138614228 0.00033087306508106345 -0.05818918102088932 0.07805804509667977 -0.06946583944949312 -0.031995107206491985 -0.0261360080057264 0.057549474913558274 -0.05260710588127233 -0.08160632619614128 0.05807312136670708 0.04843119387959764 0.1151005940699235 -0.08224582547694784 -0.04603059077126886 0.023376305912058686 -0.05768284130701166 0.09698099481582592 0.00955616417514557 -0.07255338283289876 -0.006034140017936109 0.0474033471910827 0.007136938817695652 0.07358585040979097 -0.08037229224988204 -0.0864172065419285 0.14023849575342465 0.07344081803762756 -0.03764105187837321 0.05965930638836379 0.03757281540562879 -0.04900517646119903 0.04589800351873776 -0.013909484948623162 0.05398389069156483 0.04666164573041251 0.08311448802503113 -0.005419096687398578 0.07979066830655218 0.013093340471767571 0.056482119845927894 -0.029176081018545956 0.06313928464386995 -0.0809523960213747 0.09358996060066747 -0.02318572997452225 0.002712281644553272 -0.026021552457036422 -0.04155078695855122 -0.01853893329400029 0.04028264104287343 -0.00924671099667709 -0.08430127700104136 0.001089482062593277 0.06175303935420924 0.05151810703316201 0.01833152769444405 0.0030728694557035034 -0.07725520466416393 0.08010781850013007 -0.040260203386158815 0.0029749306527135666 -0.05916688973290494 -0.05309836969077726 0.040297560983448014 -0.020177346393249432 0.04740396268071059 0.04169681837644483 -0.0852217664279034 -0.007804257350604127 0.03304271837784044 0.11471392132952368 -0.03197456896050501 -0.13645294170477065 -0.06934122131365114 0.05152283593440137 -0.02831808481994865 0.013927059032292216 0.0038032351023839983 -0.05790233623738251 0.0028482667588803183 0.0401605492544877 -0.0741258808599968 0.1442061909888732 0.019088960487774052 -0.04773794057390673 0.0016735501996910545 -0.040275411166784715 0.029837552403874538 0.007895559179904973 0.02237736959367213 0.01216278761048166 0.07848494767383711 -0.012384191324608608 -0.001195403291494723 0.0649453239212172 0.08478072591979142 0.04429836890165011 -0.07018752969246854 -0.09369354983824407 -0.03389351338003868 -0.0918517414551197 -0.061515244786050534 -0.0354132785311851 0.05724766580550393 0.020286949626155276 -0.05012777966134614 0.044056973165157505 -0.08363631581555224 0.027165914559488268 -0.10286363645485666 0.0901999196597021 -0.047147164073933795 -0.04301900746291621 -0.11326155007743678 0.06720182651565546 -0.04302633072648587 -0.05187983363042295 0.1046698383431042 0.0859281480512432 0.06352746660168683 0.25687196234443876 -0.12287529443238455 -0.05300502835385306 0.005760417395182936 0.04396169055774294 0.06254440758615235 -0.07828261199044359 -0.17259137166975996 0.1572274061660638 0.020367348060913268 -0.009778593925652383 0.028669742721664254 0.02584642178153543 -0.0394156019403523 0.0059549065384776004 0.1688945044421507 0.010548625182056433 0.12171794230274989 -0.07014461858323853 -0.08748835517984127 0.12607706313828737 -0.004655000859074841 0.05494940851128481 0.018258359387961966 0.2237849170174173 0.1217525147911818 0.05247886743849204 -0.19875745489834584 -0.030919912600863825 0.06989196093620786 0.029759265932127053 0.055120759325683305 0.10294379832057352 0.2935407096492084 0.020826699614140565 -0.1865641226689793 -0.13244198383271788 -0.14801622406889622 0.20392164866112977 0.01271202660793206 0.01979054221749264 -0.10977087873143337 -0.19797148366618864 -0.03241532167209515 0.26652199637904406 -0.035348350495064206 0.16207315703494424 0.07345643000744237 -0.07214875783608447 -0.035539200699400614 -0.000710218340494867 -0.0389505893702543 -0.11444662382084397 -0.012960626048590208 0.15096108700547484 -0.056249775768235075 -0.014696611681315473 -0.08704952026996018 -0.007512805455615161 -0.054503710554942054 -0.07860228002446522 0.07715051923799272 0.1128539385971448 0.0041679408705977096 -0.03916401311760434 -0.05583777416727617 -0.13490248465988589 -0.18000031047625373 -0.09980440911303372 -0.019799993504307944 0.005725600401085338 -0.11520957562552882 0.03149544402578266 0.13088464983758163 -0.03905253081766856 -0.08037822432528707 0.036621281602074646 -0.08742004984214832 0.017035422732961034 -0.023500404945540048 0.02738070193787936 -0.10240846365096579 -0.15250736754151764 -0.2848186504416005 0.05484651288822968 0.17735036015422387 -0.01991039610024978 0.048159291939137205 -0.0234636154013083 -0.07275354641413981 0.08145301277476366 -0.08625131820652283 0.0665032068960454 -0.10418091830305583 0.04049235974208473 -0.08832462906112612 -0.007908340800356023 0.1141873503686529 -0.009078447343920056 0.04698210217941833 0.1628428179774666 -0.06823660276485356 0.02517320540858109 0.07065887921192339 0.22860053423354024 0.05417116251965345 -0.132011398498872 -0.11416742144001557 0.022124952360970254 0.24214686715369738 -0.10703390976408132 0.07281709767956894 -0.14283831908649153 -0.15245806680617233 -0.021354638784486138 0.0023465410904625404 0.13300021212412735 0.050328822939140455 0.007546215202866408 0.10137053343115529 -0.23221541283091762 -0.10479700640363823 -0.09606373779976778 -0.03154922471517303 0.017962006704053173 -0.03876266366317336 0.006256469579409131 0.04230455732621281 0.029726416422525753 -0.22979988281488536 0.04769739698535856 -0.04882296673332619 -0.12980341811472107 -0.05965535366060473 -0.11843879433808215 -0.1314431484877222 0.028230054332454207 0.018841529513138573 -0.07517027827426553 0.10798158920837808 0.03821871072460304 0.008990703354753311 -0.07242555340368156 0.06343042773858035 -0.03820463878264143 -0.06141581058523953 0.003235942986645086 0.0478622905783088 0.06104672213171425 -0.01831481835240482 0.009094664054064455 0.051125346444695574 0.07857692919682462 -0.1414678077139642 0.0791732274945829 0.008023851038625933 0.10316306972705264 -0.025394806038274192 0.051338298243327626 -0.13025600917658925 0.14603580892875678 0.01956130864929668 0.14438387902644623 0.041723465920923374 -0.12222471216956317 0.009752660378610877 0.08220725812480305 -0.021975373201793113 -0.152527887854785 -0.12049967794462908 -0.10491698277539979 -0.049505659718429657 0.09037961877393062 -0.1262745301479549 0.03253352784642791 -0.09149719709572145 -0.028500537237290638 0.04709638489719231 0.03945681188670085 0.04470812824710281 -0.09719521487450443 -0.02337089252694545 0.0036396970560847825 0.1628747992749986 -0.17151460442771616 -0.06781361795714473 0.15835458931163598 0.004585725559534044 -0.07128613941174758 0.033226204888776444 0.11712382863339331 -0.0022816469718246295 -0.0366572037783335 -0.09250753376076465 0.030847150110551887 -0.0755702698779483 -0.0647267683189161 0.01157339650765285 -0.015951893056478827 -0.11946213949245195 -0.11266116911993425 0.055237729553258494 -0.07636659254311885 -0.08317699932930273 0.04091515043723331 -0.06869222969452114 -0.1461298718253175 0.0353786781846678 -0.13500574787665948 -0.11438480222632462 -0.06806498978483352 -0.004291052189219253 -0.004679369799907008 -0.049175156280509794 -0.04448822984426486 0.053402346102580434 0.06807485396324385 0.12588235848370402 0.0005562826481509908 0.13764491728467645 -0.0775347958606575 -0.19856335613599765 -0.016310253918122037 -0.09822719574946816 -0.04723099639846268 0.12737216094234025 0.009223382672368878 0.009759284176809992 0.11886889301552533 -0.020445039060314713 -0.057617644710375907 -0.09177311333322682 0.09574373429124348 0.015604045815712958 0.054509840340050617 -0.11803948743351782 0.06085293636881165 0.11462550812970734 0.04855069592276284 0.07718995281985697 -0.09869890531913253 -0.03840359941948067 -0.001675305883283959 0.04775144896593581 0.059556996363365436 -0.04055490186260176 -0.03991854444321536 0.06835509382607666 -0.3266315700690749 -0.11390204836308152 0.07169534346497437 0.04749275079678143 -0.03556314026014725 -0.13337393444910356 0.013923174615885837 0.05468720020067418 -0.07416430535366883 -0.07912384422773197 0.07952562616299837 0.1897957493933303 -0.09881241005489824 -0.027510545380459335 -0.10357983502548182 -0.24541202579744317 0.041822089167426794 0.05302716145474771 0.0014747331230864106 0.14579099465941728 0.1957089848805394 -0.12026218213476127 0.07787657371741408 -0.05013196144672942 -0.047260556748810564 0.0810859798580176 -0.03352595518052541 -0.10354841214618027 -0.030699873645928303 -0.022646684250295642 0.009408615683907313 -0.01745196104015261 -0.0646225507960203 -0.10930878818621007 0.007329298460230992 -0.03113009801165586 0.03301406866175613 -0.01857028258895304 -0.0007465974667300999 -0.10861052584756663 0.09392194445647284 0.019367350867720977 -0.07652737818389156 -0.18396567385386678 -0.08202176647881063 0.08641218599602257 -0.07106365947537444 0.06520924891447087 -0.08202696313794709 0.044328144532477014 0.053393065586781654 -0.08701205060230864 -0.042054419413134814 -0.023640515765405372 0.016197695098367215 -0.007283415799047972 -0.08727373815647292 0.053637032666430655 -0.04817025171843094 -0.017368937468842577 -0.03553374786913959 0.044619094577439525 0.008644711303115227 0.03485648913267496 -0.2386486039494615 0.05621802441513775 0.03872001284103391 -0.029978364995947776 -0.07426733362857287 -0.12767944020417626 -0.043133190621369936 -0.11207234301301185 -0.009711228442756438 -0.159763452286568 -0.045427248805557645 0.17653912149443077 -0.010303242165216431 0.027081121432153563 -0.06564045150444298 0.1134105494425032 0.06345821315555744 0.09631361664505285 -0.07395579494256847 0.1226655095330479 -0.07870020202408409 -0.06475686030437892 -0.15420080841290326 -0.17223144392489773 0.052079133118141135 -0.04047396749350733 -0.021168780063321083 0.023669702236625553 0.06362754556373001 0.1497489221495291 -0.21337588554226825 0.15352246588025847 -0.06067727328546774 -0.0985954192172474 -0.08487483054457505 -0.02178480968952478 -0.021219351358858766 -0.21346226361023793 -0.023876464972612848 -0.1879854441627669 -0.03535629310123822 0.08592644136230829 -0.009570360189706157 -0.04222885350326272 0.11476979001299878 -0.07732446095972698 0.008357561656687724 0.12773785203948143 -0.02261789081543443 -0.0890926789494049 0.03458821952121514 0.07350182674626472 -0.02388089550512481 0.1127126074718173 0.024252411812783474 0.2025781287636447 -0.23197443286836325 0.04672604838263686 -0.17369102060753497 0.0190590606448113 -0.03816682971815058 0.025232921814206073 -0.030847823169251515 -0.083894944796772 0.05525261196638203 0.16051831841815445 -0.050819245224588486 0.058207971425908715 -0.02038182775910675 -0.15362962458260193 -0.01567986035854823 0.14337225876606083 -0.04683939433266228 -0.1125748724474427 -0.06723091333317742 -0.08677516769656865 -0.1356980295896728 -0.1523206590756968 -0.07819422333008251 -0.1751234648099863 -0.0011813446052162412 -0.04259386115060336 0.000050934700309297556 0.2090582488034189 0.09443797423484795 0.02565793204674371 0.08716388427842235 -0.1459255824297919 -0.06626553047912716 -0.06209307603447471 -0.008423167293155747 0.0005481958010300784 -0.04601831704647241 -0.0006522119827097591 -0.12269469022255762 -0.10737195747965077 0.05539190833982061 0.004421918504322364 0.026893075720989323 -0.04454871962156586 -0.036825859878853326 -0.09235853321407969 0.08253763280494018 0.0696952314832718 0.08595523074178671 0.05363375715001702 -0.05237364794541619 0.04752481867284219 -0.168358803437573 0.06276845028983839 0.09910062692177433 0.011352749054554771 -0.05687459165427602 -0.058121873352948564 0.06359990181254314 -0.06478496692252605 0.03850246035956981 0.03280377985495057 0.05400784093405613 -0.11500029540906992 -0.06453335049189778 -0.07622463528474789 0.0028891520948586026 0.04717878410429939 -0.13767715792615978 0.07960228231329508 0.05190472315801933 0.03168407318077863 -0.15621135229499294 -0.07944756423425789 0.05612734149411028 -0.0868070991785216 -0.06603680478933986 -0.011899376873493605 0.14867758951870602 0.05217397305603029 -0.09402340089858482 -0.19742262345557043 0.03455081525316625 -0.006470694831105161 -0.005312426017599383 0.009264809397587599 0.02376194855332642 0.052449422429793606 -0.14388641027199997 0.11749049680568588 -0.007696841095079128 0.049878405318102954 0.014753296225996927 0.03525378553430463 -0.03657192775618427 0.002142233730328728 0.01431682348688453 -0.009760408599531258 -0.02719139849749016 0.21636391613964223 0.05068521004376384 -0.05267540000034366 -0.025291201590866827 -0.030885151059761605 0.01533929642938687 0.004169959969369516 -0.22762272282898513 0.03033354295146544 -0.13713018652747516 -0.14109567633477754 -0.04279660939901863 -0.05148071751097607 0.010153020832436589 0.03968023766472294 -0.06654846061044095 -0.08935273679380187 -0.11270248486702741 0.1018166981293726 0.09159548722833143 -0.08938743686822583 0.016753811233320266 0.04148384644967905 0.1471896154625152 0.13950310833055166 0.09116244090639869 0.03565598058359224 0.11819984364315712 0.11686985333325434 -0.024015279827232772 0.08135402744411122 0.02223490055875864 -0.021311646782603253 0.045382244649069495 0.045680796318541335 -0.11764333794404498 -0.12437788613769118 -0.000835056978159496 -0.01351829796233481 0.10834764102442199 -0.04808369452827458 0.01073680734015107 -0.06307504735540784 0.14111363903420468 -0.1179268712745134 0.06690886844500889 -0.05540964269637631 -0.08587545038085381 0.04403679318907389 0.12287426862169523 0.013334929477700666 0.009563946569621352 -0.06511177506949209 -0.10098701077647658 -0.02824483959275351 -0.007223230829456575 0.12808325520583916 0.020575767460917722 -0.06525089453924234 0.16515638505249733 0.06378644103314374 0.0183977940811662 0.16050041670129628 -0.05781478830043324 0.03480045626454932 0.11605972327726864 0.04467086333266747 0.053291628876004686 0.07936614799806516 0.10789109244122079 -0.115469663177687 -0.1594691075742736 -0.09000837915358234 0.051081392551501334 0.00749714202896317 -0.05491390975196206 -0.0893544953166142 -0.1613237873879747 -0.029559106270885527 -0.10876703493641494 0.11748299659801027 -0.015749866322063464 0.03574667681711831 0.21398013604499788 0.11219341923870177 -0.011684493194628302 0.008197190183730916 -0.02067930927908683 -0.03941097009238736 0.05413508707809483 0.052946501513632324 0.03864401079441358 0.17624338237307555 -0.03831548136758794 0.011957596493472656 0.03633890573961674 -0.05774668405324459 -0.055254291258551594 0.05631971739080783 -0.04378263617625753 0.03801245136427425 -0.003800197061543299 0.0785526796462065 -0.130443406971853 -0.08385915308189008 0.028778762414972167 -0.05648343574663094 0.14541229818825133 -0.060390017938849475 0.004594505118302469 0.09005383124606943 0.012344803080317057 0.0142593962459893 0.03753518872438524 -0.0967945657278688 -0.08662197652609646 -0.0676651134724417 0.06941375759435231 0.06785510838121193 0.05447094157611176 -0.0266778720126782 -0.011427797782944064 0.07948774687916503 0.08899198776008939 -0.06171908905115299 0.020256637103381624 0.0008612879430980083 -0.014126238383596373 -0.08864584318460605 -0.0675821225508726 0.12282528213499307 -0.04603187960427952 -0.05611531121303313 -0.07344912694273754 -0.0057392013472703585 0.053043610705895014 -0.08342768904272656 0.01929064109609161 0.05404934118746523 -0.019090443785212647 0.09965079544773806 -0.07833890947298339 -0.1072807302148577 0.053651712875112986 0.10033106656956595 0.144956608112247 -0.019961959355793094 -0.11837392207473371 0.050680214197765215 0.12538626579335108 0.04480465950744464 0.049247601024610455 0.03756974952632773 0.03497464650499101 -0.14928517371647923 -0.08752245055201559 -0.16296014967896108 -0.13628218952588544 0.1357371997220358 0.07650716148298156 0.12405096164012513 0.07627960823155447 -0.06318074925303283 -0.060417732023908856 -0.10100908831978068 -0.22319221199366096 -0.09783416056588455 -0.17422457243338726 -0.036985939316262956 -0.07779468626322131 0.01681779886169333 -0.20241285394705563 -0.04034531117698091 0.05191547290233757 0.06760216147389785 0.03688223181235918 -0.16707896226337357 0.12516142848852352 -0.10124029413218492 0.03386003499791389 0.0958409990827017 -0.0006123214758863787 0.09796828012702041 0.018689411411072953 -0.05815781412408215 0.00318295875948294 0.059815288000843944 -0.10544545531515519 -0.14829140094464843 0.04862349263692466 -0.01401127331876587 -0.012128878093368302 0.07222583357449745 -0.243070921145457 -0.11600107700406409 0.1431461175758761 0.22565637740784736 -0.04077203390118497 0.11403270905297591 0.11776867750091372 -0.07253590035883956 -0.054358678914960115 0.021862107634350994 -0.0512955427593211 0.08323638445155576 0.009429565453040106 0.029594864548777664 0.03337169764040719 0.06332653182041242 0.1269413598592028 -0.026367167237053603 -0.13891061124201512 -0.1510316347260396 0.03457939509813338 -0.11829995138433314 -0.020534702883575846 0.07368477741244495 -0.16753364305603646 0.14553700259826505 -0.04295913162705036 0.16411749071688705 0.08804577755123195 0.0125591868854603 -0.015749063501226204 -0.10684690591458296 0.07267368655023959 -0.038974173332696926 -0.11638101654967382 0.04304773282532228 0.2558322230221151 -0.04996652001073671 -0.05894670949891576 0.038474542508737795 0.07668780198293752 -0.03355270781482444 -0.08757518725569721 0.0014990049304562476 0.05173867406972013 0.31952830052374886 0.008401751722241328 -0.20541356048310636 -0.05555926049273814 0.13525518558641647 -0.002356950071418716 0.2605731058587553 -0.22771245279981944 -0.0755025987754175 -0.11305269246858464 0.03995406698652487 -0.1451825746682913 -0.10385248463602034 0.0474925391167435 0.03682786350644638 -0.036317373963663906 -0.11012869477529444 0.06259826530220995 -0.11459648937464165 -0.09151361857332527 -0.04637175143010656 0.1288423302013329 -0.0833741294586203 -0.06957926942304606 -0.09397419852459282 0.143751773046442 -0.04560756781886964 0.06794681665305502 0.2313030740449727 -0.09617182068809133 0.016323199583608013 0.0665850356432945 -0.05422925042244612 -0.026945771649542094 -0.03903942984532542 -0.1360743243219905 -0.041249697809551504 -0.005488450255152317 0.018658669472759765 -0.14182186595748575 -0.18771200150296433 -0.07562039164756656 -0.013356851985306888 -0.10771826797153554 -0.1508381496793981 -0.043191567569198536 -0.1437450096842799 0.17979366648473383 -0.10055788121852142 0.09775296060049515 -0.20244469064277637 0.0013613943743792352 -0.03037577377391785 0.09802876463874165 -0.012277961130309059 0.09694113462107702 -0.2313823146634324 0.0659176443931891 -0.09608741645348727 -0.1127007118635789 0.06808278367696281 -0.014688529352903237 -0.07953981793358954 -0.10301530976946911 0.019809374870523526 -0.01525741157441917 0.02820929779132631 -0.0693795997800205 0.318499162217834 0.1332687063182833 0.3286400016815335 -0.1382944469396318 0.017991560473793647 -0.09790255095688385 -0.23546961618568513 0.04825772171191056 -0.05008265977643238 -0.17569004052663065 -0.08650207036534133 -0.049413920228349624 -0.07144204667333352 -0.07519265688968799 0.1966844231636003 -0.1558749888546872 -0.005246245311377612 -0.11466651099134002 -0.10395871114865483 -0.04192460422926191 -0.0818540486174301 0.015077946980422656 0.11605414852826781 -0.050320353844326635 -0.04750188248310601 -0.02412250303134443 0.07831112365778414 -0.06856091881369417 0.10408778870235398 -0.056686823117276415 0.042598355351827995 -0.05340751817162384 -0.03046180248959664 -0.11147140710859044 0.011717217258056396 -0.0020262977951648075 0.06170571472277987 -0.038626241737417875 0.0066868178105294026 0.06392941448331717 0.12641814267376675 0.019019990967610846 0.030345954769680814 -0.15614280333849467 0.03027792356844687 -0.06571946651361106 -0.016685559333734185 0.028982684485928858 0.043740621322518256 -0.12290865034997496 -0.19209422606392962 0.08533290008117053 -0.05115493693469447 -0.055777494158863176 0.03598178542589646 -0.059752777511184574 -0.14454548815179655 -0.02314004819909635 0.07613024492913092 -0.08912003101362655 0.07650021904908477 -0.010315665719899626 0.08356016432657007 -0.12277480217608007 -0.027568789665731657 0.06028662777583439 -0.07993197668646163 0.12881794891544696 -0.1104990627828526 -0.018209409195975045 0.05669789708731599 -0.06028848561861126 0.003276573541932254 -0.06396780240852994 0.1475380433364173 0.0020718220976753653 -0.1003863857142809 0.023408850136479593 -0.18385389648129496 -0.016208772722724262 0.062347565990536126 0.09699831882943866 0.0743993707680959 -0.031098394380250548 0.12457668510216893 0.20079773099080966 -0.01725848604669695 0.17581607853537343 0.09969522187543388 -0.055992285937076045 -0.1076135374200827 0.06933050837196313 -0.033974016545314414 -0.08538521317012168 -0.10985781984044377 0.01567319152855041 -0.11997084913894707 -0.03404954634619542 -0.10120709961964246 -0.06411396805513486 0.0015506466763407212 0.03188016524089946 -0.11743352702523856 -0.025357754300191052 -0.22986625347978246 -0.1530190906454182 -0.043589874023613674 0.18798005408975815 -0.09434646490448294 0.14759777424012083 0.15658920021022496 0.022291379059215934 -0.07442433409692185 -0.019114794520389725 -0.08212019295804228 0.24552521140096945 0.028353216248984223 0.030916649847434807 0.1284324718928825 -0.23331241996199203 0.2194801582935061 -0.006201082798271077 0.08836690023253155 0.08110128071684819 -0.2118818778374638 -0.02744321325014416 -0.08159426781073983 0.0906765788231564 0.04881258333800049 0.0532016667049851 0.06506233713720731 0.006459981916936738 -0.03795655650113663 -0.06771981804761859 0.1310480473647955 -0.060347057494161783 0.026095465258481294 0.02458234095644805 -0.11500147800099056 0.02138859745230882 -0.024900286448069513 -0.06329861034259245 -0.11802216736481647 -0.23008840856312734 -0.04530747647190232 0.12845126078337835 -0.0411103492737912 -0.0063123345880842525 -0.06251556549427946 0.1052749196969945 0.17650358230697602 0.07803427130954282 -0.06464860917563421 -0.0017928558940493167 0.1078987765666392 0.15633073958810922 -0.01588316528261466 -0.03805094988540715 -0.17504288654791128 -0.026859277963799718 -0.12078849845801254 -0.17507372005982227 -0.0681166753047994 0.02214249014908349 -0.10122534820831532 0.11952574278142061 -0.009787597653399245 0.08479305148789283 -0.189923441648768 0.08520305766058539 0.08231171736355551 -0.036137886437581805 -0.08731296504304785 0.0015667633169675003 -0.12557494667770686 0.01738459360089623 0.026208655016732776 -0.11153650090609246 0.04412253832575819 0.0462637991343299 -0.05785084313363312 -0.014677271085965402 0.016914341239011543 0.02558984084502987 -0.025556232673032146 0.06459999588608867 -0.05035299153130487 -0.007239366149609376 -0.12282633487293103 -0.00344394931261767 -0.03990163900349383 -0.010453888396221734 0.06064562524612286 -0.008828981218224037 0.11843213705632159 -0.055502137242226454 -0.041644717191080254 -0.1453835588092734 -0.06929439084643492 0.036351160748412666 0.038948350970005895 0.08293125284913622 -0.15542778800114368 -0.0028478950810963614 -0.08023908981788497 0.07938079688288473 -0.2329270229229245 -0.05839460131468672 0.05771736535798411 -0.10866827221720153 0.0015965257235309926 0.01772820622624831 -0.15622971551091963 0.0038748761998517425 0.11082953433571334 0.09252222378770145 -0.055404718764322854 -0.07707795049546659 -0.05962682271302445 0.03558089367667348 0.10764399511133053 -0.013166299029599406 -0.025574962622044794 0.09736671471210127 0.062263007879665544 -0.043946635351852156 0.06223127129821317 -0.0375235801173876 0.028097167994885843 -0.028078451820925825 0.01198324198705231 0.01566037069017676 0.0918924882651648 -0.03743230327275972 0.1117228838424387 0.11365281919866113 -0.19207770835100044 -0.002870175209894206 -0.11390476667954645 0.02809319625080797 0.05752083901153453 0.013599324538152019 -0.0786194220294879 0.1048793934769409 -0.030951368448857763 0.036144105579763205 -0.04372546021560439 -0.14271844743477474 0.11148223114694805 -0.033345294102834946 0.2001741720503066 0.026823677220904025 -0.11664276615109602 -0.07638651655739746 -0.15572796484268664 0.06795416426925359 -0.25688806921771795 -0.04274025549928052 -0.1876983718354816 0.11325455585344224 -0.04056698854529615 -0.05458049703422645 0.08144395965786613 -0.08408630460713379 -0.05877947194385073 0.1140396577268436 0.02635101614470392 -0.004656427272029995 0.04144279671333806 -0.1640472840354589 -0.18815156553324708 -0.02696579108716645 -0.05785134886215886 0.06321510597097241 -0.16566886234729009 0.152324710488753 0.16960396330617616 0.09918554331614399 0.03396681970359928 0.030373261145172428 0.06571337667393772 -0.10866589806481075 0.21703275831621688 0.22437153331065318 -0.1706312502042884 -0.06506374536620882 -0.23191598830378374 -0.09632139406748963 -0.10279755901791066 -0.09011949150120983 -0.06019138972380974 0.019898434430543212 -0.144185254095112 0.10066782235644138 -0.2122715687884831 -0.07200530496495271 -0.11384273692239619 0.062413080730646345 -0.02596431940260324 -0.051571640727568153 0.054203045593075996 -0.07772187580894263 -0.048757564913946984 0.012099922070364828 -0.03863334403710927 -0.08265531992879402 0.0350686916290295 0.17811705972670872 -0.03972218462726704 0.15338580109741093 0.020661136402260444 0.015382491622731127 -0.02388340925057587 0.0007687816065623657 0.02716802850215338 0.11165340115712272 0.15816847740003964 0.020613728987461798 -0.18162532368335574 -0.07662601537482136 -0.05151937739955044 -0.07489010354425825 0.15413228876508403 -0.16092177866658777 -0.016701349445949275 -0.17020010959793938 0.055125141026974474 -0.10388223062650746 0.07885478117766206 -0.000010976186508922445 0.07702175708075942 -0.07758838583577668 -0.13721387629100334 -0.08541352683992795 -0.11895942907495521 -0.05605302215328397 0.018235836180863937 0.10205147755418893 -0.001686553936105453 -0.07137044084416089 -0.07404453007079194 -0.0711055782282086 0.10302974838962227 -0.06587358230852979 0.10277343187525102 -0.08215387703193609 -0.12319860186320324 0.05663849363308996 -0.02478781420967069 0.0036631977194680632 0.04717026507818322 0.2348909680202548 0.07035583453628477 0.10229479410517091 0.030588525038183108 0.15368486249550148 0.022949898940954276 -0.013334902028494843 0.03879548105326249 -0.07967044895705774 0.21413484392613866 -0.06199955968699848 0.12692233530516098 0.10057640768471308 -0.16879144985720407 -0.09344283072002169 -0.2054716677045429 0.09498660651714061 -0.06333528662660272 -0.060313521016292795 -0.01344569531201071 0.03512946984164817 -0.21396442958317632 0.10569386060675641 -0.1452160341472605 -0.24379095367919057 0.22793095346909464 0.055349034733954285 -0.026281525647282936 -0.11480157911690164 0.11955791247604794 -0.08137732816780952 0.004845148160377125 -0.014014290538520584 -0.025723825971913482 0.05797241576173033 -0.0032431521666894565 0.1241708055767236 0.026994481650842103 0.11496222778736546 -0.1864347098746073 0.10936175178172201 0.04389467642550427 -0.0457019859877935 -0.06478602605217434 -0.06889761570673032 -0.04218434063904614 0.12247058356925068 -0.0949828845387382 -0.18652287796213535 -0.17422452125351204 -0.0005506890622802255 0.1687112429383456 0.00937985337140565 0.25025493159492157 0.16194538394749294 -0.1161810127775187 -0.01787283115798518 0.041715300008307366 -0.03875546065773318 0.19117129739771885 -0.07175320243368914 -0.03048597072316678 -0.03980155665085033 -0.027963716994672608 -0.06539579975023384 -0.018558868447008547 -0.29383724685502627 0.010825473854497366 0.05171340689907883 -0.028007975439400628 -0.0035048631344706377 -0.04621448088493065 -0.05780015290866262 0.23249974576634427 -0.028347248887117416 -0.0841203751352014 0.10520416959426751 -0.06902005681445164 0.03704465005818078 -0.053048806854346556 -0.0013827012245322045 -0.02687310438406215 0.08743597291768712 -0.10271635218403004 0.1223538297539134 -0.03795561085641651 -0.028186079887160608 0.085373200987399 0.07896609823273842 0.13336145083073414 -0.18382264982504637 0.17457562323772283 0.1445534165486724 0.34658013153269446 0.1380058181558372 -0.07417394411511166 -0.052015419492967424 -0.11074223039486666 -0.07684578359925631 -0.21496788285076435 -0.09840016134146301 0.13537764420365728 -0.03099896129018569 -0.12154799770135793 -0.04659654733029388 0.021508331382559323 0.08325556950581738 0.19917627096238286 -0.005605163134905634 -0.22772242072251336 -0.04546678117560134 -0.18733066128654918 0.0513039421862241 -0.1345539626148974 0.0481719511573031 -0.09852697804241319 0.09623544871483494 0.05444060092367271 -0.014002714722221346 -0.03745194657260286 -0.11976314292032071 0.19240791387275308 0.09668048082495434 -0.026624172143374245 0.03761478152996031 -0.03264477856989843 -0.04502788860827088 0.00024142855294580494 -0.18604559729192344 0.05241458034694871 0.04905658905742364 -0.06038973792587816 -0.1746041770242361 -0.07768468190347773 -0.15943709877655615 -0.07603637247221287 0.0359715185586306 0.003712352402060227 0.20014156011191997 0.05725047036846127 0.04197366279530978 0.060795777514694074 -0.0512799801862491 -0.18232311660696318 0.06906290270794158 0.016983806411016013 0.0027612796379210052 -0.017348261488800937 -0.09982281589081195 0.011640797173636934 -0.12724779429889752 -0.16379723081511957 -0.04032145054217455 0.20076480991122367 -0.022568260015127666 -0.016511419206584076 0.00002993352405894138 0.011864287610662445 0.012232597984669396 -0.004855533001148418 0.0642339887198265 0.025069917432585274 -0.035583018429178936 -0.09102957952979049 -0.07204176409975947 -0.06511204442273008 -0.07991166192169032 -0.054659412783839956 0.1794233321963682 -0.03449381302496557 -0.07540297273489556 0.024309089015414533 -0.023040473338777876 -0.07571910670195907 0.20150503483619092 0.009088368300512717 0.048280936149837694 -0.012962554420435196 -0.054396367062782044 0.10340633927825865 -0.07547082406786235 -0.06122802078845947 -0.04739430416076232 -0.12110770187548495 0.06604237574238025 -0.08504530305681282 0.008210714046011994 0.031080192346639474 -0.05547985132612715 -0.10918288112504611 -0.010502868227652767 -0.0038560181215786036 -0.06579838103581942 0.04410161132658536 -0.01629537581559519 0.15306348961539387 -0.1488542347185744 -0.06782517763237705 -0.15083922798564867 -0.10907103051489817 -0.13766265676988576 0.19459771811105067 0.032656666961739717 -0.05105931785175877 -0.035776846036656526 -0.04836354921452246 -0.04981462602248363 0.13215710431678174 -0.0781083855450523 0.036911619311519046 0.04919568937859849 0.001761119200896475 -0.13621071608341434 -0.08483289378644607 -0.10374283752746136 -0.05006055751005531 0.03238365730917552 0.05842530389348004 -0.0946655571119662 0.04879840939840907 0.08881140463440784 0.18260444259824166 -0.028456182852461508 -0.051204593006720076 0.11499146356516851 0.022980688901157533 0.10109358353686038 -0.12813986607219285 -0.05877962331531138 0.032021185069763015 0.12516367674023512 0.11663999684575657 0.02924127992658776 -0.05651627441795464 0.04594118969442569 0.07526276373207366 -0.10028752822724017 -0.08156753654789421 0.05248693604488521 -0.020607553260375368 -0.006855688622005171 -0.006125799605302029 -0.03703940539889254 -0.007536671999462406 -0.08214334954942194 0.09286832463786449 -0.08586298960399488 -0.06760374600627211 -0.051841581229893005 0.07536398721848393 -0.01707991227094238 -0.0782565208006201 0.007267057413555072 -0.08105086766422585 -0.06364960229081398 -0.06335214433414178 -0.11150998018717345 -0.017694596892509233 -0.08473599276816975 -0.05474747124761357 -0.12729195591166279 0.020780906840706492 -0.03951309628393807 -0.12402614390332975 -0.015258654865663636 0.034552828097668783 0.0770687511040746 -0.03240336054523548 -0.043148495197948944 0.201468071773735 -0.05690822531542574 -0.04834498375666966 -0.01496627433642764 -0.03549263669781176 -0.06811792481842582 0.18561947854484195 -0.130459460855425 0.0039042494461185616 0.01915907467059473 0.0544495599233217 0.12682978796707794 -0.23597636619260606 0.03686861014766919 0.07347963111477124 0.24156723240004294 0.24176150947419983 -0.023279350913672333 -0.06032838205562428 -0.06574339729553294 -0.16238323263997437 -0.1113467129310813 0.05544134119204316 -0.057289915829750085 -0.03815907604657082 0.06285496168278827 -0.062081635800720465 0.07561594472449686 -0.08440210084888247 -0.1339570236733772 0.17715247724298455 -0.006652354306000514 -0.06338418785833286 0.19586541438291505 0.029607371713238188 0.11785690783058511 0.09423170212373286 -0.11945103181432405 0.1101315798080221 -0.0016358629962944403 0.14847530793388067 0.04026357482516143 -0.044997119438755236 -0.10534647019459704 -0.013645544163443863 -0.0308788255747239 -0.062304948784551714 -0.08262034122472581 -0.05532986942908345 -0.032228378917804085 0.025074193649724307 0.13951243543641054 -0.019203228117150854 0.05355328996916514 0.1392769733351289 0.08606072110700892 -0.19306763652521794 -0.11694245218212397 0.1019979592764111 0.02989274696592258 0.16552279399609113 -0.12931949945332594 -0.06895365318335649 0.12109294174557034 0.05411493854460116 -0.030407987152552 0.12639682726611362 0.039771278883950316 -0.0943738954274653 0.16573119742361334 -0.1920693850257479 -0.08657732783382309 -0.04437415361900727 0.03593440552206292 -0.07277715205108055 -0.00995291050907473 0.18919395475040982 -0.13486472437530908 0.06667718988401045 0.20555091955580046 0.33701654670275555 -0.11527001804172073 -0.14123551015081065 -0.024782472960998825 -0.0809519683198457 0.144605642350807 -0.16787192355748418 -0.0917962988590015 0.1016084706908207 -0.06383110845596532 0.02939773047350785 -0.08875834947751757 -0.08339707366357309 0.033649380392461924 -0.02326508219990084 0.12016159207434177 0.1303966094195934 -0.05492390482751912 0.038362992321741424 -0.046700220682596175 -0.1317862135546681 -0.0877848576760659 -0.09439865628791459 -0.06892933960715697 -0.07845192385593683 -0.06854249050472204 -0.08890317782683446 -0.1506527919604694 0.11751305450037366 -0.03331149623607264 0.08096561923560767 0.013154225947863798 -0.039517389805222465 -0.08858186304350518 0.028076617296537997 -0.15253001595552967 -0.02455478120925178 0.023139557588772005 -0.10436819865942475 -0.07561173958038582 -0.07337004544768784 -0.16688031283566435 -0.10656921158478841 -0.033292148013554936 0.007588357604304436 0.09885300323672074 -0.07647658452182513 0.021415339867707512 0.0679676008624316 -0.05600598228035689 -0.10763123298361169 -0.005843713041716603 0.01483289388670751 -0.06344536403950805 0.19792304224969332 -0.033842671837287425 0.002240569086601334 0.22574143413598288 -0.0921572344443271 0.1704801899480839 -0.10374618648008826 0.1091484315498204 0.10227495772300466 -0.33182834634218145 0.2578404765170714 0.04353297294827225 -0.09672214445495662 0.0652495736475027 -0.2088741056597118 -0.00920286428091433 -0.06770151979167764 -0.2652377065951023 0.01663557181774392 0.042661887735150325 -0.01835079080310072 -0.12278028013259012 -0.06136107951185279 0.0910909363900367 0.0329581010809843 -0.05574791410602117 0.09652856191645184 -0.08695116922767109 0.020322998711408035 0.13898997217149367 0.15979384103792968 0.12335673713018398 0.04470010156721024 0.10007478788799018 -0.14419029431571656 -0.11090345330086131 0.13263845792694212 -0.030193363461867937 0.0839623578835807 -0.0435234696177676 0.005918748452211144 0.05991063485217266 0.11019832144597481 0.06244020540162454 0.08707844779007878 -0.017514215689849094 -0.1478160571607113 0.16923481229089468 -0.13988862475968697 0.11590948049910164 -0.2026894099815869 0.1157622022363728 0.16006144210809362 -0.00036972737669229295 0.22885942178554014 -0.16328484139465435 0.07084280287079174 0.11631507841370152 -0.07800969331927002 -0.10417635007172639 -0.1065452380722014 0.040906725040095154 0.020876049694531548 -0.03686643545216764 0.11841819534283989 -0.2834409665079409 0.025367385096288747 0.13614499011058148 -0.06600562626077416 -0.031232878584639846 -0.03929982023491673 -0.09022405324213041 0.051169104678180075 0.006398313694479338 0.05562405095732062 -0.009070654956205198 -0.1394204654526793 0.07272220191711676 -0.04010027992013049 -0.21762397736631944 0.12142539723989838 -0.20035587273826996 -0.08383495695849624 0.07241467094572623 0.04949449131449416 -0.058084395716129424 -0.0035345307988476765 0.07431827814982271 0.11551596736855531 0.062211168080556566 -0.03129733780700819 0.1047965111021903 0.030125401894508356 0.03956753517028865 -0.1445169231844015 -0.0464459823956178 -0.04712058094548888 0.07448377180555651 -0.01652120674952187 -0.02060342685436897 -0.10734531397681915 -0.1242487915833711 0.01695300690384966 -0.06291130785743111 0.16134354002646245 0.0007353845678024465 -0.12397316694057128 0.039032343033376146 0.11208747102419263 -0.0020983552265171016 -0.059469737141523704 -0.03837491372660374 -0.043513521686010664 -0.08290074303258926 0.08315932297247981 0.021092525645331074 0.1295506209191177 -0.06413294429349202 0.01951791796828026 0.08838948904561197 -0.10673197747313103 0.00850824226381282 -0.007207634494837947 -0.10576035879359402 -0.16685918193660107 -0.06765145063205459 -0.10170018125971268 -0.1213987947257268 -0.09611069960460228 0.07006158115871382 -0.21574224982075285 -0.06680173658377202 -0.1988944361593279 0.19887772524221264 0.12014798095056942 0.16555859356856548 -0.11962574289406354 -0.08140636947328148 -0.09518947405256016 -0.04284927194819045 0.08609227471252263 0.04947729117180663 0.076580204498639 -0.07894763161378528 0.12088356896327015 0.03163642944576439 0.012134671456496259 0.03891194810010529 0.07477938921197658 0.017034681480308976 -0.04468555774815565 0.13578712240112548 -0.0034950924913127283 -0.02874012090832085 -0.08210859590328398 0.10859963031307272 0.15425714694724424 -0.0958474189812452 0.1401757044529347 -0.05566249922880039 -0.07093781711158724 0.07446048678650936 -0.021422411848395325 -0.11671556091808237 0.06812136516967829 -0.09708154143315359 -0.07324597298288651 0.04249461138521296 -0.04132474482564678 0.037091330673720946 -0.006249971323512688 0.06557599392987135 0.2770241494494223 0.026315528307843516 0.13597329394641908 0.09983289638282418 0.13141326100821285 -0.07401799948776604 -0.07219169439737996 -0.08456629803881445 -0.028738895873175595 0.02948040348169257 -0.14303212371793886 0.041824363233355 -0.026651539998408174 0.04786880002655443 -0.05365347982102647 -0.06359759785052091 -0.0320506103354846 -0.08477028961195332 0.013499064101817941 -0.05338509878187658 -0.036364550600103004 -0.12395485834427535 -0.08350532388744206 -0.015320825467102516 -0.0733321451404359 0.04829021396483369 0.040221450611507586 0.07791359411252742 -0.14965283586464379 -0.05908627268677234 -0.13372521083465563 0.015330755118852353 0.0695222850293379 -0.043085503286792184 -0.006399618452244215 -0.09953115489771 -0.004625130341612829 -0.0644514586063044 0.01778915789305987 -0.010292658948375888 0.03632655743844402 0.024437829181285974 -0.02015261276034158 0.005554794413104368 0.0778001326974536 -0.025682189574130567 -0.05129922076268395 0.0847141429867868 -0.10740558680925394 -0.007226528431615512 0.05530242519061723 -0.01784260606665435 -0.08301274092657301 -0.051569166474300446 0.0785437297145611 -0.027687623600766837 0.01909918512230742 0.04173027438265177 -0.06090527700736234 0.024521255082460995 -0.03050292450657088 -0.06700756210055861 0.08662534863256338 -0.054156276465222516 -0.06310924952956536 -0.04727222132718932 0.1357373858166889 -0.13337345873632153 0.027620400170911653 0.04723931611555186 0.09711800931207969 -0.04107105241232632 -0.031297600026207295 0.25967122985979824 -0.07387244325946461 0.010048979658254572 -0.12008269508222269 -0.04398068081485401 0.06338582092939034 0.163385535714961 0.08754185538238614 0.03492470781850825 0.051555379978478845 0.010617773471068495 0.014745528379635739 -0.07679615307532703 0.044923023621377844 -0.1895121995981428 -0.01851650457921232 0.04304793763811044 -0.1581348906604175 -0.06436799241962393 0.043011854723544345 -0.04316354290901954 -0.06562498193646166 0.03599466912806935 -0.03088997988901609 -0.01236748755806372 -0.0524740972086846 0.036771888859571444 0.08592855195323353 -0.18093413167833947 0.06346043753768173 -0.05980485659906711 -0.06193863827039646 0.07266065640289851 0.04927068168049259 0.10118375815297613 0.05391491879627753 0.05027962845427916 0.04345309300538986 0.07681038635811141 -0.017526929609091902 -0.14923181734688123 -0.21229931224125423 0.13210952891678487 -0.011668185612704362 0.08287999140902105 -0.1990461398702753 0.05907717493471433 -0.05630636799606063 0.01789135664019732 0.016508039023074805 0.0033329522735501137 -0.0264399225871539 -0.05226840294977283 0.022526808802057638 -0.06027290391784184 -0.21529901823929637 -0.1355319883072461 -0.05316497506541078 -0.09633467109236565 0.007033322334825936 -0.09437670684257074 0.08919514880352081 0.07596872223430604 -0.1608785332113313 -0.12262453603026227 0.13615898354786726 -0.02969966387384491 -0.02511390489175438 0.013216830129705955 -0.03679510722707915 -0.08776066029814907 0.0347681385618914 -0.09414580547726657 0.06415010862596386 0.06675748328932546 0.06229689931744439 -0.010382942101257203 0.06651482814590354 0.05025256478988453 -0.048801285370196144 -0.07147517997936917 -0.0505724456978649 0.01111064250981246 -0.051262995820273355 0.13599325379297428 0.017015655629891505 0.03521504444421656 0.07898165433653681 0.11529553326008452 -0.07957840959515104 -0.18425027378343994 -0.019911828230215714 0.032469180405390506 -0.009472834758627254 0.03543888832761102 -0.017162914524666603 0.09327683500764285 -0.020607678202010583 0.01543678643110565 0.03688887321486797 -0.10424117036110166 -0.25411029527302414 -0.023811166236605362 0.02849174603396459 -0.04219660193455587 -0.10434327065188465 0.008673042498818579 0.07131308380456414 -0.0296048415852754 -0.035046840711430306 -0.01179426186397485 -0.11051260724030522 -0.08751240493700309 0.018248850598783346 0.06316461521891167 -0.14598861191845397 0.05866717520218061 -0.006487668501042196 0.08819352290041758 -0.01870430250899644 -0.07203904582601453 0.059825461996832675 0.010506259466719422 0.04718391551653729 0.0029676595140934693 0.009691375390049576 0.0889544385853829 0.15702551456217512 -0.054589136826441884 -0.1172876957466259 0.10916024522191099 0.10546338908542814 -0.056779101171015776 0.03573305337031938 -0.02668930021193193 0.03418399223700799 -0.046065786855454885 0.05320288228477009 0.030742410491879826 -0.008145620924257087 0.10609426953354945 -0.10532175032418316 0.05040937607723759 0.01178582881070511 -0.05207705511404308 0.043071741533717386 0.02346922059472839 0.09071246013722672 -0.13036518834787827 0.04876415336384302 0.0012595021113710751 -0.060971129956501245 -0.13268121438719202 0.005227864897979946 0.011624006628492124 -0.20855754669413037 -0.01652575213965629 -0.006446768605064789 0.050949564739864 -0.07828973622835561 0.1605433907412668 0.06919477432417363 -0.11523982246684836 0.0016312798266361079 0.011492257842321883 0.01527878246840626 0.00843232025015397 -0.010398667805757449 0.08368750482593716 -0.00512431622735319 0.008318262111104278 0.09358889236584535 -0.05047460330593938 -0.10109417182377566 0.08913846754023179 0.055577387749130236 0.14551838120701613 -0.06962897911749497 0.01279635027447262 -0.02426688793180495 0.10661214880030671 -0.08114743153079232 0.08953811323305369 -0.15607531300986094 -0.17630757728750907 -0.046871761237711654 0.07529926562945839 0.0207332450038042 -0.12194699765553235 0.13864585886922207 0.02008349269375123 -0.027177027682706068 -0.015987279195788462 0.10714530093427428 0.09525294123336252 -0.10070833185481827 0.017081406090325706 -0.08481187381740593 -0.08034983303081998 0.04225630631115606 -0.019731841427889793 0.09080138491168435 -0.011572434609713312 0.0390144127805402 -0.2311796926900339 0.05447441098858716 0.11087179685914576 0.030498631090657084 0.033233745303503585 0.07161025130466282 0.10193562562744167 -0.032403543557656934 0.07384410407682318 -0.18359101053729066 -0.04174298668945803 0.17956663185049146 0.11954243405669865 0.04369923662160683 0.006195143679966101 0.03669012351614945 0.17819028880518079 -0.03427125724212551 0.08075726892161457 0.039868122915943396 -0.06742243861426989 0.015618343173896803 -0.1762764225334858 -0.09316616210466303 0.07325611132066533 -0.02173401026451542 0.02772772941681858 0.11444621074432514 0.04135318080839737 0.04674118725808499 -0.16809787123499928 0.07584412456877947 0.036264903368151455 -0.07273960624649677 -0.08805318064819488 0.007126854099837623 -0.0890748122761184 -0.12024597589572428 -0.04688274872963391 -0.0762078512755361 -0.02656469358079779 -0.007322399925151214 0.02445039556698442 -0.02292123044915494 0.0495658209376414 -0.055341305326510944 -0.012181397194323408 0.05405075827692912 -0.0028925886885312734 -0.024773165182064297 -0.01994347265271643 0.04753000496029923 0.03110898178194008 0.04154400190491859 -0.023781347258120717 -0.05667403039157822 0.0429776114477092 0.1096510298230778 -0.13333368246676722 0.009106126121208924 -0.0007499629860900735 -0.06028355274077952 -0.09813554606926504 0.01682242538918517 0.06894404579812062 0.08089338894137663 0.02136820832584213 -0.07929834680251861 0.011288508425986728 -0.15077460750044747 0.12183113256654694 0.15314289696675604 0.059703551331361036 0.12827474602242211 0.0415779148633987 -0.10277951458079002 -0.029074369563140245 -0.046411909051908104 0.055221004869826916 -0.1250679886245288 0.2165419536452078 0.0006481621933770041 -0.030329193295472272 0.024460429847581414 0.10897715840592934 -0.020566680954022757 -0.09539868428308847 0.15283013718680755 -0.0374906325086725 0.08563621851543195 -0.028990394485511405 -0.12104356847564407 -0.05302362077409746 -0.06467527103700141 0.05442492808236368 0.15895930152535276 0.07557232712029052 0.064023820199481 0.12403304538236196 -0.13399800210890586 0.07995534426256523 0.10194439469603879 -0.04002779969553597 0.09658427983674756 0.10077178686270974 -0.06246425622352596 0.05763402184977348 -0.05151415076867805 -0.13634878308149165 -0.012870016691454187 -0.04907921891871309 -0.0589483913528273 0.07264684709435083 -0.02942314642058685 -0.08795207312727465 -0.04796614923061728 0.0911817875477236 0.1104399235123837 -0.031240988324652403 0.07516307961014329 0.06375466930983406 0.029786981955682353 0.07222019270558944 -0.04058223635978132 -0.013776469468796976 -0.07052233018431961 0.015389544699978273 -0.10956616263113728 0.01469324387765616 -0.08893980820264201 -0.06113588865438476 -0.014835846240343516 -0.08670181899775267 0.15902290607590105 0.007066292909176635 0.044127496625308134 -0.013844123709151168 0.22534547303878316 0.028141921374629533 -0.042212872882195156 -0.0575766965048463 -0.0869764708677201 0.04745706837397731 -0.029762026642973696 -0.07202519390332644 0.010160841245751891 -0.03377479588465869 -0.023449109591710683 -0.0730414386275137 0.023894678311266907 -0.003903110873894002 -0.09037385283927556 -0.029297633897709733 -0.06038857737579068 0.029461972601772295 -0.17937113008798478 0.0391500161243018 -0.03821541477116234 0.091928100886885 -0.07853227843326085 -0.029744594716505313 -0.046589152666992574 0.06495593850396565 0.027700311564197763 -0.1289525082805811 0.13980633027692632 0.05425357580584394 0.08648072091186701 -0.04326634273074154 0.0031548705363875643 0.02407525374827445 0.0933773876424607 0.0341418360285158 0.08764248161459316 0.0112017398300254 0.08903859915113228 0.05134749192899512 -0.035388850796736336 0.004300671434578084 -0.07973137683944777 0.00745101237684462 0.2996295804615804 0.007212710545381155 -0.01465376777806436 0.051574554232316557 0.04896221377427966 -0.11113923916492582 -0.010849649601913772 0.12924759232898347 0.056637416079904156 -0.08529167184848023 0.1801847798983538 -0.10449471977973653 -0.1394100598508648 0.011637118892556825 -0.1278587550702244 -0.04945345773952833 0.164786486253962 0.06652401578887901 0.1965800773311452 0.196532538372052 -0.17308678667508412 -0.00037738533835801586 -0.08610340802613782 -0.049663709571230355 0.19582228803203303 -0.10126629874592974 0.08504513170731125 0.19021313596512582 0.0344410074712574 -0.048201008146796356 0.1380915224326997 0.12829934478074634 0.027288506095590165 -0.12929765869515794 -0.11822892640538056 0.0386430976115075 0.03437952664311627 -0.14430443674976642 0.13601525501349096 -0.03403461568207523 -0.13002304386282676 0.03784583400989968 -0.06833013944439316 -0.07667061597730472 -0.022000896672952137 0.098755538010759 -0.08777535036305519 0.07463029208800483 -0.012401295170631207 0.1266068564932688 -0.024361088102399186 0.15424294879590036 0.2617291309857917 -0.035157364610574275 -0.1890178956002989 -0.18261153048727602 -0.03392589006258584 -0.0970896767525667 -0.07422366363457063 -0.036519875110789184 0.10615209022814298 -0.13693579690276947 -0.08665021110029056 0.035596893426962435 -0.051161028735131175 -0.10130892309740427 -0.018738160279558783 -0.09638633199412971 0.13727269136417813 -0.03098198779112509 -0.054461365272935984 -0.07560606228708429 0.01199068016652539 0.09841573352881207 -0.1241139881406695 -0.0857165107186251 -0.04807542047819999 0.0020954171025194886 0.06995674695873083 0.027223801961934045 -0.08341051783580969 -0.09176564809222035 -0.09402539253986451 -0.09191100235702254 -0.17939660507366662 -0.1366094151451958 -0.02032372783557419 -0.06332977768625754 0.0005587320246301025 0.1773767281045253 -0.0847568467837548 0.1574034947763273 0.06847612754934265 -0.15175940941095503 0.009560310501074655 -0.0667027957670789 -0.006060710529346441 -0.020805461469171328 -0.03702563701607002 0.06709730561230406 -0.10549611930142123 0.03368737859975173 -0.1283582576053939 -0.07261439374878012 0.12782533171168475 -0.051127341770339514 0.09249609628902263 0.04896748203448674 -0.032664778796857655 0.0895788886439035 -0.05645352748409076 0.2529606535829003 -0.06876778151495862 0.021710387178935607 -0.07050502970679905 -0.00414834654697143 0.14459886460133817 -0.0024343135167495525 -0.06861819244695554 0.06518715734514859 0.007236235879406905 0.02561324539983545 -0.046617244597081116 0.06447412674068567 -0.10560238681823134 -0.06816167576193358 -0.029171767304928403 -0.07588219063014547 0.2744082868186617 -0.10190626053086356 0.26499555142359993 -0.20905981446750943 -0.10367118156385338 0.092049407403648 0.038450651634169844 0.049246975541732005 -0.010255229047187921 0.09190221604329787 -0.0801178222976251 -0.07824458740381575 0.07240365819563505 -0.05872832123488762 0.15743820120222013 -0.1594722177905768 -0.09654103130578184 -0.0635259937246734 0.004542493696829479 0.07733635096461827 -0.10607459138230539 -0.05836059060341117 0.07041944561866104 0.0013278028475800828 -0.045658252912331915 -0.1151195923244855 -0.04344230034901049 0.08119062994812143 0.00810447198697111 -0.033765045255068175 0.06060572530314278 0.20748188452461364 -0.017122193697106634 -0.10087260827315422 0.07514085995933183 -0.04905945866213698 -0.22279759069919497 0.07557190760776679 -0.02142871562472818 0.020751466204412955 -0.007481755750309415 -0.029913131047408593 0.13043366859873232 -0.025920193568219205 0.09691711165058485 0.05975078809093953 0.08701118141266155 0.02264297719791312 0.0321846007542092 0.010857119314613757 -0.014813129872360283 0.059630849896173746 -0.05967164140872167 -0.031945702551375445 0.00036316217873691865 0.008976707480799545 0.1005920565050887 -0.13135592337415403 0.10509938442585116 -0.13753585527415935 0.04070290353993599 0.18820044719953846 0.018203068081929053 -0.06447200291703464 -0.004397915038240683 -0.0627760824241779 -0.10861884104516924 -0.057263497869925316 0.05139599239668142 0.02515663132167758 0.09920931572609239 -0.14202507034755935 -0.059836259266775854 -0.15710542837026722 0.040880616395610525 -0.06854457856839864 0.02970333075069723 0.1137857353603187 -0.046692272199797005 0.029644696430336452 0.020956103444749977 -0.04918142481080135 -0.0984058452369468 0.05598462591501897 0.09592478144943395 -0.09402832061880134 0.015334173321871147 -0.05544747187334964 -0.022168523921845797 0.1022369608750048 0.04284009814344113 -0.019716659422922084 0.1381248671907364 -0.055577685000856566 0.04826481171914483 0.0609532077062247 0.059790862080751815 -0.08695595041990081 0.118378796189874 -0.09785822697556733 -0.0825758106974934 -0.10391882926138145 0.1435947543854238 -0.07378167079132728 -0.13708174256599037 0.009913349166186294 -0.02778576284817445 -0.049750148518746845 0.03819526100731011 -0.1716191756252404 0.07921390039754733 -0.05747763305485784 -0.011450137675701749 -0.07133379332760437 -0.2081075622128059 -0.08180302382266816 0.028256573716207246 -0.07394600337093953 -0.07023184094554132 -0.14267096495665607 -0.14359376876388724 0.13802921809364915 0.03303313261435318 -0.16516131774168172 0.02098814408545651 0.17127504543122468 0.02895238549180119 -0.08482811258241928 -0.08086445279869948 0.0841715047948024 0.2102656283418294 0.04688671180839309 0.19875200053756972 -0.01750342270065592 0.016638838593991886 -0.01804704753713272 0.08445935480512126 -0.045280889543561305 0.14112822940393596 -0.05418543496571481 0.04954346060916077 0.15522173251171992 0.07419939594691295 -0.05508231967098923 -0.19623325683878767 0.11073985093512495 0.05816929994182359 -0.07071920291191106 -0.14160857854152753 0.015015458946426221 -0.08888003556718464 -0.05577653494565683 0.08075695985895276 -0.13019532220896646 0.24927872352866176 0.05780754203631115 -0.042754876170365844 0.049308798659234813 0.10347159289311382 -0.18854531136196623 -0.0868785814240345 -0.08105465351056064 -0.2536914591021013 0.00815057752889711 -0.035017303689421984 0.003985909228905321 0.14591711101851204 -0.11555420646448186 0.10815768633012837 0.03783407585613317 -0.17426539950507935 -0.04264404729350793 0.030356214898101953 0.03721324574455169 0.16225763248526753 0.050934244855002794 -0.05709233356037831 -0.008840960716928194 0.05874754048522504 0.04159730907677234 0.1966309817835069 0.05798099265320523 0.23201711081607665 0.10948478739342993 0.043939411991007996 -0.12898705802344015 -0.10438579318248459 -0.023286400091247748 0.03530237538465313 0.06065069707704743 -0.02759519512493877 0.07906670268715492 -0.14952203543237635 -0.11674334606106472 -0.07751188381403125 -0.08733789904551031 0.06266542684625852 0.010010602029760248 0.04546590504140488 -0.06538507130673342 -0.006901998712372844 0.17895107046750122 -0.022553497538558294 -0.06268347086988701 -0.049470448659433224 0.10430968953888138 -0.061618511262553126 -0.02989350026069741 0.05637202679477234 -0.13781344135412707 -0.09115606631475623 -0.027493300269958925 -0.2397888032203648 0.023145761301343385 -0.05529328153127937 -0.0852807683172987 -0.07300149731092448 0.136657866434931 0.06243342322688662 0.18004974765261375 -0.02064586244823319 -0.0810518980214324 -0.0416205465912699 -0.13851190891215345 0.031356337766924036 0.017905539554393213 0.0522060734295958 0.05841395573780076 -0.14108988066905787 -0.002969358499893178 0.060061513081204186 -0.0471663551138698 -0.06199442531984107 -0.1594037797042737 0.02404354415741073 0.025256416900310247 -0.018539599321527205 0.22576022761404008 0.17126977574677482 0.09017549729574444 -0.16467247537138274 0.0237564182388825 0.09013399848858814 0.015239716351988798 0.0091563757808279 0.09957582138394376 -0.12186184880382023 0.10614477044467716 0.03274789411552034 -0.03148207796154541 -0.03037956990185625 -0.1739837514661582 -0.0731914820722994 0.04565384304373136 -0.04124962854472494 0.060804046874110326 0.10689361323161993 -0.04060591154411903 0.14717779311721793 -0.12404333438361223 -0.0478592547725546 0.12506082156272197 -0.03772103079628255 -0.01987914857053398 0.0724796765084532 0.024224070792348083 -0.045965021176320474 0.11356302188814034 0.07939943989666205 -0.13486278210916128 -0.003363763626773004 0.015408943514412857 0.03001327868635852 0.032049019398582665 0.09824836125420347 0.16687509038788223 0.019318405507330647 -0.033636114771707165 -0.03395124900939668 -0.05636635014693012 -0.1466879104106664 -0.0705783534220556 -0.09888775116763282 0.17203645561410322 0.061891801142251644 -0.03517513518353743 0.035792942025486225 -0.09320739833486186 -0.015382760674336759 -0.10493289472821468 -0.0437515021138353 -0.06770391435560993 -0.21142349733209068 0.04642388117496975 -0.07272598493698228 0.03935959063623448 -0.08992029141761765 -0.038001457790596486 -0.10139054459853265 -0.20750201203529278 0.1872940413280998 0.03012905601683247 0.06449937355739878 -0.016038069020291767 0.0017014550533513409 -0.03619983442219697 0.005067721106733621 0.0816140858415627 -0.020791202719387714 0.0956560432811934 -0.10281049134661269 0.0787302141155703 -0.046416817735311706 -0.12687392380789042 -0.014807609746297933 -0.03981625757315943 -0.09959808147990835 0.08640431114289068 0.11042545027205544 0.14401826349203034 -0.13032885746143194 -0.14204746212268132 -0.0429432681768066 -0.049176870186616005 0.061256019761015294 0.05944467097524644 -0.03090826585245889 0.07097744981880849 0.019071759741735396 0.03224895066050562 -0.07325872969917425 0.10176707851744933 -0.0593307860424579 0.05683521832372615 -0.056445557966432046 -0.08867177407978981 -0.02914587359139779 -0.17317184167091057 0.050531039170276654 -0.02246415461917681 0.16764067044120493 -0.05482830757941647 -0.17720865566131563 0.02015518610182345 0.08853042565764936 0.10959779256493779 0.0844710951535625 -0.01910075823813345 0.013179075994156887 -0.0811345597832136 -0.04989576081401692 -0.008619822541071886 -0.05011744694267731 0.07501594700709584 0.040481917708263974 -0.08877795041936286 0.01911684797580191 0.12140165528634425 0.24481025991989577 0.0866293742237947 -0.17735507068350367 0.038409788398144816 -0.04350708875979945 0.036950514638471994 -0.014392174714929467 0.03454857382605084 0.09141381870802051 -0.035880642934250896 0.05773369044402006 0.012716627378652387 -0.16122932916784355 0.049463816709299877 0.10640433101073632 0.06895667564829552 -0.1238896215354471 -0.12315325922466588 -0.05280606648149323 0.07921539329904931 -0.10219372730084465 -0.21393950140352533 -0.07393311812588642 0.06126781186669974 -0.0711676286285147 -0.13074749491036247 0.13405200100799874 -0.13274832251477311 0.1428805033293152 0.15228691364674268 -0.09939149578603997 -0.00794713032064121 -0.16243408230931777 0.1052922011885778 -0.08084140923609973 0.027393365096906597 0.14010129188847445 0.21219144831105657 -0.05030518218739291 0.1869190228123239 -0.08804248686136118 0.08950116569572418 -0.0025956246970016083 -0.021262391891151197 -0.033682305238007984 0.032893494743041346 0.15771301632159843 -0.04881289702573815 -0.030504206074618463 0.013726476202008621 -0.15658832060896627 -0.14073927748730822 -0.11380526047792162 -0.01621537485366794 -0.07132861772493959 0.08787509725909216 -0.13044872286343207 0.08833061538131137 -0.028664094544754607 0.014304364898986309 -0.12199839120462819 0.08039134326932544 -0.1666606248223812 0.06706199053413872 -0.0770573236023283 0.07019196599863348 -0.032096859459345914 -0.08080840587816134 0.027461690426624896 -0.1613166756705459 0.15041262015823292 0.10584132969765182 -0.02727559618995859 0.010946738840674219 0.048571080108103466 -0.10839416802011853 0.14257766400804153 -0.12489906709826931 -0.1748634614922002 -0.046766419639268315 -0.020521675046423958 0.1158280144193466 -0.06651322579429417 -0.12473484623975287 -0.004203917674911396 0.08356724058946287 -0.09321428408874621 0.09505797120854165 0.15531462338380916 -0.13040529475517504 0.008948456137562495 -0.13195273300042606 -0.052228248787942404 -0.008289581432800643 -0.05115275887843368 0.055311743147634686 -0.0034323691518259006 -0.03404797870386759 0.03133618739187371 -0.06925246262266761 0.03784432216792286 0.06273532688755545 -0.030624419516287076 0.1581446269786909 -0.025104160859016254 -0.042352199583750104 0.12589458561107766 -0.2287680492089773 0.16692535854865848 0.045620071460095425 0.22892666058697456 -0.01961458605529758 -0.042943941718637565 0.07625156135217612 0.045724822092442274 0.1437926168456315 -0.03204781732427715 0.09287915590302898 -0.02422061841032585 0.009537701880872933 0.11779105493753875 -0.09909517948088602 0.020755495536436203 0.08243932730278947 0.05347417401031679 0.01967686037009683 0.10148358179649673 0.051113230388795096 0.19640418391061967 -0.019739137078168843 -0.0274767917083294 -0.02842040447121067 -0.12750025506680127 -0.08162937680685352 -0.08985699622793461 0.14298977203584542 -0.08272090543873727 -0.04188877857390249 0.16941817175503876 -0.03805794489063363 -0.08453870192530856 0.06612702452757073 -0.0696447051275598 0.01889869775711437 -0.08736721978479368 -0.10907832527126163 -0.16702541316718972 0.07910862093342153 0.0404129545092431 -0.2133662101259468 -0.18857191770852022 -0.033740579723660596 -0.07521580869942789 -0.14652847953233974 0.015336091983068083 0.011825268363053195 0.018489990400327734 0.1224265785607448 0.02951336134341587 -0.04573503408736355 -0.06373577399955647 -0.09507740452763276 0.07282181059285608 -0.09041258650138016 0.08553280970990888 0.21691982695560189 0.08490492864295564 0.15700384281847193 0.06941394358820685 0.0017682563816307998 0.0038296611793339824 -0.081938480849625 -0.1376441192673416 -0.11197972267184103 -0.11195395179767077 -0.06825259234085157 0.0027573774013067453 -0.0886643592941049 0.01914915531216151 -0.009779763180965432 0.12185551868674686 -0.08231220194306572 -0.02039300917815824 0.0892903987088512 -0.1515965754852298 0.058788465141787226 0.0837144024591247 0.03956255546958372 0.1751702780739726 0.07071006411553911 0.10259440346312254 0.10168499588850954 0.02718682028615909 0.050381339810467364 0.07078636641650532 -0.14447541167050043 0.09156417453330935 0.19177471435956683 0.015082999217107295 -0.21131560921445594 0.0018815960377460861 0.04883967783828831 0.018787832906241524 -0.006476737198630392 -0.1639819055124519 0.043517249532643056 -0.04385131622497972 0.012416110077862795 0.06143292153261508 0.05042918164718473 0.07392466798265138 0.12746126286854156 0.04604938987872259 -0.1299811811351583 -0.03314079571038917 -0.08186783016254573 0.18349885483181755 0.005408792677537724 0.07783619612597169 0.08914431510127664 0.017311571501743485 -0.0026708353827213554 0.07478046244531107 -0.04896234984015721 0.06179384656787647 0.007911767294460597 0.003672738735097879 -0.06479525725669998 -0.09202497126900061 -0.022289334788714903 0.0523466382990688 -0.11861548377109186 -0.008220115385839838 0.05352932512779593 0.094375459060383 0.15222835284889366 -0.010533458293548126 0.10626352297669991 0.0748313694337249 -0.010009938069196735 0.029363099696359363 -0.02179480108865549 -0.06076312999632362 -0.10428397178429079 -0.2386769614111132 -0.07585248219722053 -0.047125882376446854 0.07246807708297553 0.00742285078624218 0.06700579567465914 -0.024180127109476167 0.07150034418972612 0.09935796694627144 -0.057813034544632845 0.0341685944839935 -0.08304119121411466 -0.07612798627926759 -0.02173139902569503 -0.011382435748647104 -0.022047154952466834 -0.0882192135441889 -0.03146883685127943 0.07410383772957582 -0.04643242187495881 -0.04054053042016724 -0.12055567571165983 -0.007074288764293211 0.05579250136170949 0.11215049057632338 -0.08845597871968151 -0.10503153167305385 0.003179703493567367 -0.039056006844796945 0.033704024613895746 0.1022286131870578 -0.12052801933657831 -0.03351633085130463 0.16235418873166185 0.04732479982041455 -0.12258175040460703 0.06561420413639926 0.11592925568789866 -0.07501672900280686 0.055991135012079585 -0.21734405762973696 -0.1526240745802801 0.02207929806125849 0.061546152621743094 0.005476202157852782 0.0659804636922534 -0.021369790772061727 -0.05832665589110241 0.02889884537948736 -0.21129489861271183 -0.11543722342819492 -0.1158476166725269 0.07529754429900604 0.09797609949986719 -0.1353192632688422 0.03567166646628307 -0.018951387087598446 0.04835328376175333 0.21630575523381282 0.006384727569947294 0.04377217816017574 -0.045568921239475715 -0.10929191516979472 -0.13670527077663 -0.21332502147726828 0.08848762438540304 0.01590386956529807 -0.009751307860277347 -0.0023651003450284413 0.05949321110835709 -0.07522924397991405 -0.13889668171518438 0.11952288690823665 -0.035173484202588194 0.05760502174738698 -0.02222167449031196 -0.1448678334175554 0.0361667507525982 0.010647737758843888 -0.05384264146687523 0.05793104066098616 -0.13056126183239786 0.22209560473980017 -0.03407248527973739 -0.1045438435772765 0.0064372098860343 -0.011341453907476866 -0.08872062502075849 0.07080875908133087 -0.056661907038195874 -0.09802003808119983 -0.055782137424403834 0.10827231011048441 -0.02784878496081236 0.021976216498843817 0.10240630322461505 0.06314222890332101 0.15491572487991653 0.024217976575163357 -0.13714610869327207 0.006181775504697031 0.12612096621858926 0.18959009952221545 -0.0006394999865021408 -0.04652661165883697 -0.010074639127496387 0.02463691653982281 0.02623323278930529 0.12493773212199251 -0.013829885723285846 0.005628138170006214 0.12080732696172253 -0.1433857505457403 -0.11316155017085905 -0.0322032858584504 -0.04323342132863726 -0.07639437481304168 0.002343510893659388 0.06491603268162892 -0.07598105871472738 0.07752952454098638 0.021076522828433815 0.20833741295913843 0.025540049496088416 -0.11197498526341798 0.011966469180053316 -0.0817460412697341 0.020062667773888064 -0.15329532943743834 -0.1281715053422291 0.04634204353218324 0.025082225954236186 0.09267614115612458 0.062387179144730395 -0.043375207276851714 0.030347406296893687 0.05458511040908144 -0.09572046775069587 -0.00029344125452616005 0.015839000068504906 -0.1574691194584296 -0.049576087126367865 -0.0625105424183354 0.012997861128290744 -0.07397612000659891 -0.0278038424994902 -0.11652150582530328 -0.06515035565925237 -0.028370603985119803 -0.15848239467532246 0.23763914384237803 -0.03924134301086713 0.09933632114119971 0.03247425771291791 -0.06537069170825785 -0.06562139463387304 -0.018460109358714515 -0.0977654952135243 0.025090165914087408 -0.09681072410652614 0.060157531262758614 -0.041246021632328864 -0.047641442284961165 -0.041301913956707036 -0.13213472195132708 0.049021940799582574 0.1025603562611397 0.05837949898314009 0.02045352720234811 0.10769784351028343 0.14628097073928475 -0.040537455807585374 -0.04713702408003782 -0.015224987383116423 -0.0008385796268273328 -0.0014198112384230183 0.13325378368003032 -0.25790575301054547 -0.11633136464376317 0.10794885135873714 0.008587782152824979 -0.09428763830617255 0.0890746837252758 0.1127604294018415 0.2278290130224951 0.01803166788034879 0.013069447282223806 -0.011871349818265637 -0.10526274300406772 -0.011124243188254333 0.008923041860841991 0.13637196501552373 -0.00947604628003279 0.16125358330344097 0.0013670134747724985 -0.07507404164151799 0.19644884602236584 0.051194488294928266 -0.06827364283362734 -0.03466491587584112 -0.17198031793747195 -0.015223168362604143 -0.1708869240363154 -0.18872187530300627 0.007498624528120639 -0.14790749213113158 -0.10106006029335267 0.004486136754963727 -0.16543344076210917 -0.1136184616864917 0.08073835438570118 0.09387482682294797 0.02444445078065543 0.1236372358600477 0.05584800185565316 0.013829717032805904 0.09129442732649323 0.11104279569035164 0.015250244437147236 0.008288236064378946 0.16546677073575042 0.07379713323168488 0.08823478580863209 -0.1881755751886632 -0.12149895799714412 0.12067581337835263 -0.02293574467030804 -0.028967534758644897 -0.12168464637025683 -0.1052609497403756 -0.13451479075055303 -0.0489213395671001 0.01789413248764682 -0.07635081739830714 -0.0540493149320747 -0.08712051982681378 -0.12818979646537498 -0.10741922077850366 0.0444018722842245 0.15863092366938447 0.007635749784805535 -0.07891371627222371 0.03982559475280952 0.03768790673171916 0.08359314149302746 0.04967401381306996 0.14486084783317568 -0.17520911778313947 -0.028510506360423935 0.04323467214935785 -0.14894227225152812 0.026838937207264053 0.015893808220695936 -0.0233838060735726 -0.0013709007669791607 0.09594868082054372 0.0822658275790683 0.10246332357512788 0.0797010326900695 -0.04512184278963695 -0.06585988401157637 -0.03559821921213198 -0.04306475611304706 -0.046059211544759594 -0.0645132457201705 0.05480772482558239 -0.11716400746505569 -0.07799088364339125 -0.061823656445053644 0.0021915711463983767 -0.06528953512822665 -0.0037628607720775757 0.07433841675029851 -0.08771822609812953 -0.10132013124872086 0.046815037593883696 0.17567684511116513 0.007153007582943795 -0.10887965003575786 0.05154198474454342 0.009576968171724494 -0.07150207563301296 0.039455438825447366 0.06105118734033652 -0.023688236072895934 -0.007476675821241253 0.065903642783162 0.15004406849099 0.10042445678628109 -0.1443858902095351 -0.07224406309912092 -0.022130141653331784 -0.016600165152839137 0.13040070712534657 0.23057836903304987 -0.021927866413581774 0.24980542470476363 -0.01981779342863916 -0.15361389787850627 -0.05636940899072615 -0.05322126825490998 -0.04943018875913701 0.0389072263378233 -0.04299446121034158 0.05663810395630142 0.076839718102601 0.19659069812538368 -0.01307611566432446 -0.05515570702560806 0.11363997432660634 -0.15683335398765247 0.1348899971986963 -0.023745486641770334 -0.08779447538946289 -0.14858152419622597 0.01637563183281136 0.15697537346321774 0.045339068989300055 -0.014599724534367923 0.22420337362749243 -0.08843569209175974 0.08104153810009798 -0.08153703240816233 -0.008137184669312807 0.12930209306684554 0.012872214709477438 -0.016900132922532993 0.21141164496855194 -0.1258175745665336 -0.1057147506009166 0.09701434414309179 -0.013579329323030182 -0.1447068287398483 0.08473169906339555 0.09216740877932517 -0.029686232042935936 -0.19672397639614625 0.16037364615925664 -0.07582761360927084 -0.15706760160090266 -0.2755173023830896 -0.00941204561283915 -0.05621377428757368 0.04153119865281898 0.05918970660523944 0.018352829848322903 -0.1601592374041218 -0.09637704377267746 0.21110481082076246 -0.18154121625045602 0.06970949783763723 0.28991407879760667 0.08160240745449969 0.10393545556260957 -0.03215558600550834 -0.1391364466474973 -0.20309897265076926 -0.07194457175954319 -0.2146995021262178 0.14384955400988672 0.00851755248591278 -0.07438525377370014 -0.04417448493396949 0.014717285624964768 0.014266028610216936 -0.009065103036779562 -0.016362029599350923 0.04949614308792005 -0.11835035715752203 0.16533954434956913 -0.06432445281999304 -0.15181715607273755 0.0005361476637108908 -0.06523963626932466 0.12955109637977041 0.055663072947176734 -0.09427630411127058 -0.08754621149061846 -0.1427663935411129 0.049043053902807 -0.020175916899166032 -0.053568448699680325 -0.08845486976453516 -0.06839933454820814 -0.06399548990802888 -0.05366061314000949 -0.015384386031509807 0.06946489244669381 -0.09970746933140891 0.1327462426092628 0.0924979027651921 -0.15401088377886643 -0.023336311741251642 -0.07308773328095516 -0.14538685647971658 -0.20396099379051902 -0.07760842011025465 0.04520332626461582 0.15106353067665326 0.04568687136605879 -0.0023335255485219656 -0.08225058257644696 0.017001184418884034 -0.18258100964858345 -0.13276600053865908 -0.13176536754291793 0.15151560802362027 0.028291165868408904 0.12264071197427756 -0.04718350185359789 0.03344029040460912 0.13837482385967687 -0.017671033617811447 0.01872138701775069 0.20757076722040943 -0.05227626702070561 0.023085091265389115 0.1937886416624651 -0.011555482609799182 -0.009934723822792056 0.0038031900114436426 0.20487281348631461 0.07220009825642959 -0.04035082508929033 -0.18124221328571005 -0.10096110948398275 0.08795454092552378 -0.08055636899176195 0.3132738617783445 0.05362825860243215 -0.022367289427851673 0.03056176909329185 0.0912702182079568 -0.2445980523603989 -0.12863182121390349 -0.20884875811301712 -0.0775932687794731 -0.029035501054374743 0.03205115762042426 0.3840595347167795 -0.018902748143875537 -0.16702451105874982 -0.13396870724000565 -0.0790821495398583 -0.004927160663528468 0.004678561564322492 -0.05330165461652374 0.05190561783320068 0.1365713823330151 0.0973642943857011 -0.08103580710423004 0.001824975377173821 0.18635308429009442 -0.12761110119880842 0.005220919064466278 0.07148746616038182 -0.06989762670378342 -0.06183780096699228 0.09734873119346472 -0.034913083988204335 0.04988184381594232 -0.16483700181526897 -0.06868800027027899 -0.003417866747143049 -0.22327720785309818 0.086425716910252 -0.00271254678740755 -0.10256496000468916 0.005284682356723804 0.058463401177146955 0.048423329926758324 -0.0215222529964977 -0.0663464535198101 -0.06241665572688912 0.17750374125982096 0.022600332990139683 0.34515775269887333 -0.0017054740675646134 0.10090748239916066 -0.03813483068590261 -0.023593197652227983 -0.03196577659837667 -0.03999348180310259 -0.0991795710511336 -0.2174776337577828 -0.059156274618589626 -0.2380992904746965 -0.03152907893140539 0.013684073721620017 0.02088645564442412 -0.005406898657233397 0.05547783899371717 -0.04016122706835921 -0.09365030241676649 -0.03467800791839112 0.1379171712259031 -0.02391660708429176 -0.07136862112212322 0.07695914684344365 0.0009590325299586013 -0.07516737007664487 -0.06334485305034018 0.3052946420752203 -0.11336303612564975 -0.23235120458180467 0.09479791897732903 0.014975989565157655 0.04937524968519557 -0.10087126420890691 -0.09853998871625859 0.02229127441028688 -0.061433304212446554 -0.06292041323767184 0.02702931802129219 0.01865105582801409 -0.05581992802203568 -0.08572965796619066 0.0422623244635316 0.01736476439635289 0.06704843642333545 -0.06375672587347377 -0.21658645658678288 -0.2600652740159958 0.03442051542828567 -0.23043603177146554 -0.005029627076694312 -0.053633174541533365 -0.03551397424382221 -0.019139381526186175 0.02637522215305811 0.0602149419842315 0.21172838874991695 -0.0042125431573266725 0.0027506939262027224 0.09157303582051708 0.0992461239784086 -0.0699335270178118 0.007073426187851543 -0.04652552346664986 0.03082761039917332 -0.02782820081127298 0.038432469679550885 0.13641340559596493 0.00835883368141053 -0.07861473249637535 -0.07450497339934868 0.039204555931272464 0.0046517322574020185 0.024049689378222657 0.2745668655515756 0.01422817711725938 -0.021461138435710906 0.03835180841190277 -0.07713658594829771 -0.025786126434193892 0.16043820587352287 -0.05896749278418959 -0.06381940924634 0.08695550394362744 -0.023478632178278204 0.04024848453587997 -0.14952490359865547 -0.12376056877554285 -0.06426920560228024 0.029481588155499772 0.02262497271960649 -0.007335801705288784 0.017246546796221823 0.19618413225832168 0.09031546874379542 -0.11314734927819402 -0.08322676586512595 -0.00929531295851009 0.0027809957230151955 0.09410514244825238 -0.039367453483947455 0.03292614952167247 0.1456585871980386 0.04526806574583591 -0.024807521490704688 -0.2124031547328361 0.011857804199982383 -0.04538589433929201 -0.11466522202128784 -0.12402865682047191 -0.0321897415154345 0.07065145984558045 -0.09257464616706285 0.1320624891595832 -0.07481738862453002 -0.005445392902976396 -0.06465608271304481 0.046784372950539915 -0.00728491255223636 0.08467942048876051 -0.019179813236692805 -0.2082612338075875 0.010584472162753268 -0.03230308614974104 -0.03851219970458615 0.04280012525688244 0.0990675405423241 0.316378733395124 0.04558182788010433 -0.10906342825540395 -0.13611353365084528 -0.091840836832421 -0.1509561544446893 -0.0839474738443352 0.0364176666340941 -0.046206474640710246 -0.2852173971131874 0.0025900649182442966 0.16281862942259293 0.21301123106614386 -0.05664191884716642 -0.033300171984195874 0.07402779613841431 -0.06901020601477867 -0.013434234952052376 0.05740928066376372 -0.016561013445373758 -0.08179207108358706 0.20089875890830028 -0.13339193258541307 0.08023478333746015 0.017648731199434033 -0.10616399061759793 0.0520027192836533 -0.020140701581110258 0.06519496991948603 -0.17352011233154851 -0.03852053615784871 -0.03203543930645455 -0.04136245789991323 -0.008107289875267766 -0.07484552682947603 0.033971899087111186 -0.056576172916422175 -0.08333901155666477 0.01553188477514148 0.0553829894234022 0.027477251798660292 -0.1103694673642113 -0.041631677763998995 -0.09012231878857453 -0.06264381583749022 0.08105934977706158 0.03073465190671279 -0.16524832695093525 -0.11008617528638759 0.12448319287108117 -0.35153835458638644 0.015624815791731094 -0.009684914066516427 0.06711630070473097 0.061873862277893155 0.07149897497453872 -0.051276200794541704 0.21254791707008114 -0.05697567259756497 0.07909573023153098 0.12115650450242549 0.0045322893042552695 -0.09036966460068042 0.07179382704114923 0.09228181963914633 0.017090758182330225 0.051345106804212275 -0.013174293409502174 -0.03220732607708073 -0.03462903499524336 0.015716308228944473 0.036088409471016214 -0.006196168789124201 -0.05761739914605065 -0.14726996881736493 -0.01650868404630485 0.2277242480325822 0.11163972831130482 0.07939840841844818 -0.08841907349231609 -0.07840358624080063 -0.03940809857904601 -0.10527883694948116 0.06300726999520462 0.04315687507537538 -0.05439713494476447 0.11788452294719168 -0.12970222805347387 -0.06802121882745267 -0.09672983901690886 0.019232149059102845 -0.0940353148569774 0.07068360059352065 0.00537450471466368 0.06614715177167584 -0.010058699889383564 0.051550051746539205 0.05623937288057801 0.027254031682784015 0.0629225770824165 0.029881590044049174 -0.0383287854344567 0.02864091692208677 0.12018907866023633 -0.039634977724285224 -0.0014479902613942883 -0.12845966481996443 0.03324576054565834 0.06593830831858448 -0.1461973668072666 0.0319676935300625 0.058860015305069804 0.04897006979042343 -0.10806671065242826 0.14017064653459635 -0.062217724969291524 -0.04622436037476588 -0.09462400201048526 0.11278314557201917 -0.11068484653828439 -0.04115053186434345 0.10623672442386992 0.016744774783002823 -0.004217696233825355 0.007105625132776186 0.0698416395364506 -0.07183212389431622 -0.03706338554002002 0.09985489268261284 0.08440667702724411 0.06825930216996991 0.1458780805523422 0.012383791951682014 -0.03582038090413619 -0.02525849217033205 -0.01856799099015737 0.06248038824351143 -0.07127692040620649 0.024582517542889603 -0.05179757681623289 0.016799989049954656 -0.062084787793817126 0.002477855062212159 -0.06855179750023871 -0.09283615498167355 -0.03814865336402578 -0.04250182362012446 0.05100344686075757 -0.04715378407575871 0.07671181918711606 -0.04471849531352535 0.08937670549840997 0.08070133720590228 -0.0987684994168881 -0.036105450437189976 0.04719275422844223 -0.09584552317911847 -0.0019816124943892355 -0.05070465648794035 -0.08789587018499825 -0.045555547822598186 0.06540574610039339 -0.10059247068873976 -0.027457021528744782 -0.04280955243170357 -0.11318363019047697 0.04483514621990011 -0.09240056527470408 0.11085586450454044 0.06273779831864089 0.003899552817162755 0.022063105039477542 -0.04704920984424609 0.09471116011757211 -0.02146880580497147 -0.06627377750482577 0.06017679383826475 0.10146865249524428 -0.10409319185402845 0.06940062881575283 -0.08540336518575628 0.09759349838666699 -0.03298617199166923 0.08179628202991052 -0.05837054381014474 -0.09780537146316937 -0.07791699088951835 0.04640051295704315 -0.0025634359467595846 -0.008244743585125352 -0.07057382081069832 -0.08636970485667983 