-0.0249673367080874 -0.025736679402879763 0.02698028266755796 0.0011950134237265833 -0.018871364258328898 -0.03279209039540398 -0.015021114361257033 -0.02564904113149237 0.03485202555100507 0.00471635227947504 0.021578519136276383 -0.00007676849861071311 0.025575333291161587 -0.002021931828343884 0.010820671603959858 0.006977200625780111 -0.01918278941060655 -0.004082591490587463 0.002532854756081164 -0.022665459381748035 0.0014538175208331783 -0.033267747964782775 -0.01201886291800561 -0.029875265168275416 -0.019500349370251358 -0.02912671712652526 -0.0004475301591791228 0.03027135060687526 -0.02211267423888 0.006853580845222994 -0.007984514893427233 -0.006083587901058483 0.02403842797202614 -0.010424558217030255 0.025728559767976278 0.01513300355010841 0.016651812008067646 -0.01906508190467561 0.017176477581623044 -0.034552501838318116 -0.028643609828450343 0.025726668733178776 0.013979814119584898 -0.021388780793896243 -0.024769932842213543 0.033017281851781016 -0.015351970521695187 -0.020998337200470205 -0.007580823159697738 -0.02023242782223489 -0.0035075851621553245 -0.03301335525300454 -0.0323644908972524 0.02705850933857687 -0.011867771916272592 0.026323588604382137 0.032822337221956877 0.027761288793067884 0.0006934405856290488 0.026039000956690123 -0.033167582849440706 -0.03272122193794602 0.03237221692906933 0.00855024768228433 0.023562175019585227 -0.010613076621894146 0.004411635851666075 -0.03164591859930713 -0.01743235478157252 0.005108502901524634 -0.01780810839953555 0.03344180175055535 0.03023495840657467 -0.006475285665184072 -0.01656609895214546 -0.001993118420273464 -0.0052859060657881735 -0.03352557834377632 0.015443615298716566 0.03344270457142123 -0.02191299206778019 0.009040900080004369 0.003361989841128503 -0.0265635798357563 -0.01295632316313549 -0.011051258755952933 -0.011807863005277617 0.014718930118690375 -0.03136997206414362 -0.011530419380506265 0.029732181368764654 0.018933203237231085 0.007250533651208979 -0.03352473363057689 0.01983798490653979 0.01838837085467447 -0.011628647443143007 -0.004293170303669477 0.007475881308727658 0.012469147330481052 -0.017817201990990683 0.022049412446486824 0.03329995936775554 0.005157176735956406 0.016310890102144163 0.010426299658870937 0.015837540796426977 0.028242748331918435 0.023476929526858648 0.00040088708351864594 0.03190403241775033 0.0003689391120628299 0.024096708116707992 -0.010774853457682698 0.00017491180304244486 0.006048933751901804 0.02158279248075204 0.0012943111675612767 0.015885601862180923 0.02777295734770395 -0.00027401502315849147 0.02169010064053989 0.0044898742860700475 0.0015791239956105887 0.003827337175522083 -0.022313913351617365 -0.020964470792756713 0.007288764945817282 0.014972875666041219 -0.0010135476982434805 0.02514439053884073 0.021908705781441426 0.029408829540587184 -0.0014694375435942014 -0.03569801437227347 0.01605778381664967 -0.030477142430515594 -0.024556439775754262 0.003558958611312356 -0.016181722780748156 -0.008120506070805025 0.02937468194968562 0.015330619012965077 0.010273478118651029 -0.0131895989140037 0.026734775349321907 0.015911796040070363 0.019510640559305466 -0.033018816339760525 0.034473352815878974 -0.021152446622098062 -0.02512031651249456 -0.011722090953221947 0.008390032880988843 0.021953606483147224 -0.024703510815589476 -0.031353769959581564 -0.012090109115806404 0.022074116842271722 -0.028650721801700363 -0.020803750427882815 -0.007300805418276109 -0.002295754985393854 -0.00578006357715171 0.026746631713370612 -0.017500831086731363 0.009325926787395439 0.005633057031025138 -0.01789867503552251 -0.0283286973979961 0.011222183723859906 -0.0328490462826788 -0.0010601351748171436 0.008978181050081378 0.0005000988545622587 -0.02223181670419499 0.007354923692006521 0.03501071580480396 -0.02637806641649343 -0.02229208747583363 -0.013799541959053797 0.008611457188717128 -0.019193399765974974 -0.001137504320291978 0.0311482067517716 -0.005292071281741695 -0.0033006757339560586 -0.002389985024814259 0.035165452031779565 0.03335055839040854 -0.0063818972070096396 0.005732726262572409 -0.016896736697138138 -0.00754661357664748 -0.014069178139247334 -0.008015056576162114 0.026640838074011616 0.011716498314761181 -0.017395210282454134 0.027883721486288815 -0.03187488174189712 0.026605092607642766 0.027422680235657193 -0.023099040812910095 -0.018095828566846883 -0.0251668287175362 -0.026447286822174357 0.028420467349330347 -0.032202856462000544 0.006231848023095225 0.006843978384222238 0.0005285624395833244 -0.012777458776269061 0.02141047895044834 0.0008907597680390469 0.01300599760383752 -0.004723836669991273 -0.03214984374293079 0.031151600334705376 0.004493504710886956 -0.0024905933282183892 -0.027957592493642363 0.026943268510526877 0.03401180961697829 0.01967582057519484 -0.005609185364281153 0.03323663022625001 0.019352178207101223 0.0008768180361719974 0.01371194246420536 -0.016952255154883012 0.005874797443228226 -0.0011094931987433512 -0.011469959966401988 -0.0156722617744928 0.0069998297040339 0.01709439692502252 0.022010817514647903 0.02976201517650734 -0.02539286944150427 0.028405208355108152 0.004611683232076724 0.027916100460881096 -0.018774732592577368 0.0066349135603539985 0.01140933533984334 -0.014723882635374701 0.0014857998896051633 0.030128554918339906 0.02070804574335821 0.004946929024978189 -0.008313459568052486 -0.002041125383892353 0.007541271700023909 0.015641362197787015 0.0018401145727501636 0.0055097411409381625 0.03426898393139552 0.013005605024469014 0.016007253933968638 0.02847523586032509 -0.019902247651018334 0.027151936463334927 0.010148623220574846 0.030534552537086257 0.03156690805346973 0.028268454745047147 0.004240022849242041 0.003492589614205323 -0.02116749563061699 0.017748148159795578 0.000978963655298891 -0.03132769067082681 -0.00952181101559543 -0.012597365357925217 0.014635464074545822 0.008665179027284128 0.026270139108528566 -0.007780339654592221 -0.021915356762289964 -0.022584589243724355 -0.010045949032690436 0.006599047126233604 -0.02258815464535873 -0.02309426560920881 -0.00948986277038109 0.013066499107119559 -0.01681355182846581 0.008058237649626508 -0.03445252697063959 -0.01207741870972634 -0.0067939205452627015 -0.033487129445234354 -0.018814089667996057 -0.009815067853510988 -0.02849012758417817 0.034672090753463766 0.016599936336188045 -0.010604666690101707 0.004237585640703791 -0.032776125145700066 0.03507212965119054 0.014868423442891202 0.032412448688367124 -0.017373681168317247 0.0011989340913071134 -0.03219109855972931 0.0275800315723531 -0.019331049567768828 0.006036272982487864 -0.03226908775407019 0.00878042658380307 0.0014033127518139343 -0.02199797004386011 0.012194128545408738 0.011701450297870793 0.025125521199035723 0.003702659976433584 0.02987928730529453 0.008322944509772383 0.015107509234720831 -0.0036772948772982733 -0.0034017729919617115 -0.020246397605567866 0.006125898930525335 0.006168666033430248 0.03296414492484667 -0.031623213956208956 0.01969826502519402 0.02616379863095749 0.028685891881215606 0.02990744235294912 0.017523116638676083 0.013220701456988553 -0.00569136944886758 -0.010298964601028096 0.023270681870872188 0.02336068601063178 0.023427463818636682 0.025890727237249708 0.006241938508298586 0.007354793111404981 0.02436229385971695 -0.019231154443643952 -0.03133766680217725 0.008312283372016158 -0.024483371278701736 0.019510005799125096 -0.02331216168682853 -0.006685581724191963 -0.005980848624763415 -0.03033750250619468 0.025604262186410334 -0.016978191604999422 -0.0027405112893882366 0.007830333174802133 -0.00749235653486088 0.005875326953324565 0.030910436101162606 0.029368026371042244 0.026056292176678486 -0.024544916899320986 0.011747366894382764 -0.03244503115334951 -0.01256327083839242 -0.02580910308504942 0.03412045351134167 -0.007830533174608165 0.031066379634467095 -0.025557977753901544 0.010305768060596604 -0.014417763540917884 0.033167013748340066 -0.02141685603373316 -0.005607296374850468 -0.029662755117289552 0.005928060665908931 0.03506812182796919 -0.006446354467322682 0.018797727763070232 -0.026656109973082258 -0.010331562118898168 0.024911972214503995 0.024962206223705312 -0.03433437965495713 0.032639268705426785 -0.015262809234754472 -0.01482463731455165 0.005764385911623489 0.03206178361743492 0.012695197948075165 0.0037975979213255504 0.034095301871894926 0.0274186615338414 -0.024498272500853156 0.02160733582010721 -0.024665292963149198 -0.010751351367430377 -0.009924390728339283 -0.018449308931918 0.01746309869474906 0.029207897712873937 -0.004946500958766427 -0.02090903864180758 0.009566987174721958 -0.013591387473268362 -0.012852716640459488 -0.03281873942322944 0.025219928491909314 0.023467840595342557 -0.03283342399837408 0.01128064220068957 0.01698958302498889 -0.02450900034981318 0.01308305509194934 -0.024064373826908545 -0.029293579004619628 0.0006256663009087532 0.015095838406144146 0.002209605291573581 -0.030616834172762362 -0.02596451316638989 0.02087027747849609 -0.004950453044600241 0.026474089385652814 -0.0032394484520481062 -0.014229492154859833 -0.021365505509393326 0.030904208135828698 -0.009360164141129501 -0.0034351706809378074 0.011018610503709572 0.0025408009469406467 0.02635474038248467 -0.02687431097598219 0.02488728517661116 -0.03267686781978391 -0.016303947381659824 0.00908153287596361 0.022164093587124727 -0.023602859137411336 0.008976814132702446 -0.020761084620602013 0.023536209232386494 -0.02322839852936772 -0.02801126053421724 -0.00029888092965563856 -0.03277020132250663 -0.0029148827205421127 0.03416572867614237 0.01528698431440037 0.009393329322606551 -0.027326630297640438 0.0343580187323546 -0.01472375401026449 0.029530189686566163 -0.008583424155480426 0.026503631943107182 -0.02838293400846814 -0.011790512939118241 -0.013998159228025844 0.03474514100626411 -0.025728867692183105 -0.00468793037433898 0.013087879891070901 0.0017188293738478674 -0.010100021592068353 0.02775280166482491 -0.008545383728643725 0.02349657713384147 0.008079874750901647 0.012713725654326921 0.033972218898264836 0.012456695690578931 0.02168098620921651 0.01613420156465073 -0.012021353556113144 0.011161867549113871 -0.026881805904834036 0.007588194769534984 -0.027702573575816625 0.017480723159336638 -0.03234476930342968 0.01492365643272326 0.01469896039444997 -0.015901514097723158 -0.004584693002239373 -0.03535201529204609 0.004703077559395745 -0.02839243677175951 -0.004878466840055488 0.026576343291403584 -0.026666128592916775 0.015240657155404173 -0.026970230377564026 0.00984050770514041 -0.024923784291647683 -0.033981422794944365 0.030560490236308926 -0.024463121832019215 -0.016179609733973255 -0.028395597600996636 0.021413600574896767 -0.0023721224313154737 -0.028968755827689603 0.005378551666689289 -0.03359654966459959 0.0211127391656699 -0.0298719072612558 -0.00558659858327383 0.026342499920306843 0.03027696194993318 -0.00011950555367553489 -0.002392094668385178 -0.010518720848967114 0.02391431225134842 -0.030246146974069178 -0.027917979276376355 -0.01896453224449341 -0.031526383025039816 0.015853905425264596 0.024259713990302766 -0.03240357644101206 -0.02188667517049582 -0.0034226236981110963 -0.01435178888127989 -0.02018359087331413 0.013098495226547519 0.022778178118110178 0.017279842554508346 -0.015195743186077762 -0.00110971963262977 0.03243095096436788 -0.0018681361534201232 -0.01950629208874125 0.023738168784907247 0.01352995950562233 0.00795552675944073 -0.02494831530560429 0.022045227413676455 0.009483292793081258 -0.03491164145258412 -0.014625355983794486 -0.014013567020231994 0.005619920414393111 -0.00004898877143255653 0.010346470629337357 0.025460352344873996 0.02602145153649888 -0.010483611726453956 0.02467176525898783 -0.01452757873102355 0.01932654294497982 -0.011043483500859801 0.013174652362497041 -0.0022068386665177187 0.001342750206610975 -0.023691349711662917 -0.019932830150998147 -0.009315149283568611 -0.0007401850049878617 -0.019334062519168645 -0.031190146433202424 -0.000052440719979597594 -0.0027769736638436626 -0.0021252637874392827 0.027766220040788478 0.0020640234830617207 -0.03337716402755283 0.020144789327917065 -0.01025921080715464 -0.004913879276936824 -0.016527446957855685 0.01759155670402944 0.030488057797977614 -0.01208306364704094 -0.02534480493324788 -0.03417927231060552 0.023164830446426775 0.008026583172684391 -0.010716701679653138 0.016288860766664498 0.011357106490947441 -0.030835891905215056 0.021251392386707507 -0.011237193876776765 0.0017823280173493924 -0.033607311762200616 -0.030826160658557256 0.005987572384763787 0.022193924919946664 0.023282073536567145 0.0023702225017476278 0.009382109652580253 0.03543368328025798 -0.022860837141425075 0.026077417277083424 0.007630011449479869 0.02237562839322929 -0.01362747040584852 -0.020326361311552837 -0.005989736372016004 -0.004731092143660423 0.032743203321756426 -0.01260467476799454 0.02756473431612247 0.007675464533715849 0.005563473857899161 0.02467595940711223 0.008428119843968442 0.013636108230558164 -0.01944385599546448 -0.013948332877473657 0.0029010376004603433 -0.022192489394964543 -0.0015955170673697464 0.0014389766847657179 -0.03431463056159253 0.012313673293698688 -0.02961909032618288 -0.0054865980246841285 -0.009384634545225739 0.004782755721003236 0.008080793186411306 -0.029965160008838452 0.03338657834774392 0.027716415443995987 -0.033354275594144514 0.012023519775261442 0.005138934872116488 0.01456484525597189 -0.025556305497014993 -0.03506200893555151 -0.008518512865297177 0.005635804684738802 -0.00025145678984971054 -0.007856420504718749 0.009539991954782376 -0.009239109036520015 -0.008242243830450215 -0.025889295839482296 0.031768866630323966 0.022676421273803343 -0.02406981926512462 -0.0022370711042668523 -0.003920886143170321 0.02619165665797312 -0.005324317822644246 -0.0016157570364486729 0.0035609229530160352 0.013270801895430867 -0.00844764094629066 -0.023363480102503505 0.026837594526538097 0.024749473571483396 0.0037271595142704464 0.0038480846373519922 -0.00758026745963317 -0.013300115044076702 0.014966460495004795 0.014714259154522673 -0.017401002534693025 0.021425112662414217 0.006195066977405982 -0.012317473009529394 0.01576124751367209 0.0015629267122503968 -0.026856647243067355 -0.03412065631477539 -0.029253962411300943 0.006731569396206748 0.002548571865740437 -0.03516177707663849 -0.010755998083840805 0.03155913925247582 -0.035228891173554065 0.007363199931134483 0.006477700862271188 0.010435629130020545 0.027010673337856866 0.03528115142610548 -0.011245272324993474 -0.02476955878261114 0.023013778487712563 -0.019401304189813624 0.029102845982148184 0.014411172553988522 -0.013844533129256074 0.009600843973061518 0.003378001923252029 0.03472527069647714 -0.022635211919324747 -0.016162234111677148 -0.02184102816308637 -0.02786625016528045 -0.033728717554826725 0.005063815596957948 -0.02184285689697583 -0.029131047272983338 -0.01658688877737686 -0.01560213542189318 -0.0002673748228560688 0.011384432536792076 0.011017800138956493 -0.021045099673268966 0.030054990583909716 -0.00042834638080600784 0.023514714516804203 -0.020367129645041376 -0.009394205933663372 0.01949777840335487 -0.005831550002438433 0.006139916040281412 -0.0015991429811606714 -0.0016644207367873948 0.03419504569587978 -0.02638334849334059 -0.01117638597362726 -0.0013600088466433694 -0.027266748405573825 -0.007097000735330688 -0.0016187700934710628 -0.025624370067756246 0.03375855054248535 0.005227943600031329 -0.03433250539361578 -0.019020616781005275 0.003034372767456897 0.030192107305085564 0.03155566921578988 -0.00006095011279533963 -0.03521927797963995 0.02007460233604122 -0.012377666543190089 -0.01440798479278103 -0.027035881572820282 0.03446710087987978 -0.008165983259068206 -0.027325541950380804 0.002254628872956098 -0.03449219228653411 -0.03233119150229513 -0.017516170514209648 0.032073349729835346 0.014751617995642854 0.019197025783606173 -0.00703276361346962 0.01028224020107725 -0.00214504331077698 0.02871717390397248 -0.01633274611343592 0.02112886083612659 0.021987388015409844 0.02685952552709793 0.019969002014093636 -0.012679095458129126 0.027696097904514994 0.030932677509154724 -0.0188574898874074 0.027474826493795748 0.00147834362138239 -0.005904626183396884 -0.013264429701654184 0.020254155224681658 0.029708384990326964 0.03156281931155247 -0.03144984062744248 -0.02406494166073027 -0.02564624850544902 -0.019873390480030784 0.0058510858241350855 0.0007498574405026132 0.024646364510949988 -0.02051271541395275 0.02945310669299034 0.014337875743826355 0.0003397360017481921 -0.0007764243409675228 -0.03341946939923388 -0.009333989333417461 -0.004073712094134305 0.014732432731604517 0.008779581096353621 0.000742673828871214 0.016500675693192468 0.024288948228824513 -0.0011149606785271077 -0.023368718970894414 -0.030352256501151094 0.014092551713285509 -0.013729378806265156 0.02945079514390536 -0.010715859419622768 -0.012712348267821416 0.03210204127117949 -0.01820724554806216 0.004822321288902635 -0.014861453819330524 -0.023610731974200508 -0.033189874288655906 0.019375864864296197 -0.026874908996787378 0.0000776326216895204 0.014778675116207549 0.011914516086050812 -0.022378336578577254 0.02090195689442647 0.0067775640194283684 -0.0030438687789594576 0.01795243200087558 -0.02426803823921902 -0.006463899833426528 -0.002495395793616413 0.014299383008020077 0.012337229439594352 0.021916603833086738 -0.006622881493521429 -0.022495395717561983 0.03543292248591698 0.007340148098130786 -0.018710681643458918 0.019956331248300506 0.021804254232255675 0.023425011539500447 0.002197834174458811 -0.016336542337093043 -0.03188348823611109 0.02490813120351295 0.0032666591158834538 0.01790031342889991 0.020235295781660487 -0.021038581536538353 0.002843822036312664 -0.008342945455159314 0.0006212346903985907 0.0066002074564848676 -0.026012159775728776 -0.03252306523789213 -0.004851819012955425 0.0029000287683862286 0.02788883671937263 0.015234369247442307 0.015631134321065582 0.022695237826937387 0.004323576943499559 0.035499810343051524 -0.027136840164185987 -0.01937279017503898 -0.032613789720449864 -0.0292463221130471 0.006719326095859693 -0.006311812803668691 -0.021627840480698053 0.013604248941207375 0.0035062349209738913 0.021237211468458125 -0.022100637461885984 -0.03235212416792648 0.029052067905157908 -0.034897942064061604 0.021024439078353732 -0.0179507568817026 0.03135865786279511 0.027580351314545448 0.0018208323731083859 -0.005751206535693325 0.005066041362781673 -0.02388045290013515 0.017835043277554107 0.034453114611872504 0.024323552908991415 0.0075228305598004225 -0.014233077350178598 -0.008438518930084467 0.013095373979507344 0.028223193153020146 -0.009471666591762289 0.02336698822418643 -0.007243341311527388 0.004547158175580872 0.010604313482321076 0.02795042385780401 0.011018592719022884 0.031925437963252756 -0.009185234832935079 0.009703755404252945 -0.01207940832387338 0.025964109661640138 -0.0006798538251254135 -0.010414395093276654 -0.010625450860721801 0.010254112061584691 -0.010131463209260696 -0.028866957243572227 0.021328681053435355 0.019598631314658603 0.02632492574860093 0.023601762610287444 0.03191633868520627 0.03257008163960616 -0.01348411336645372 0.013251953917881934 0.01970940976837795 -0.0035263080318901213 0.011927436392199363 -0.004209107388958917 0.014417735616126436 -0.031305680615246044 0.009461200852094814 -0.03369128043835828 -0.0024911412686291975 -0.014259728386524988 -0.012152542413725969 0.02331651588886271 -0.0020781243579435574 -0.02277718570998518 0.02047520305522367 0.03190122368004972 -0.021549555701463947 -0.020876960848810855 -0.03528087722482767 -0.024515246024477726 -0.025893543668370315 -0.027662405300609066 -0.015595984226513617 -0.021339781036480328 0.006397038518008512 0.035423267229593186 -0.023794311133099044 -0.016399666663194572 0.018929812596935332 0.02526022239198579 0.0030217852018838837 -0.005101356515926105 -0.011292948614517143 -0.008051681871666334 -0.014943777036174267 -0.02294903173065651 0.0028665101918203817 0.006664351217697297 0.022553933604429838 0.0206228523392865 -0.019793127882741582 -0.029475524621565708 -0.02946857350021992 -0.020277152846535022 0.012943136371828853 -0.004220159111194256 0.009411947813468373 0.03080557475017845 0.0006909875587587863 -0.025614926458863256 -0.03064884745623448 -0.02275476442699431 -0.012907838541904613 0.03275032066916132 0.011730463750767597 -0.01787073201494844 -0.007392436016928548 0.00108900988739042 -0.02353081840635299 -0.0010933760901307155 0.020262769948616137 -0.02312532536265131 0.013398758822807846 0.020557001255627233 0.01987765897468885 -0.007840710958975157 -0.00966835213039138 -0.033891823136185516 0.02345132034845427 -0.009172799180698368 -0.035438882721754085 -0.027124294718151698 0.02274728550724235 -0.009787081263778665 0.028376925559030458 -0.011663128806118764 0.030128924954585856 0.022639783806462144 -0.025648564070270212 0.03386920327263185 0.03407092250962915 -0.014198234352368569 -0.002585152728000653 -0.029208421945294827 0.028867633185957753 -0.02146849147031693 0.030691301544453042 -0.021696710519180394 0.02237452194822777 0.018821694884507294 0.023563704773148633 -0.02269189954973356 -0.021199342564693673 -0.017937927738038324 0.012974231040927507 -0.013255151591348362 0.03540202194678814 0.03244239672887694 -0.0009134812282806104 0.0069389543363184494 0.02526653032756882 -0.02205703319834334 0.017306305748883873 -0.015113020987128807 -0.021087699070871838 -0.031469616376410846 -0.022126623557253193 -0.010525626817159264 -0.010929006697184218 0.02276364858926773 -0.02930774002765254 -0.013524109443493866 0.012620912394064217 -0.0074025166661813024 -0.022758830881889028 -0.0164227545913498 0.024265655217364422 0.030243258097427575 -0.00013343514180500643 -0.033127617031019595 -0.027396161840093747 -0.020100729213941047 0.01675412883371162 0.007840665186887322 -0.017639617025862808 -0.008888722852046782 -0.02038845103871713 0.02288589345334381 -0.03147850390049727 0.011414986417975781 0.028917110937896534 -0.02569780540285698 -0.010888889575826646 -0.013817969879389023 0.01701853643231699 0.0033078429299043463 0.033010908762942257 0.021671594265642198 -0.002069303977309596 0.010430479633807277 0.001925138523591538 -0.026103764064190398 -0.031221903060164716 0.00042837025372634285 -0.03272572323777052 0.01901032531981449 -0.001903230803819836 0.022378289974232204 0.020829919443013982 0.014313432914588184 -0.0011285301428107172 -0.02456579533007159 -0.032961287465461876 -0.0241648603283438 0.034251721720896786 -0.026741011910203265 0.011317033282256417 -0.0015070662065078053 -0.0301190247565 -0.02953267084049479 -0.030928746819753532 0.032431398324198404 -0.027026437223652593 0.011775599316066532 -0.018656504368849514 0.0344858646383617 0.033904900575083705 -0.02799381532914892 0.025796330337118353 0.010756008571555231 -0.003971462684135285 0.014772448569796315 -0.015943415575205257 0.03316448719416576 -0.0012935940057431372 -0.00802765018855324 0.028673105601553173 0.021356446084518727 -0.01286375630969916 0.007542798446339302 0.0061760092581172946 -0.0261938544186915 0.03171373069449401 0.025320285056803282 0.017717981271815467 -0.01767673679305767 0.02036906426109765 -0.01310642557417363 0.03216562355672907 0.015061385944804294 -0.01761551817100504 0.022565784560535103 -0.021322220800040946 -0.026411337990998436 -0.003328339444843599 -0.00980818332682687 -0.010380061839384572 -0.01891912847156472 0.032425428501905315 -0.009291900055805682 -0.02158969289739717 -0.023055905717961456 -0.021424040384351035 0.031311242388545255 0.006787406035172312 -0.0021493292051103507 0.033780138563414455 0.03085951144067947 0.0033768757607289326 -0.03441658172244111 0.02640447705135697 -0.016769988453249587 -0.023861485947860098 0.01613125826290713 0.0328654101560194 -0.0025749869592667576 0.026557777141080603 -0.01663337976861266 -0.01863016293851156 0.03438822222815341 0.012860995608729095 0.0070975035806572565 0.0024876987023911973 -0.022184321839011787 -0.03384904592085123 -0.035027824664514755 0.01824231781189256 0.02329473075089529 -0.0352070847574444 -0.00743676693839463 -0.023280344288660913 0.019151908884148826 0.004535635378676663 -0.02301685819593962 0.00482364416826285 0.0006411796315113974 -0.026707045024530168 0.016857658726545904 0.009630528113680023 0.001918683483933599 0.010233012166178987 0.0005709608567990507 0.01890907083098709 -0.02691659834427792 0.016435708160058127 0.023583301615411 -0.0221737703180584 0.03126695048299122 -0.03198559191951606 -0.009853058268125499 -0.010963347071184595 0.028114995216537722 -0.009905892716188722 0.034804401280616556 -0.025195406427465095 0.029267844558118802 -0.028298524017059234 -0.03317216236030616 -0.019214478163304967 0.01684760097423786 -0.005594082692594409 0.031004545418334917 -0.025519589879671428 0.014065300558281861 0.007643248839558754 0.0036745213788762845 0.026362369483517695 0.010330786997812216 0.02469669973887137 0.028206172151280157 -0.00015559920810744726 0.0015577064154984749 0.021191081820633104 0.015566422316080818 -0.018486443054020696 -0.017446841506375557 -0.033255678065450885 0.02909020447195157 0.0058605159946076985 -0.004982515402719292 0.02091885858098899 0.00806314060574339 0.024805020316897353 -0.025438195364447913 -0.024917901110415044 -0.016303846097096245 0.034176027598347064 0.002999104587756367 0.011074248856792326 0.02421556447331144 -0.014308908719528755 0.010497806500673987 -0.012561904818144565 0.027734329181545656 0.009910436480866439 -0.03442039939560335 0.016833306463206528 -0.03404011077650007 0.017944147773830355 -0.01947970321342372 0.020445640374784975 0.015616549598146276 0.007684458299458442 -0.025696630777885025 0.02536025644312634 -0.015213691454707856 -0.0004354459250148282 0.016506436209906883 -0.003556949846181476 -0.005350574312592782 0.0036098880062184063 -0.027569492335849488 0.009898446633667263 0.003459239171608411 -0.016964930801095526 0.02640531256681189 0.013923948943953338 0.017853089514898515 0.03102946736962202 -0.020172163768711955 -0.03345530435683443 -0.00047041086386160474 0.01046423505012696 0.023721403462308666 -0.003127144900820014 0.03103109122076543 -0.0133879889189445 0.01988767680205593 0.03182440422693711 0.003371229147498482 -0.0015040321014782032 0.016740873891862518 -0.0012878691478435608 -0.004056934409740989 0.03055559683694177 -0.03221122585173666 -0.010014680083274361 -0.008316475451122605 0.03363427808378333 0.006190041531856552 0.03428486139843727 -0.014753488873892051 -0.025527027802442835 0.02231053581420788 -0.031671064419407764 -0.024933755332281815 -0.020332501446892644 0.005423104554772337 -0.0210766686569982 0.0226871267508838 0.004222282472425988 0.02869399113730091 -0.003512435130152279 -0.01852016269672249 0.020000444904998402 0.030420636825788744 0.034576588385169235 0.0107796074874167 0.026340533874171408 -0.0214087515706936 0.029018280354161152 0.014677447545029483 0.019949581803202228 0.019304483379010536 -0.03455596724169458 -0.01455094547919955 -0.028339631162261014 0.015428639131218787 -0.011732158098211123 0.00009847258042367663 0.010881173415295056 -0.019374581873865822 -0.006858134520023755 0.01865620950977552 0.027453923347745518 0.007100520196547645 0.0029686944684506195 -0.008771985849169637 0.02070669066091281 -0.017452749232409595 -0.014527707766460729 0.0028399160316764857 -0.02370091885877358 -0.017754711626739694 0.02246584269657037 -0.025978609581042 0.0064486168794755105 0.02000647563241155 -0.00951282917895941 0.021136993556552172 0.011536916266051356 -0.01577300430962609 0.0010380305484177163 0.020575304781635925 -0.005004195990743469 -0.02725998331379187 0.009814601097598935 -0.004821353130512445 0.025396431829746095 -0.025123292397664004 -0.03567685332943829 -0.018285851676748326 0.018177713672735525 0.024586286114471854 0.0023079110398660646 0.027064053465121654 -0.0056240137774046725 -0.01584416628271669 0.022989324117212932 0.028379821057011756 0.01762889047476815 0.03392131522190339 0.02005289296169615 0.025960251003651465 0.002431977622039491 -0.013040963910298346 0.031064540458974416 -0.017668864184297122 0.033022233605218304 -0.029287482580923983 0.008209373186322644 -0.028814708671245293 0.02843164298081803 0.0063799119399862644 -0.018344464142247947 0.004903706607370273 -0.0254743395584412 -0.010245569420839366 -0.009249170184954539 0.0060891750705688655 -0.027464217785177825 -0.006051001616474903 -0.013105998624234783 -0.01639088473820638 -0.011718559072562997 -0.009599687691677738 0.02900488613157956 -0.0034172953549764656 -0.0313639722413345 -0.02935227443218459 0.021141285658938164 -0.009719396628229276 -0.015409400717732304 -0.022264678827196134 -0.03108151926830538 0.01150764655688704 0.020895591941395418 0.004042399877635806 -0.00362060903326622 0.011764325988628609 0.01744808089151062 0.008550894822365977 0.02809453865857746 0.008920838184553616 -0.011256839336628435 0.01961150225924329 0.018170748031068516 0.009455198263971454 -0.012830617278515168 -0.020018366889232482 -0.026938711637270428 -0.008814755823727434 0.023490981118120785 -0.014260139072100664 0.014317949580239589 0.0038415848766053876 -0.02285547432230398 -0.009186865069520267 0.026199787763193552 -0.02926123039392917 0.003938544813725735 -0.015396581939650957 0.03455897744024508 -0.03119415401326502 0.02322594669429174 0.03007530709685645 -0.012277494289877962 0.02373538206199112 -0.034079134983180964 -0.021247590335140898 -0.015521029773130936 -0.02668064221640517 -0.03387569199389398 -0.03400784103423287 -0.029318878809829037 0.01148135644657769 -0.010759755192325162 -0.00611359238506624 -0.014022740346089604 0.013693382544335324 -0.004898205387526087 -0.0057812996677215 -0.0233085261061321 -0.005823209303149137 -0.0173144621631787 -0.005801071940198219 -0.02579681534147322 -0.0013706061429891656 0.025002527041089025 -0.01917886826110777 -0.015149112541483354 0.008862594376391315 -0.007822400744801845 -0.021356007809812647 0.0034792256626559673 0.0070577229338778386 -0.008730468252103489 -0.011862771302476403 -0.010398897446187001 0.005151350906706563 0.032614968272632605 -0.014955593054148522 -0.028605212305937645 -0.02910133112647709 0.020338886364538636 -0.034193638822849516 -0.0035755885065929457 0.029106188660973795 -0.0022627615441516633 0.03501561242196763 0.008308568904651224 0.029552974259932432 -0.01313224788976294 0.00002673467887370773 0.014170662787614648 0.014404847875597357 -0.027694386477989795 0.026283599912105063 0.01686436760974503 0.008551287383774232 0.027393891103661 -0.005114485185693067 0.025741361786048036 0.02697004343391289 -0.0022521536107264276 -0.025162555151044534 -0.01909081772888491 -0.02688974244929284 0.035022402148731244 0.03257859238331444 0.003863993970766977 -0.03043037860562592 0.019371068874999113 -0.012508360814521002 -0.0312409132798876 0.0008007068007283985 -0.021958494796840915 -0.0003560089807436925 0.03093330185186216 0.01531438684342544 -0.02667226528480493 -0.026815169769331133 -0.0184098297546273 -0.014651382946641114 0.0029007916546948884 -0.02931637711819333 0.007747127423633864 -0.02797288717916381 -0.03160907830848203 -0.011445787652355821 0.006948377036608222 -0.009398373862416612 0.003906238835132095 0.013363739052326032 -0.007246501694740504 0.014785297986663913 0.011666995366569483 -0.010221604349018452 -0.02341987926229351 0.02356919027385248 0.0023487317220158496 0.009261947839158804 -0.010398330665516178 -0.00002973002474044445 0.027641225932512753 0.027383683162701317 -0.018755002137554353 -0.004405275985155659 0.015080398357541346 -0.003618876812625245 0.018776603598386163 0.034391302518017516 0.016492734514154735 0.015122837594794443 0.02222169829688387 -0.029905775493199456 0.004858687836107718 0.0016492572243786974 0.020346204482639796 0.022119583226394367 0.024393625928340254 0.013939161739777745 0.0009375682750558043 -0.01798173997734052 -0.02514040209659461 -0.005837030763838805 0.015429022257464085 -0.008268461456498302 -0.017857797545492438 -0.0072212674380302475 -0.00295098957471307 0.026291065513363972 -0.017235336431393678 0.0013389619971077155 0.033101364029360064 0.022065298940433693 -0.035577034923613776 0.03313555725244244 -0.0080942082414635 -0.014339353269044054 -0.029028931570431196 -0.024494546184443848 0.013799819952056334 0.022387477902202413 -0.011108216131184939 0.01219980431770784 -0.009781373979147277 0.004690926983563694 -0.007263771215532979 0.02879212238251716 0.03368039765158819 0.009112680555338107 -0.004556644379912274 0.029702925988664905 0.01176198404932887 0.023053814372938977 0.0001962619319285791 -0.02878997485684271 -0.0040349607995438935 0.020885250719115428 -0.03300540121069392 0.009797381112685369 -0.006521991586944411 -0.028552376333200465 -0.02421146781137978 -0.03332634537772952 0.028775083184250747 -0.0007028576095803318 -0.028079109558361202 -0.031558706103772476 -0.016124884323126133 0.010247937970673103 0.016803524750014148 -0.01780809640035419 0.03545123914778635 0.001398545561849894 -0.00944391175722522 0.035052371295615 0.03074115392672766 -0.010579443227148051 0.0021381444339356468 0.031006978440249158 0.026091597014770786 -0.020546225628578267 -0.030864329895101923 0.02392246723346263 0.00010789623255247349 0.011525962969976135 -0.035228799880868945 -0.027007657909778944 -0.016453883986689566 0.023611943321509326 0.007289305648355761 0.03373503901519259 0.033023098878121944 -0.020148672000340987 0.0007069018869635055 -0.030621251141650086 0.03020453425018124 0.022654049074298417 -0.03450237559688537 -0.00854015796086501 -0.0026082946003757393 0.010634765042586473 -0.02774324944171696 -0.01904915800317608 0.01976588688611483 0.025943632450212438 -0.017953007318010496 -0.030430519451217716 0.03295615484718206 0.028614731928430486 -0.002886988979763115 0.012858939764824884 -0.003801446649040016 0.0009394092961488715 -0.030798021956863434 -0.004835682660862674 0.015151115072919968 -0.03017119501338173 0.02663576235519649 0.027225890142061414 -0.017432028029817047 0.0009214093707283223 -0.009788320885594396 0.0060267999763052235 -0.026724219115897688 0.0031692393820029856 0.029522231893999707 -0.016860003254922793 -0.026465776453591938 0.004364945208435604 0.031041221559220865 -0.023949306633156735 0.015248997039976335 0.03408978807745135 -0.01461917256143186 0.03563037325029288 -0.031066096171570877 -0.016028669424627263 -0.022942385811207618 -0.03387686193161186 0.01748324160167656 -0.01804172134370098 -0.0018606968825114825 0.02724412140191861 -0.022415485846764747 -0.011986189688786477 -0.027065218791176356 -0.008608878172753989 -0.02900686044957996 0.021634409289035875 0.0016595163573496566 -0.03409204803965309 0.006486117719504879 -0.021700530449706067 0.02427301512140175 0.0038667292371010603 0.03170395143523519 0.025131401378042987 -0.022225534002924777 0.031925734689813634 0.026452817712401537 0.013498292919977823 -0.017024582502431867 -0.02446952174051567 -0.014162857569140676 0.008060052239017734 -0.027851375438182287 0.002470804572948567 -0.019423698125943467 0.01282040170357534 -0.016413258050873424 -0.02877893297915008 -0.005785593390060018 0.0064495814035122265 0.01285896954676713 0.006242647066796239 0.002093734477283322 0.010262715658613177 -0.002677573460399337 0.001158183316285477 -0.009593890304671674 0.02476883092830744 0.025115298941348133 0.013469653837757667 0.014893941541726529 -0.011262318578112973 0.025479607929117916 0.022145031682196503 -0.03313475506297239 -0.019023680283422738 0.03212788568399001 -0.017055198393079164 0.028945291360094078 -0.02015461366109415 -0.03142969609113069 0.009830587245711064 0.003272094351942388 -0.008727878194116228 -0.006444817760584002 -0.027234309623173143 0.009289051833478727 -0.011139963444585153 0.01686909040936482 0.03006933655778474 -0.007393135419445418 0.018555574692057708 -0.0066492203120159235 0.02041597609445455 -0.026797666133321074 0.026378303383526848 0.029902120144206644 -0.007018045885847371 -0.03307657121790156 0.019494239641747117 0.015731312032454547 0.017362055112479756 0.010241027087621375 0.02250208691097468 -0.010426498799097596 0.02467648410001693 0.011927605891683084 0.013443512225353338 -0.013191393606791207 -0.02912848470814725 -0.010276548245325905 0.03397788006566696 0.008123858417182146 -0.006196042577254976 0.021476746832817688 0.013169253859989336 -0.016310857442671023 -0.028552844189411695 0.0126127881179195 -0.01892225456100165 0.025046858347471 -0.03184190124390904 -0.0019245706180077218 -0.00303313990610105 -0.032945043668697285 -0.02381102866112477 -0.019555704459003325 -0.03156678835831334 0.02592659020576362 0.02649057212316201 -0.005000191548441567 0.024969188687548237 0.020818518946615 0.014330540414727798 -0.011289448679085403 -0.009378369197713649 0.008134078496330062 0.009498513945850946 0.013996635135817165 -0.01688195828870111 -0.013075169521524214 -0.027715215393033673 0.0006789046622709655 -0.009583265174274071 0.015262826749736119 0.025773516369084558 0.0026753415035158934 -0.019287572645073664 0.013297260670261293 -0.02418704121460359 0.01145928907433774 -0.019193871514611476 -0.005562258458887519 0.02805930658186873 0.0185539169138997 0.009735947128555123 -0.015256238618379516 0.0033335079261395755 0.01753132143974607 -0.011695533617623557 0.035097822991242006 -0.033755854149193736 -0.009700198840344051 -0.026611970494397768 0.01577466034921994 0.002516959777574171 0.02389476693757748 -0.015804144645810925 0.024288632915389855 -0.008426440534852765 -0.01244037263122255 -0.0172821155193557 -0.02338360120364066 -0.010332849275306564 -0.005745873064129024 -0.01662665810450055 -0.031394707733795615 -0.024148694341350724 0.0018357384774128278 0.02560175419314606 -0.028938371976966953 0.007492063583817902 -0.028846778445661414 0.03333489546436973 0.014889499847069955 0.022776778256018558 -0.028488878824117093 -0.006634226936462411 0.005004557482274588 -0.027975221195948655 0.028408848519888417 -0.018508774417991185 -0.0004411929311396092 0.024890426269612083 -0.020190580984556786 0.020396187725930513 -0.034501377344174085 -0.02109913597029313 0.019397874011598076 0.008459991325580432 -0.015235030382200454 -0.02139975250855697 0.0029360467219780337 0.007759548981632472 -0.028493445998025196 -0.01415227970464028 -0.024724793702887 -0.008208806046175337 0.02462454468194554 0.0009752402956581738 -0.022788278772436388 0.0034543537771546742 0.02660204500793921 -0.000444266950599341 -0.008406535642953634 0.012290358381848249 -0.023688487061487913 0.013428653083513799 -0.006497229004109539 -0.02669066082808618 -0.0061485403498821424 0.027753899524133818 0.005000384275169218 0.00426239998571782 -0.015273099937329624 0.017885230833128197 -0.0029534006093098683 -0.034492727956512516 -0.006919677377638222 0.021454996300881164 0.02305025235290646 -0.03263331490873842 0.029328955967351883 0.030472500888723317 0.017328418130069117 0.010017598256037602 0.03314515380167593 -0.021931663911557445 -0.01582159442958731 0.02318752074698983 0.006734171964615267 0.033596641273418534 0.023450905112870957 0.02424475182330034 0.01854570860290916 0.007489578236113305 0.0038841350742473066 -0.007760488122264708 -0.02761347619235797 0.007650174123723837 0.019241833496046405 0.008450327824119705 0.03370838067534564 0.008733180778747816 0.002822317843304112 0.014871206448525846 -0.0021680993822700673 0.026917665366790217 -0.008436090518961896 -0.032708266764152616 0.018215292348075413 0.005090113467800945 0.02746284707823744 0.02332632218943788 0.014696130252979061 0.011557434965240101 -0.0017417835031037082 0.015070678726969483 0.031215388215212296 0.021841453654400267 0.020909023919785472 -0.0006340942643755162 0.013459575451378504 0.0008058276366050891 -0.02621679497235861 -0.023452938855935197 -0.007303398338390367 -0.0054499228616386695 -0.030818911935429405 0.0006104970310476382 0.016878805891513547 -0.02683713086242997 -0.028375875037945395 -0.034195498208653384 0.03206806689439161 -0.03510571979837846 0.03501986147915084 -0.0013212962230664121 0.014134160034281945 -0.03433301799068657 0.00464684963701277 0.025562538390903427 -0.010885818225154633 0.006810793041327909 -0.0037395989253957568 0.004970995319037476 -0.016630123441487378 0.00775981312186433 0.027325821864409416 -0.01266483072815722 -0.0031504845402416937 -0.008175200018635207 0.02664690468010985 -0.03392823541448619 -0.024149081222904965 -0.030151099198841354 -0.014567815011148668 0.003683325499737898 0.009680024124675017 -0.02955014071600497 0.024920985933719435 -0.004080903003244978 -0.020948964951507915 -0.017181105731486124 -0.006376147258190646 0.02909973342749976 -0.02901528813800607 -0.030971246911948414 -0.03169161534232031 -0.004596879426717864 -0.02286857822933598 -0.022840994477008474 0.030838179014292127 0.010605948169774254 -0.015881558071567548 0.028235297662932923 0.025011974169658675 -0.02996314206200785 0.011413372116193352 -0.01946471931761581 0.017519737758171203 -0.03430153663813409 -0.007320875723045887 -0.01675192577272755 -0.01602955676742241 0.0030924789854898244 -0.007349586527024079 -0.03431250919183899 0.0332861213396794 -0.020550209866092538 0.031212636508419836 -0.01745044354689383 -0.03488890205098295 -0.022897898635934215 0.023686942086608057 0.002180278576309353 0.012178724878387878 0.017985586234253836 0.031197910654094194 0.014444011569645317 0.008157707475816206 -0.017760834297883697 0.01278794792644344 -0.0023471634253363184 0.01981196924857203 -0.02053136902015222 0.002027784272245126 0.01938046981170337 -0.0067041932679124325 0.011628749935094653 -0.006757429242758097 0.014046285095935813 0.02565637887332966 -0.028373945901493846 -0.03537381159352831 -0.020819611786336383 0.019104859594834298 -0.016646381934237873 0.009619023353506409 -0.02960466659231802 0.03260855754819417 0.01005680325097183 0.0008432189380852065 -0.012478613221299369 -0.0011501053258274122 -0.016647381114501827 -0.025796177576839146 0.031299296313463294 -0.013671658159215259 0.009663733878107806 -0.03255019819952359 -0.006588291436630738 -0.011477511527345108 0.02771978423206531 -0.0107935806552213 -0.02049378904910396 -0.031079766710541495 0.014424153155398144 -0.012329159824209932 0.004691686006884867 -0.0057235028984682695 -0.024339966025825124 0.03490559042405706 -0.01920428561817186 0.013772455523302467 -0.027478370637615435 -0.00990874552807745 -0.01715183361808459 -0.03198206338592386 -0.031106364458102963 -0.033501712386679136 -0.02544481285841334 -0.009313446133414432 -0.019706890288310904 -0.012834872967831062 0.005771477554622449 -0.01870897644560129 -0.013182123065312079 -0.0326568320413804 0.011958682276788583 0.012625765874979891 -0.028904197998001223 -0.023319533500256284 -0.03158447679197781 0.0023645454270918714 -0.03303109192286754 0.0022743215918616805 -0.021415775675734255 -0.02725767220435238 -0.03199460954502187 0.027151772426730975 0.009123601781006525 -0.023671234232216364 0.024141935462911338 0.009936290869621294 0.019748756587979987 0.017409091936258683 -0.009551015301080107 -0.006302391152799496 -0.004305651000406711 -0.030011580696318405 -0.0061592157675184585 -0.0028804344609255628 -0.03131454421936113 0.031005702370659024 0.03306674509143448 -0.029332180496548975 -0.008310946267180621 0.0052011858729439225 0.0020706477126180077 0.0006186667222795781 0.025389945327449374 0.004019342064705356 0.024692283287071258 -0.019515566167354104 -0.013649242671155682 0.02241620276380285 0.032420112699750855 -0.024393742842240565 0.006098406388422024 -0.015395176129279476 -0.007910069471123937 -0.009014321346651033 0.011011790403601784 0.009441348656581798 -0.00770779767004123 0.0003488038339108579 0.002316640744599377 0.010941659839182058 -0.02051291461841696 -0.022593148047149146 -0.02349355728764576 0.034230321412991316 -0.03253650281677446 0.0027252341088037646 -0.005259797362943797 -0.02680967564491397 -0.0001392192943646814 -0.006741174153018479 0.010805092742306392 0.0021255835560204245 -0.02968001609535569 0.008237312943976005 -0.012909494466676712 -0.022081811631791903 -0.005542839805192972 -0.008943115625882521 0.005532155709937828 0.010002304365845163 0.013478078827967033 -0.023447517147023943 0.01456496445912095 -0.0033189482455072694 0.01786184399980016 -0.031866831813859235 0.03416500324626552 0.005876934812936163 -0.02039038080660982 -0.0019567779131443516 -0.018478289013270546 -0.0066430144758779265 -0.013241033682408174 -0.016987167290904104 -0.0011371963376653402 0.024530284041201417 -0.007555077531909125 0.028118479414093858 0.002096906003966649 -0.010249190070522163 0.012726743494567053 -0.019202156180919392 -0.023198158404001745 -0.0032389478376408792 0.035528692608139845 0.02879163151456647 -0.01842185308940079 0.017680782211629102 0.02843980751068735 0.026012530456717885 -0.008133964109441782 -0.005367277281143088 0.01635705158917458 0.004947726276872691 -0.0050030319662585886 0.031102479071145925 0.029011139650224838 0.02156021913940203 0.0034905626536904863 -0.007149546323016405 -0.002871404908174488 -0.015310040538842107 -0.022808626572217237 0.0077183446828686456 -0.022667289782986787 0.0065012025826325995 0.016778148858076998 0.012630146966264487 0.032231756618870996 0.021090854742652154 0.01337852154157762 -0.030836408884538993 0.03190610772753061 0.01639993435350722 -0.006623451591021432 0.031029815017125803 -0.012686479170073133 -0.013725096054915929 0.02574441873583133 -0.015939430628928615 0.02764648582910048 0.03342443825376257 -0.009882085603917314 -0.009249802180332889 -0.002833333027362314 -0.004004735546661774 0.021115946300248392 0.027932652401322894 0.011480025934520702 -0.0035934534013142908 0.023833945754723335 -0.001490170960536323 -0.006339715507737757 -0.01471894031827219 -0.012798951090840567 -0.0046431454583535856 -0.014493667530276588 0.020363637723409052 -0.03529419367276468 0.01042279670447218 0.0036568915260702453 0.01364312961503178 0.009776611889772378 0.01929888227434958 0.015529615835647492 0.03264803095736496 -0.002383605965599056 -0.013147828580892522 -0.011880540650714817 -0.008438776667749566 0.02713795284833785 0.026892848198688063 -0.000643818835891645 -0.031172702929324565 -0.031206568441404996 -0.013223622049517117 -0.01066412588800763 -0.015557111704323119 -0.02091761871624439 -0.008586773425978925 -0.022451412355710132 -0.005444377616025547 -0.01614234654661355 0.016661608313940465 0.008345428624946645 -0.024611535307357872 0.01668472124339456 0.03452565885931706 -0.014165729741293057 -0.008799398723881309 -0.02536946224228818 0.008039248658183097 0.01719682981267285 0.0035671458528962405 -0.023667246488441554 -0.014358249053504881 0.008099380702207538 -0.0032771771518891463 0.0139227847140821 -0.031060647666179646 -0.010770337280276432 -0.009516657772250938 0.0061091830444758785 -0.026966494896812354 0.009193919780347955 0.016440222759720374 -0.03325084623709876 0.022263761540844737 -0.011399206845857806 0.01023141799278788 -0.009713752721189524 0.004119460470906423 -0.0235834478276047 0.028792750487612415 -0.017968927019914416 0.034408258305891004 -0.01678343211343076 -0.03132973323581028 -0.0021307397723409546 -0.03389626948486349 0.03276545219352303 -0.00009852683116394478 0.012862783090123925 0.020281086493320562 0.022783533527655893 -0.006857525681394208 -0.011705257109658862 0.001835164561604534 0.029725267336527708 -0.0088598844924807 0.0009493878674276326 -0.0004635820186589257 -0.00997702789194959 -0.007412382403239617 0.007568205437620663 0.014050823426323897 0.013629566829964045 -0.03476212694675743 -0.0036639247691691787 -0.014108010333703805 -0.028526028792201577 -0.015573642950475742 -0.010491822868425982 0.01724997203529304 0.013294816443280469 -0.01308715580843892 0.0066528493307647235 0.01620773111283412 -0.032230635373939234 0.026838293797433743 -0.018814160443612487 0.02843276311140286 0.021929287929318413 0.022516055746145444 -0.02535201656511018 -0.0016137631014532736 -0.02730346594183359 -0.028902737179870335 -0.013656088188155713 -0.028430342174106747 -0.012622316537300424 -0.004565343369017403 0.011659352755628044 0.03187876964413061 -0.01678139580190322 -0.01309859617630598 -0.025889437215522393 0.021921990929056542 -0.011746578108820897 0.01901494888676198 -0.0067525092561764 0.0011706779630842323 0.020729855698392377 -0.025815782513685402 -0.0004633729167799888 0.006621423243759757 0.027521184190404266 -0.025309484065208575 -0.03183245488936908 -0.019341922245476165 0.02399727433345874 -0.020297062008110465 -0.005167881821952332 0.023300408566047107 0.012443429577229055 0.0000005778037618364706 0.020832681568093224 0.005545009119887534 0.004508384061679464 -0.02901810126887242 -0.027079371998534385 0.0003512322322828873 0.0015276508286257498 -0.01664164627171627 -0.028825718230476843 0.010162571319299256 0.01948244354277638 0.02787317453337132 -0.02357735727565196 -0.022439362685575066 0.001275964534086911 -0.027669870836873806 0.029157785418123916 -0.0017925529922099628 -0.025256604412541676 -0.034443580683969625 -0.02348981065259316 -0.030304632520202608 -0.0196946667287059 0.006546017702198932 -0.031028638772225912 -0.02068807952795832 0.02780473585480589 0.024873878921238567 -0.01309859989297733 0.0334202891301381 0.004462433877847075 0.01013321995170971 -0.021853701874635405 -0.03190248535859037 -0.018780786970503924 0.003716608114708496 -0.006821351015584769 -0.03230359311001377 -0.027618822010386297 0.028956554967386527 -0.031263780713621916 0.009575888450605224 -0.007960214271426694 0.014967817472456423 -0.018091257139929318 0.03176706971074243 -0.020636817799893806 0.0216490837067137 -0.03295194255423058 -0.03238379926510382 0.012287772770459879 0.030001917417882606 -0.02858832294793196 -0.025807151999447525 -0.020322770273139255 -0.028556984740019154 -0.03037971428088415 0.008008798447877039 -0.022232304262564267 0.006422652906689197 0.007598564507963257 0.011519882815737459 0.013322301884952106 -0.01999406191212581 -0.017818881695579086 0.011318505164861277 0.0009846570195782833 -0.007629805591955648 -0.019558342648135798 -0.02419036863239616 -0.025896009116165915 -0.026862930922375683 0.0327086144776019 -0.022096288713521983 0.007888638262024829 -0.028861615561995606 -0.033133840838369545 -0.029839145950273194 -0.0225122919183312 0.006737108658224092 -0.021506165680079806 0.03194878502941513 0.00407975361700208 0.01227972980687115 0.029922176211017767 -0.028446711804089687 0.01369485067517795 0.007954710606881021 -0.015236260032530757 0.027269891791529527 -0.02819812315440327 -0.024428146139738902 0.0015552952666193637 -0.03487129461288201 -0.00395209213968143 -0.013067737217839697 -0.03209767608217957 -0.026573227075430954 -0.012811335254749694 0.010485494631098602 -0.03448770575218894 -0.0346127697245501 -0.02559738306131119 0.00885432347871546 -0.01379856417219746 0.0015410459849210592 -0.027671125653076306 -0.022372105860025963 -0.014321712368869744 0.010328416059341615 0.006992258808778441 0.006177714475068576 -0.021337179254032255 0.014840498728225002 0.03517895024204913 0.0008359845253775242 0.0007139359872258486 -0.027963762219822615 0.010133966875954248 -0.00715278472917686 -0.023287984350053824 -0.025308285586281697 0.022707994029725467 -0.008976836088483795 0.03543091711950186 -0.018699518565210682 -0.01773981672271915 0.02370428655343034 -0.008507808289676313 -0.0227736618613006 0.0003679833517245962 -0.0153564640985587 0.02774202788866935 -0.028537474260413087 -0.01457062910132613 0.0022812272507522074 0.015015110447736096 0.01798463468663352 0.021451536654588307 0.022041761559165707 0.010727379195267846 -0.004767209560338253 -0.009105128071018154 -0.03362157500801786 -0.0209948347523784 -0.015941314541366394 -0.003642105781033113 -0.028128621734565318 0.000336606842920438 -0.022254538519858764 0.00011211394467355168 0.012255658355038418 0.009351050661430348 0.0015372568994328623 -0.03261286863380413 0.031447240211312524 0.005699994431124233 0.03149889989090543 -0.0133512432317342 -0.028661001441967322 0.033687536993993863 0.028331783233371197 0.023781853901740112 -0.02865867640353852 -0.00993894760128931 -0.022665794809002437 0.008232711125032717 0.030903177704972667 0.029833388238475478 0.008770218703905423 -0.012376563133104916 0.022549635610789723 0.0133820433178456 0.009026149382136826 0.024428716577513825 -0.03534701406042957 -0.03266818826757841 -0.0020570352815453136 0.03226311814469089 -0.017752897429596244 -0.023497966991738464 -0.031097431901920315 0.027752080458276582 0.030326297756117948 -0.025518625748275507 0.03462742609721878 -0.020744614785522968 -0.004915611353910863 0.0007560416558332408 -0.010672564510983511 -0.015657919535739962 0.018293844945941468 -0.010313556659764491 0.0012774423811502886 -0.016604061659917582 -0.0010941592977974368 -0.015723333466936596 0.011327525659920012 0.025833373783100494 -0.015207509195405016 0.021413041510974354 0.025816787651607873 -0.005315277661045385 0.012810888488959025 -0.003124143503056058 0.021544820931313588 0.018524720534873862 0.025834341554390967 -0.015592496135299321 -0.027575868215293724 -0.011332057134655682 -0.02920942450146684 -0.014997608630609172 0.00546692165198738 -0.009794025425842925 0.0236603590196068 -0.006181045764372315 0.026723396454751094 0.021476497618901927 -0.007848567016560924 0.0324964516671528 0.017762884574266363 0.012742641105999174 0.03164604557946593 0.004300624280537173 -0.019359754079237557 -0.0199862425896254 -0.03318591709255523 0.015058251761539507 -0.03297280161867209 -0.01633915666280066 -0.008364516656548533 -0.020315279404015896 -0.00277378509553778 -0.0008228168474005496 0.0025302660456526863 -0.01362178417183757 0.023549310227562126 -0.0054676265677305255 0.0289713866074658 -0.022022897534805415 -0.023720383315661158 -0.0068410970017938055 -0.012444476756446492 -0.02374974576808716 -0.014175984388369547 0.0027949644749436023 0.008513484729645575 0.004178208321789757 0.02106422356301875 0.03145161548286278 -0.027217957560575434 -0.0017386205336173202 0.0027782104342398833 0.0007999194152769409 -0.0017207226468608852 0.026161803829920963 0.025190731242872598 0.006999191145118218 0.006399306411642894 0.001911275624759505 0.024893929565714693 -0.021263468566107627 -0.015886749630471778 -0.011730787467033835 -0.026736420065793937 0.0023802638600812637 -0.023845021030640328 -0.00591215800067197 0.007210806809745347 -0.031614200558011944 0.022061025215065505 -0.029716486990151836 -0.02960378304052364 0.020788915089557283 0.0016337832739311692 0.024746549257913718 0.018777170806569106 0.005351190246552805 -0.034359267288604084 0.01884411699236959 0.0161023533638441 -0.03257596566383552 0.0018525933639266245 0.010629866919290923 -0.01908394178740033 0.012778998898459175 0.008744620240888859 0.0013281925020161359 -0.027204285865470284 0.013171542507289719 0.0037021230966441457 -0.020462438326956205 -0.03335273791623578 0.011596372844836784 -0.03323776979626926 0.018762026280123766 -0.03565772209440573 0.008014409933772622 0.002850927015151869 -0.03382538612678812 -0.027323301958522804 0.027697562232722267 -0.015538338994246805 0.011527784079016633 0.029171970841343098 0.009785409975833402 0.02104066625922913 0.0037240978795953783 -0.008459183524124812 -0.02139491784078616 -0.007988436429408177 -0.03499017217297708 -0.028782272078755625 0.03124215231058529 0.016095538150663176 -0.026136710295777354 0.00766178529582183 -0.0016861771977934384 -0.028328841057911936 -0.025106261098821664 0.023659919253563 0.0346418928658451 0.018488685454694273 0.0038221724533864868 0.004834102783075375 0.032333769006276394 0.010208559560679516 0.010631678298931857 -0.008555629178960054 0.023964642486799956 -0.006933028160142834 -0.009094322387283773 0.007678850929253467 -0.019889683060448565 -0.011539973189124902 0.029462255009238852 0.02537768748010421 -0.03135915462552395 0.008532048086058786 0.03535946627174852 -0.005172873070072841 -0.029522292851439702 0.03038854795442214 0.02826656616242644 0.006284245078032193 -0.030945631824694737 -0.01273686867031059 -0.010191519198219954 -0.007192900878876807 0.005329681574762324 -0.013282570409830434 0.029245024016264734 -0.027188767987631667 -0.017297845867911894 -0.026955093968221648 -0.008258812112338063 0.026435978838706693 0.014377783881096895 0.0000390777035315093 0.023071853413026693 -0.026820298119731488 -0.006486240784396746 0.018747532019456656 0.031985486128802296 -0.0304905797992993 0.015115091489917867 0.0067310739244551415 0.027767814414136324 0.017563284577552928 0.026436154496511613 -0.004720371642931629 -0.030003837361279394 -0.030991788644093164 0.0018196089023670634 0.00939155987248562 0.03338432621965563 -0.028635903147680497 -0.029429575688908676 -0.0036972969089112476 -0.01939258029464527 -0.007392182119834549 0.02253747555282283 -0.009832233264257719 0.028194584278883703 0.011282170762285687 -0.005923876085357986 0.032415938324213564 -0.007404396150410789 -0.008592235321102648 0.015785869242397013 0.026521407911134186 -0.017559650530676683 0.0013277543313971393 0.0032797747275612812 -0.027329264271668024 -0.01514481254750872 -0.014102153871224581 -0.03062902907008759 -0.02986569108380369 -0.020454864437458253 -0.019369636502753775 -0.0008729935636751715 0.0017067042765127605 -0.00535837562955388 -0.009826930305851862 -0.02126819663473532 -0.016889026149918576 -0.02169207137202898 -0.017561325330671642 0.002984640279047386 -0.024941559381668116 0.0014729657539488752 0.026587289280726498 0.025787103273321996 0.0020283477405789035 0.014387516069483977 0.005580704879131634 0.01975035437771054 0.018003011951681663 -0.019893625569840263 0.03337166699506157 0.0064988852260515 0.01538294107049825 0.033905224915759105 0.02229119463929948 0.026742255861129244 0.0070286266035031325 -0.015272488867889646 0.011198901685554992 0.0349931793134364 0.0233844661382338 0.01082194679424743 0.008576167398129754 -0.019091725143505274 0.025252004107457343 0.020623800352194528 -0.023136779065872175 -0.005766613791921227 -0.03131335038977133 -0.03445017458552671 -0.019443165741817304 0.012945824618747999 0.03269639702507969 0.0028366564393076527 0.002410120692385713 -0.035371813407124156 -0.024584443263968102 0.01855184274064406 -0.026129683096015183 -0.002262487477841267 -0.004558195473688201 0.018048119379167914 -0.01748328789240475 -0.0027630219481242294 0.032186222519028945 -0.02768462082295675 -0.006635882768658799 0.024418187572469524 -0.03384740794573926 -0.026210055787674942 0.03120784298728682 -0.031524365321046154 -0.0023628602887350164 -0.002007263939573657 -0.00717307480730486 -0.024523113253992875 -0.027110569206555635 0.017671237463828815 0.017692560005721628 0.008918110304827871 -0.01368736946933908 0.024761355581815386 -0.011942145180676187 0.03393017413190527 0.004080967834669949 -0.03120138882561366 -0.02380907284436278 0.023075026068828546 -0.03431631020208064 0.009017586984821024 0.033173412347969805 0.032620176589549896 -0.03142877972587373 0.022267646905171787 0.02545526933110466 0.010993462076933573 0.02699006502411949 -0.0121928536624092 -0.025835178734401727 -0.03563957807663481 0.0069457838616582765 -0.026231637330741457 0.0053444271951967395 -0.026089266084854144 0.02395543602934737 0.022361365011066767 -0.032863427422457195 0.03127730024630582 0.03426813034394109 -0.0019327754899427507 0.02700087296940526 -0.021816712677355236 0.006244076581718674 0.02659579758525235 -0.026773205915256733 0.004093176674230384 -0.030194529467139533 0.03089012785862852 -0.010467119553229081 -0.02903647486624421 -0.01059424142929661 0.008721323096266817 0.02523027061599538 0.0012256608093835775 0.030506507342499378 -0.023123960121491236 0.03464661042955114 -0.035492795257414285 0.020503362540923158 0.0057624151664218415 0.005157574280726732 0.0035676584012440324 -0.010457628907965724 -0.00931799462498406 0.018790199283584705 -0.019945145293700093 0.025748702768141167 -0.030209567607463593 -0.011779749420034315 0.023573533081939844 -0.03142798897999176 0.023536072943015435 0.008629359545432869 0.007587621356490791 -0.005226877575790385 -0.019644291303438238 -0.003229929326545214 -0.010156049204765219 -0.0002712421657122058 0.015410668671091692 0.02590782689804884 -0.03454521930175745 0.019104079496244722 0.026674648549704437 -0.02875744987506157 -0.009872820748982214 -0.013419387894783186 -0.014036678043880882 0.031368889861033825 -0.0070940420142319785 0.014111720688011947 -0.02665539115871285 -0.022277453801421557 0.014848158021064269 -0.01741076630369049 0.002309947680144697 -0.005098611597952694 -0.015671210570160823 -0.01977888169446083 -0.01951678534861542 -0.03163913570552268 0.00897324191816154 -0.017238987065030416 -0.030931977986525756 0.03231590774858896 0.029391641125796106 -0.006116288044053047 -0.016902361471578767 0.02077729392524203 -0.017114264566906155 0.03166881393156684 -0.02449455419823554 0.00394785982541538 -0.002680665890131398 -0.029266606110438773 -0.003228723218199926 0.010160015906197556 -0.009539558382179583 0.035237243557009204 0.017804611095069034 -0.0284461831860913 0.004752523650603559 -0.019418065609360862 -0.009369108950289005 0.0028353232763121336 0.027724178618101156 0.0021685576340864238 0.013271592593011583 0.006884484603277764 0.021647591315126245 0.005342487196657607 -0.009041605755647608 -0.006155741399907693 -0.0059524299284841355 -0.023504143288197308 -0.005544939675422609 -0.02713242051772205 0.004889924234873999 -0.01567471151893055 -0.01840013751387548 -0.0018135405987368888 0.018675302917449947 0.0041850314296314126 -0.0016271439574810434 -0.014378491180641113 -0.007181039840839825 0.0009153402882653774 0.025011744023735613 0.002913555635474338 -0.029887939371648763 0.028259349039126497 0.0034648896200869875 0.013535647656360124 0.017934480624074017 0.004614411390645952 -0.010939175536265808 -0.009807234377734612 0.010938951377387568 0.03495883521056824 -0.02694278227184399 -0.016323693896633174 0.02134506612949811 0.013758739749607334 -0.022872277667945688 0.030351896053964753 -0.03259545951457622 0.013833097714104632 -0.029760845843104122 0.014951181067341376 -0.03527683424103505 -0.017372209970241515 -0.01209220809111717 0.008563875097949251 -0.012014064114068704 0.004075861245714275 -0.034032857348854285 -0.024910403799270703 0.016029164383745353 -0.009174813542014278 0.010715769150902 -0.027118476826849452 0.004121027630543769 -0.020424944382110066 0.027783761767811208 -0.029190345291451272 -0.013528394065740246 0.010682889695131856 -0.01728372477145141 0.015002939709249069 0.006671119330570581 -0.026014080432827984 -0.024870685382280558 0.02378155889830432 -0.014297819602657271 0.012586995251258865 -0.023593238461889526 -0.001229188943046973 -0.034781374689225424 -0.007083188315458511 0.005274611631739069 -0.007240449181008555 0.02141811524601432 -0.004369993147604237 0.02481495956347357 -0.026842693847152842 -0.014844406172108898 0.014304385967857498 0.020917201102595873 -0.006890491756567654 0.013883307924987487 -0.025314510726921684 0.008331605041342373 -0.022686405217493925 0.006576476790446116 0.03455540423246506 -0.004707553769400366 -0.0002071369152580535 -0.015725909579352586 0.028999445247295863 -0.0009300242125392308 0.028304833883175506 0.03458679083768547 -0.0013048264428785622 -0.015509787266142397 -0.028398702978587834 -0.009911545922444556 -0.008298687639742095 -0.02401174731955808 0.011730383324114087 -0.020178310568566414 -0.030164079014751342 -0.030463755395631585 0.026697318682737912 -0.019610952681298786 0.008319460537017917 0.0066617102159353125 0.013555690347036076 0.03179820467146642 0.01760479245507232 0.024872074804952966 -0.010066547946044127 0.023591045918528515 -0.0030059144349999165 -0.005919475309684077 0.013195688839468693 0.03442079883903337 0.02754471278302717 0.008664657498356133 -0.031374030135775555 0.006526088473153689 0.018945328476914942 0.035597624946923506 0.017186217796972318 0.027369514045476412 0.02655697614852754 0.01730575927365484 0.00034286796909908934 0.023852847763499448 0.005457345518079339 0.000583943061187954 0.025328700881451414 -0.010236727900058154 0.009040278103081528 -0.00030777520100671446 0.0020193073343513085 0.0069911250248607185 -0.025778946756163372 -0.016812729652030067 -0.02183316674819283 -0.02079783036575809 -0.0023053670584620226 0.005773040728876334 0.03252568777665864 0.030071101014004578 -0.017786201803271076 -0.024796609484698244 0.009241942638196568 -0.012735781292726678 0.02321267570888457 0.024027024208939714 0.014893368981684349 0.019321812505462596 0.004580923415171183 -0.03471777522577695 -0.025111460990042182 0.016764405054435202 -0.0189681807927577 0.017087234703312318 -0.021270326475214603 0.017999237202124374 0.015931940461246415 0.014907180624180803 0.01716147946869219 -0.006548320383017461 0.0018105568431191627 -0.003595269997479514 -0.028386668174714278 0.027717287701915866 -0.005249329085621462 0.033662019481544556 0.011094501758709817 -0.030252751706565446 -0.016924072705001483 -0.018076209125911583 -0.00245181951639558 -0.012671671549826038 -0.0016872328472348555 -0.0033806145798528364 -0.013977981146863817 0.012315331283690584 -0.012324938097806597 -0.002973114180314665 -0.009114955465620658 0.015854946226970354 -0.00012455806957790971 -0.00044074616568424985 0.002813833989863755 -0.015337133819632722 -0.0071827898165884065 -0.0023078827221461526 0.020910934554647605 0.01313437738823691 -0.022397839037379637 0.0344029342126157 0.008161275454216299 0.0029065080737384133 -0.012148926603957975 0.017223925406933516 0.02311146796061217 -0.0349574229288622 -0.02376853699921761 0.00007878897829879244 -0.023611644465113706 0.02811265684379538 0.003937259531323685 -0.021456766428663485 0.008226022328772994 0.026177250649064475 -0.03455228717228271 0.03283187002018259 0.01443355507799244 -0.016265756014524322 0.019325089241083733 -0.007003245397764837 -0.011477998557285644 -0.023711181932803763 0.027946732289138673 -0.007736275656614722 0.024138177567801664 0.026793238078829593 -0.015554365987213697 0.01403059138107094 -0.013281025941175289 0.032239508989599416 0.026412588712267447 0.009018760050456195 0.006566707489313366 0.010214936971884234 0.0085376494754889 0.014479070424088483 0.008120043674156516 0.006373398559200764 0.009501016064475412 0.018180912629665064 -0.028758753708701464 0.002206156530135228 0.015520155101197357 0.022931322323766518 0.0015935903958427117 0.03549275917580465 0.03325542203775249 -0.012411255055355466 0.0059072235591595 0.016518178992260886 -0.02508673146027865 0.02844860113659492 0.011995780566151325 0.03119851678787261 0.0019184621975343458 -0.026732046951872906 0.02158096019211396 0.0212297247402223 -0.01804159016636204 0.006889173434466378 0.0014742083716416457 -0.023160143762265557 0.014332807961189742 -0.028950522444602896 -0.025055855855314793 0.02557620453634156 -0.032841292265140126 -0.006708730293052603 0.03540763506001421 -0.011719646402913866 -0.0053261681552606716 -0.001436390589858165 0.009065571315227387 -0.024151156307094142 0.022186595769894187 -0.023265906321632834 -0.016172012484567025 -0.018816525221377427 -0.029393561668924484 -0.02997288030081822 -0.01913531480104218 -0.030545196285990124 -0.03563003813276355 -0.024192581452472543 0.00946121375125946 -0.03469538408991 0.020207404039797164 -0.031438776900015904 0.001172938432154394 0.0013461094753189282 0.02475434765706549 -0.0003910644626323734 -0.004823968839695238 0.03222635632502241 -0.022619781276629843 -0.02226209455501014 0.02579201046148863 -0.010152999476024327 -0.006179953974720136 -0.0198261460386377 0.02950530769875681 0.0049086086144524005 0.013955812689298415 0.030057951652466747 -0.024837987190496583 0.005017013945603353 0.026583960997088783 -0.028497468750120776 -0.027368180792762438 0.007009393146787217 -0.010210333018756734 -0.03442137183921728 0.003519439568211054 -0.025354331909634126 -0.03303786520998864 -0.01750858597691407 0.0149138328046612 0.006036131613912442 -0.013423353947183015 -0.021649114102141986 -0.003618295184428924 0.006402340773482083 0.031781492275355344 -0.007722662840925692 -0.010708632774245323 -0.03458296338322118 0.023976671892343232 -0.02743588128518621 -0.01818918856728069 0.0018448266516051734 -0.003068356856257358 -0.021495369084085874 0.008502947708852342 -0.030807480225042806 0.023250106641480577 -0.005763272123759804 0.015013417261947937 0.0050585358581150125 0.006287263719213572 -0.026232229739049165 -0.020186148271788933 0.033629779444703384 0.0004981609441469595 -0.008534646102612405 0.034606880748324714 -0.015793448524195775 0.0008430729384708568 -0.0050823237974602226 0.018980305827960238 -0.0032260526614128343 0.0026429041619877927 0.009281879642215558 -0.033272647238510894 0.0221225679823484 0.027671092740363515 0.004805273365711175 -0.027341139123007077 -0.01157208526981698 0.005915730218560254 0.010713095354246499 -0.030963361295394277 0.001006795228606125 0.03388511924423791 0.0037274859765101948 0.010328637606346266 0.02975292990922339 -0.01188655395216176 0.02853059001851281 0.021471707957039357 -0.010783019135320142 0.02633413688999664 0.01821206640179117 0.01031486151134469 0.016473150373482785 0.008230403911084094 -0.026193674390411092 0.029517411743649788 0.03546859592293698 -0.027616365935144077 -0.023529747606379714 0.03505424248452081 0.031135790193416654 -0.008499013994542906 -0.012251326835106973 0.030798453182733485 0.009146034413944348 0.01959022783329599 0.0025167632283590313 0.00024757046602576216 -0.006538428982037443 0.007146259288632072 0.03167511133202544 0.005983372661190964 0.0057095697092285 0.002692813576302036 -0.03437984281471911 0.017651182882665456 0.005662902645552061 0.02898102971651982 -0.03329203144142417 0.02300575227319774 -0.0013230335437142624 -0.030415032458883374 -0.0078292616094129 0.03155855381246661 0.032540471261824924 0.03349793434594636 -0.02333382569827905 0.02262728482204506 -0.03052277232238203 0.020537916478533536 0.03478608369925733 0.023688432734227147 -0.019585952481932924 -0.02836263763540798 -0.034269830087242804 -0.005134814836070367 -0.02173453455756783 -0.007231599043205392 -0.029056683175115082 -0.011380215329478256 -0.02506138031351955 0.0008038585923741612 0.005203024327384141 -0.0031014658348694907 -0.025708498932259443 0.014419230523136775 -0.027345747470297513 -0.003837892394295786 -0.0031527416140579093 0.034542535662144366 0.015208313604058402 0.0015252802736981513 -0.030510687528379057 0.00860961376248491 -0.002329826935827138 -0.02237170839530938 -0.030404998237029673 0.017412867292547124 -0.03005186296805662 0.019981360000617468 -0.029396147953277416 0.019140717059856503 0.0008638469198798057 -0.033510100045019114 0.01445361047210414 0.0015289626257144473 0.030594268979220518 -0.034167401394324455 -0.008661150423029111 -0.0217782978566951 -0.015107763589781862 0.02908729659179915 -0.021105424816735906 -0.011338813330047395 -0.014444030663573058 0.005137584993931611 -0.019423126887312434 -0.03534767312682453 0.008944221188604225 0.00788352247076101 0.027560010814341215 0.003367586910003509 -0.01411807091339734 -0.03248775674566587 -0.0237058249676046 -0.018447159160333505 0.023218693846286192 -0.007376331929060113 0.02446827130587422 0.01873102109680945 -0.025140855426072202 -0.012858991831859852 -0.028286452383761783 -0.014489284555534172 -0.010593007970201178 0.01888150705127821 -0.002066174177613282 0.022612834191310834 0.03554540726641085 0.022728252311207613 0.013639331002315624 0.009732309571736208 -0.01057543474200056 0.02366225871078778 -0.023168979579440117 -0.006047527713122128 -0.003947305424555347 0.007676801153080781 -0.012056906507100451 -0.011038347709168846 0.006500854015799362 -0.0017900026881587303 0.01972253209755955 -0.028560886381411233 -0.024622049748681395 0.02412337516639075 -0.007433991953890606 0.004870481498571513 -0.009094421704069124 -0.019260913987858532 0.0050209999081660545 0.009701485655113293 0.013136539229916894 0.033373295239238154 0.02262824702628609 -0.03265727492629283 0.012278705570939935 0.02401524052632134 -0.03143128885686719 0.006627625244017721 -0.0019786584310597724 -0.017823206111009307 -0.027258990207972192 0.02279913720240808 0.026043757314980383 0.023339053536079013 0.006068853479267743 0.028685626092931515 0.023900972178750077 -0.020197394825462487 -0.02496582842661524 -0.008566786488245333 -0.018804053675941748 0.015836662693021086 -0.011784425727633163 0.03503820635897649 0.030877675787986836 0.025154181569019052 -0.021256155090534246 0.0006073297588739118 -0.025909678322963314 0.004005135133096256 0.007200166574038609 0.00014866663924498896 0.008905533589998967 -0.03569721123948815 0.033346691945676715 0.015949411320047423 -0.014752054758839877 0.030570441720861236 0.03206721557255118 -0.018197840801764596 -0.030619683506330247 -0.03231102875474199 0.02355239716928232 -0.0028511335584454484 -0.021442855801799353 -0.00042674837632385165 -0.006975100885469057 0.03165104701664667 -0.00459168328294254 0.010247121784850544 -0.007108170685266306 0.023792230001027877 -0.007400021238460522 0.019042089101673453 -0.019483787575089045 -0.004787877225334816 -0.027215358129026868 -0.008938775587725281 -0.01313929315927628 -0.010426559668694164 0.008097173044898924 -0.007605452121632661 0.021870368109194814 -0.024205034489409805 -0.03307717576626104 0.0086310613825884 -0.012766961143396021 0.005439580532775441 0.019245384581987338 -0.021137051660596682 -0.024938199371148544 0.017663339973705505 0.005252637428859459 -0.033316517725703126 -0.019215069150358675 -0.011332421031642621 0.004206252408309456 -0.03301315922740081 0.033555241304398506 -0.009081359003168248 0.02856019430333788 0.01924653958872316 0.017203632103633404 -0.03030964915783888 0.027207362070275617 0.02641589456497717 -0.008182710796427801 0.02480509218546772 0.012561138644864682 -0.009568906596555276 0.024521142444135884 0.019840680112502534 0.006565822850184144 0.0259616038167354 -0.032675582482267394 -0.0014688778124930524 -0.030997210713633164 0.028079362399895808 0.01682935948820477 -0.03470745234963398 -0.004910201666059315 0.015390614546960078 0.026719352075526212 -0.014032250031672251 0.017762190544529793 0.0018020859477628007 -0.010145591211224301 -0.03567396230191666 -0.023077395797855758 -0.0301641622689757 -0.001559647290255435 0.01724279210559295 0.01806886816879944 -0.024108597478666116 0.02125150964530017 -0.023001779295797102 0.016788271597967697 -0.028384701408703035 0.0014423270490535947 -0.02121105011634372 -0.022596676397789204 0.002679188337146421 -0.00844815784709041 0.008552059518161216 0.011970342467583737 -0.0011640253955918917 0.012147267235827867 -0.012508495933062944 -0.024159065155417214 0.016059668704057777 0.016968683453310512 0.029071914911869695 -0.010695863059384938 0.02110587977059543 0.03258828626423854 -0.013533029362876592 -0.01488871245368363 0.002019713230422382 -0.024281673778157296 0.007836793726479975 0.013063619071348738 -0.023925216182160956 -0.007539069858943974 0.01606532767481223 -0.019833395841673696 -0.02833613657249816 0.020366216478102488 -0.015197826614253774 0.025328695170780464 0.01811969427368639 -0.0336678156490933 -0.03472582027706058 -0.028245379848246106 0.016623687241088647 -0.02309399216375883 -0.025309101541034065 -0.019131557155143777 0.011020256045332286 -0.020097774475597845 0.017869922209660688 -0.008195873556752997 0.021732239645704615 0.028166629369401716 -0.029847118016729124 -0.012407445630802094 -0.004799773705414671 0.0012685325970746147 0.02539512379101308 0.0108173761583569 0.00937593708897496 -0.03406938973609333 0.016526680153545734 0.029754021617813153 -0.013587482723123712 0.022977758114832984 -0.006877192710243625 0.010849222899605375 0.0037687836226224514 0.015206696558690364 0.012384924212323907 0.028317105367445083 -0.01318477672538633 0.004868881603935123 -0.011572015968829761 -0.03262734737741329 -0.023619234918956265 0.017537629219749357 -0.002019423602472571 0.011059714043081668 -0.02696839080119684 0.006638201167864698 -0.03446936101685319 -0.02355539117919663 0.02542316729257578 -0.0237810291734984 0.008027061680937524 0.00817309961462287 0.016518762095457218 -0.018754902490676222 -0.031064187371351824 0.01100864599837946 0.027948498948140124 -0.034602421285560105 0.011455056386575069 -0.014872116494750176 -0.021837003984883162 -0.02517165008711854 -0.03205614488678462 0.023522184123447372 0.006024169024218096 0.016081683239685028 0.03371961905523502 0.0027491887803240272 0.02096623570579719 -0.015570818664409933 0.02988679674732321 -0.007198628056801604 -0.025753256236903194 0.03383972525544221 -0.004419044974644862 0.028378088032527587 -0.005910228339123753 -0.007961697221188588 0.01887625685593962 -0.00759787382240527 0.02663180698585737 -0.026746254539486487 -0.014705679378065231 -0.007918989252032826 0.028116813975953725 0.015531307647017392 -0.010553738124813576 -0.015597067303372403 -0.03231958137260506 -0.0059470069125262225 -0.024721277486031208 -0.03268837441252248 -0.0066232932642931 -0.03268194567356337 0.016240161816175283 0.01753991450582225 -0.012730967553030586 -0.012665413196579371 0.016198816540981903 -0.012713643493654319 -0.003972608500999293 -0.03429669889869886 0.022835456307271046 0.021962049383340454 -0.03397692397514581 0.01821712804927684 0.03113672666127512 -0.016757264947660562 0.030897061323798825 0.02355976506397564 -0.028705788625126703 0.001610264154487763 -0.03296457525552226 -0.008851170089521947 0.0011366498260311358 0.030439494476851625 0.026573718243038273 -0.031094941727288182 0.0016897294163968554 0.03152246835369578 -0.0166364591287235 -0.027168646033437938 0.017641991990906734 0.016705530151337022 -0.032149401165340104 -0.022239424500582028 0.008097915722677755 0.03018953379496825 -0.023181070216002873 -0.024742024282488867 -0.03295481841528187 -0.019875601345671203 -0.0021644394263106506 0.03401333461981665 0.01480731658219308 -0.02901606229181573 0.010482744212910747 0.020794023394081568 -0.007846512319183287 0.01978017146222258 -0.02017186618420503 -0.019463732786679153 -0.0071116900920888335 0.004532401575600385 0.0258843441944243 -0.01707155529676656 0.02427497467773508 -0.03156789733424265 -0.018085449272352845 -0.0337298939895365 -0.014516341363995124 -0.01345726344443627 -0.0025367035606081653 0.013956791524230697 -0.03455408619878575 -0.011067905734971056 0.0022923837005813935 -0.018479704391532268 0.010267656682128 -0.01950445838325532 0.006165696788680557 0.03303129302966171 -0.020937729289635665 0.01205316851064691 -0.0020003696232315654 0.00816654023977216 -0.02931732509135213 0.026290743063059292 -0.0207113078186877 0.019870242074112587 -0.007935649031094574 0.015521860670126272 -0.012555351334870481 -0.022568433882511223 0.000013890399437603562 0.025940445617996494 0.019880065006818506 0.015516269365406524 -0.0006291092148387328 0.005247690091890633 -0.009418264001715065 0.03244857267605471 -0.012010499857803541 -0.004711169863068521 -0.0018835033975544632 -0.001700186587599975 -0.009929859674487056 -0.011307253870210063 -0.030476078947488366 0.02084343106502995 0.02548816983791871 0.014617740353350617 -0.015921309524791538 0.02535416495917775 -0.023952190959977596 -0.027101724879177107 0.02287747077317854 0.003205542555548356 0.014683378330337199 -0.025770990380673747 -0.00349373074632163 -0.003601435827142306 -0.00169949449549283 0.006621043305911685 -0.0034307810097163535 0.010317415974456484 -0.03499551993022211 -0.029426191957561923 0.015825059851119025 0.027480757291573565 0.008850095575085995 0.016974162286981308 -0.026037427095226367 -0.00032222925745696573 0.017190345049190224 -0.03089713570374446 0.0014208722568261542 -0.03496667818832574 0.02301513481273692 -0.03221035521532938 0.030103440238831602 -0.035352545340084585 -0.02142181527545398 0.0021690491892588787 0.020792848525444656 -0.002897128156703843 0.02505498354100174 0.0045512351497767195 0.028835527997223748 -0.011676872493024452 0.0015913768988626079 -0.00590170232019032 -0.03452053576528522 -0.008914443253898022 0.0057040110811601916 0.01253498872213235 -0.00006257839169565571 -0.015568483964325974 -0.027853634761468182 0.015342385597446523 0.0009671930155775582 0.028412652415635564 -0.019102660040313402 -0.00933497424767344 0.02976778354470544 -0.00948074891248385 -0.005693954967513317 0.015968708934377643 -0.024136677010313648 0.027417289585512525 0.0014221463759129804 0.01865837725871465 -0.03255599964059941 0.015432584796315069 -0.013088301776923803 -0.004452490520396521 0.03402801785598995 0.023205065272995755 -0.0026097024314292033 0.02558825020392668 0.03284344735317146 -0.022210062906275838 -0.027600732689263392 0.03493860320273526 0.02462303431491738 -0.018640851100797207 -0.021029737524587176 0.017765068060199854 0.01871672073479659 -0.02724466508303867 0.031381637477822064 -0.02539622590139691 -0.0105901175042785 -0.008570644419572164 -0.03305832809348939 0.029019344379470735 -0.02670239775323386 -0.004912869494900822 0.020841439599418338 -0.0077690758940327995 -0.001094825361503883 0.010918633500101929 0.00752299125099655 -0.030341151776249596 0.026329999108825324 0.021644606008596683 0.006024764242784739 -0.03422422886472581 -0.02898208848755647 -0.028010491947839014 -0.010942616369554656 -0.0350597504465345 -0.02065208595777888 0.009504127843527117 0.009958963786772156 0.026748561161753184 -0.010147384508428194 -0.026694291208202197 0.00182089719715587 0.028798518385609248 0.006563835917721646 -0.014241570613086015 0.025943656448015627 0.0311864956363945 0.006100755091499606 -0.013974018406913272 0.027443790667393775 0.03483959597802028 -0.028523770491736423 -0.021728681274315074 -0.00235361138502891 0.016896779880665277 -0.017809087296447017 0.02265391827270264 -0.0025584694997087404 0.010671642193689532 -0.021617531672382766 -0.007615291030716818 -0.013743564925493269 0.006761879136407897 0.024907966493770015 0.014987608410719618 -0.012000822936145412 0.0012107554337424942 -0.009641646922134033 0.025305238662572678 0.004075109453829336 -0.017553562935481173 0.026884162659384758 0.02385765596951899 0.02547222244841829 0.0012396290549978456 0.010655113424433704 0.02733832813786119 0.011273687577912202 -0.02548945474626442 -0.01887933041880463 0.01737715359194119 0.011580025526918378 -0.017191009757961267 -0.00543704499618634 -0.01694734584595825 0.011811911779848937 -0.022189099437742436 0.014872385197564494 -0.018774615843532617 -0.01646774974032542 -0.02335156445625473 -0.02306776254433191 0.007415826129667118 0.00829853593400983 0.01744500716354252 -0.014045608172910198 0.012271607097232642 -0.023403672439950434 0.014674312424969763 0.0048669283540256555 0.008672854954808948 0.010961586394446457 -0.029056267205357936 0.031055171714198332 0.021223856717513395 0.030053699247514665 0.02769198350989796 -0.008065631226148211 -0.012629119815188852 0.02583298707144023 -0.026713226277111556 0.018661762942909874 -0.029964388259449214 0.01869788542391862 -0.031276396913186164 -0.0077034579278164594 -0.026319766061280343 0.0036793801464293993 -0.013323299006489573 0.033516764807811975 -0.002259855280478021 -0.030411233717441033 0.0040670316954912605 -0.009107007806606861 0.0016919839131234043 0.00229334886503791 -0.011101927222848258 0.02585418877441638 -0.022293997679932103 -0.01806660305208878 0.015792676644936714 -0.00841811423898347 0.031452188959723903 0.0007926152389740662 0.022633499034295075 -0.02936148280285192 0.02292274708658632 -0.00634986925701559 0.008160059022703621 0.0072848746458836 -0.005508288276891697 -0.012126592413769788 0.03368380232124735 0.02679729069948554 -0.019380236861851623 0.031909278765235305 -0.0012731009125701437 -0.014996995373551796 -0.020698813499867984 -0.019680429913671707 -0.003455189420533751 -0.012303845474550625 0.027938384285243242 0.028746802338163333 0.005410274418239887 -0.017936997573263423 0.012781078943420336 -0.01520699984094712 -0.020307014155289682 0.009456066184257254 0.03146728221717686 0.035521227515697515 0.0016733245622702828 0.026773384474199267 0.024668090901046713 -0.023964652858534677 0.032824757651064546 -0.01707055741546445 -0.026398434062257614 0.0013040176108832027 -0.009369763595396732 -0.0007721686394570743 0.03422294121116992 -0.0006277611376588818 0.016211839207329014 -0.029238400461567875 0.020442401590466966 -0.031504184448642905 0.004778079323995148 -0.010638575145887792 0.02898794579259316 -0.03528379253132249 0.007842334036721979 0.021378830013155485 -0.010333225219915785 -0.02142749274143883 0.016969777936357726 0.0005375294736932462 0.03553314084202586 0.02451551270356852 -0.0032403083727947646 -0.02192833485834059 -0.029471284598628338 0.016674029014133965 -0.01115819244205472 -0.02884966697583616 -0.03173603531081586 0.019441978593082103 -0.034264907121376656 0.006419310662665559 0.016420181664640973 -0.02291416368359365 0.024069778099786353 0.035024738958517224 0.0034681918869172573 0.014383832383542301 -0.017267773080796918 -0.029912489547027122 -0.02472791423088841 -0.017811649615998695 0.034263643174561584 -0.011364379023450697 -0.01639183298673936 0.007804845310129274 0.016414523362788924 0.019949517953116835 0.020655220126727145 0.017241499662695614 -0.009122399184588507 -0.004129529131281728 -0.03164319290431957 0.005976657222155617 -0.008451757944041578 0.017470084465407938 -0.017623468317258695 0.025722632919708208 0.002190393193753741 -0.00047156850788332427 -0.019095298846215778 -0.03313832265289713 -0.0341104418205318 0.02977946617805892 0.004170224485811516 0.0010453612301476456 -0.011997565019713115 -0.0015551162982190767 0.022116367757273055 0.0006103763727866515 -0.0314600048890638 -0.0017265580622211063 -0.028793854869529643 0.007776972125659261 0.004872507501532598 -0.01737779365834164 0.013533476455905996 0.032121046758203944 0.007663467430403768 0.005436968328283123 -0.00873923832280337 -0.02244425850399718 -0.028946182634958753 -0.005894114396628014 0.021562254642034234 0.010931414538552633 -0.02375718768062521 0.02512212343108987 -0.014689795965347044 -0.02765389759904375 0.030958644881842634 -0.02129665337363938 0.027814715606686524 -0.022241438671307043 -0.019336230756019313 -0.023289399855359383 0.004944797323744421 0.030780878467463732 0.0022798534113583416 0.00755643394522993 0.025497289476577353 -0.026764582936161317 -0.02837835148619099 -0.014812959208377916 -0.012686531630623547 0.0013080282670175566 0.005489854291246599 -0.020518712661290715 -0.03457820603394837 0.017433721144066966 -0.014260906921235827 -0.018457992536973014 0.0014319910502993555 -0.0329450551146969 0.02693043899031411 -0.003329391581913241 -0.012341989168689178 0.02701760040712123 0.025619399384991026 -0.031436397548632 0.008301205029496668 -0.017738353589230673 0.003041709738268464 0.028161949180588938 -0.010060069201915805 0.029641172531561108 0.0012103822669961017 0.027935637334326816 -0.03067988176623556 -0.019923655414823944 -0.0024026497129271546 -0.02370933579466429 0.019124341770322677 -0.004431125585560705 0.020028675234380483 0.0225392161494279 -0.02289651345655262 -0.031753232335254844 0.014212848550105614 0.018641373668345777 -0.009496818865212822 0.005108563604020344 0.0209490370051268 -0.020308271932617986 0.032099916963760716 -0.028408545464647834 0.018704193688386238 0.00852065705473131 0.004008791981308879 -0.02791413207871039 -0.016622284501793514 -0.002444367405227417 -0.02958157127067392 0.034614420344306215 0.021428180585399158 0.009486794915951308 0.024460919025105242 0.022017788261453647 -0.014927345176130067 -0.035069354552137506 -0.01883877977839719 0.007794201444727582 -0.03318307567988626 -0.0302447590893781 -0.021402593915151834 -0.01002666553097301 0.029797056708879444 -0.007023931528140102 -0.00693488362048492 -0.03244903349351659 0.002365403691346288 0.02903732287404437 -0.022218118985265916 0.018325771494229835 0.003888374241708417 -0.011609999212981429 0.01316939853026676 0.002293411017614702 0.011598964439451605 -0.0077895801536289125 -0.010401241515198452 0.0273292396916527 0.01713738453570504 -0.012323607609480685 -0.018438782629866295 0.03194854576246717 -0.006133003059785929 -0.035077674052886164 0.015330527134021995 -0.00812611112813235 0.007638754502366112 -0.0211340585254587 -0.0050285578951862996 -0.012912247193968045 0.017365822791365323 -0.026428995261598268 -0.028828059909305846 0.017089976956369983 0.011310133484326156 0.021905269077290835 -0.026312929025747382 0.023928846756538676 0.03111703537458778 0.022054178164870125 0.02464927139531819 0.02392995199900705 0.024189193468850116 0.023643530467510457 -0.010131660104391624 0.0036979270200135153 -0.011158142655942789 0.019235104278908392 -0.009444287330753094 0.012800456787028791 0.02438519061111926 0.004776770360169803 0.0014862192448349756 0.02497122435762738 0.02803324507585253 -0.015581769788594128 0.021546990903175307 0.008592369175786506 -0.007946421206253218 -0.01133944729990902 -0.007758333923846918 -0.014898785338978896 0.010412031887548849 0.028646977763290938 0.018939587925259183 0.021735916387590565 -0.021962391891979578 0.02986470748098073 -0.027439291856858266 0.012840571370459686 -0.020623478080363952 0.02592567646278695 0.026734427653046105 -0.0019686725623852333 0.010788170907667892 -0.011304859252810315 0.02482872241085443 0.000630692123554967 0.013052538641474452 -0.01272471163951348 0.02247510537172876 -0.009953419335932238 0.028070717755611756 -0.027636307556973244 -0.035476508256823705 -0.02581692678013555 0.02374419767224692 0.018863047884263816 0.006237237544494886 0.004713335042601345 0.033004275874296246 0.02178234908762493 -0.0275577232514334 -0.010812461791791335 0.01885618662948057 0.02873337505231988 -0.010045230466283169 -0.016755898535211942 0.018399259713759983 -0.00917551022491284 0.015168921876490944 -0.028600656742152872 -0.02756514790234381 -0.024004835030588367 0.030568588958793552 -0.01701324534296153 0.03016963047653259 -0.009204047997893143 0.03011252275943334 -0.022117464674911522 -0.01950340124657736 -0.002929404480414566 0.024119935461832998 -0.006191489711436873 0.029273661017530983 0.014189262780859871 0.012401367205839054 0.028371416028038846 -0.007061511584800964 0.009092056720574254 -0.004888234916164099 0.010435847724788797 0.028987565970994514 -0.000530734763762343 0.013873394738655212 -0.02428420460417997 -0.013514638198170146 -0.018516988141158302 0.01090604185515166 -0.01076410483307302 0.029363369853064522 -0.020531724363774387 -0.031009386298240682 0.03260893069144169 -0.00010294259219551655 -0.001342773538553374 -0.011054005167642354 -0.020465393022207637 0.014187356474219436 0.008272819915749977 -0.013787646018493183 0.004809632875723394 -0.0045236373714930495 0.010278869335909713 0.01653618098371268 0.03129915634815781 0.014156225512548484 0.024094402810331893 -0.00949961198319246 0.014428237023432544 0.01440571947609538 -0.03147525116307167 0.01718229353206601 -0.023260403145090387 0.01688400978421164 0.024172457040411183 0.014103338310496703 0.019110672150714145 0.018232321430710678 -0.012165201198102858 -0.012479740748011186 -0.03323975487931528 0.015299833280565639 0.010012876141422246 0.03343064765803071 0.011330951830209341 -0.023209423015722336 0.00526789137975333 0.018682372116685428 0.022608906537702485 0.021842710904866412 0.013849081018331676 -0.02792502138636463 0.02110172350909925 -0.022986136504770046 -0.01866454170455527 -0.011674068079963245 0.0038290467953688706 0.018745731599703892 -0.02596492646361822 0.03199092187343405 -0.02723428193079707 0.02837135228175297 0.011816434150521488 0.009614071993993237 -0.023036139671804186 -0.03158309878508377 -0.012099836754685258 0.000714404893874568 -0.024354231393518007 0.014664905933716055 0.01598590678406947 -0.018903416784408426 0.0030387469977968705 0.030511075240391424 0.02238569381970009 0.022659278526987323 0.00762476737401082 -0.004131684459203825 -0.0038249715459484704 -0.03192967763559851 0.0007372078507953237 0.013027868524902626 -0.00044649193145882346 -0.006607520523650243 0.019083150500021594 0.02821138977604146 0.02669868166922508 0.017913759671154526 -0.011542250898801454 -0.01845223763125754 0.02811376057939495 -0.020690635844458453 -0.014609575354548321 0.02017982933993339 0.02595910513662252 -0.017902514602673305 0.026348935630035403 -0.018972652590330936 0.017719374535089375 0.002017524120148044 -0.011941650904981166 0.023680906062266138 -0.0028024545259485614 0.025038780272845222 -0.03390686524906211 -0.011619623007046411 -0.0017723221724357113 -0.03127843916106194 -0.007597215016462959 -0.0295401243107838 -0.005951119345268787 -0.03558788421501507 -0.03368340749447108 0.003065746679899898 0.03550621850124988 0.015429200601570235 -0.02081718638412123 -0.010605724143031897 0.006279573788004408 0.012450251403732522 0.008566502773237832 0.02416018934040487 0.0022605942688136062 -0.009642540609906214 -0.019717309602291642 -0.02196399072969216 0.033805193975477224 -0.015837547116752945 -0.035224667930024794 0.016031685802990532 0.008974746731377633 0.00010262463739993566 -0.022827437430854115 -0.03324553697801415 -0.02439824233605342 -0.013602090183095526 -0.03426172230615682 0.006773489804929986 -0.006755885119803787 -0.013317189548241971 0.005713372487518018 0.03527290902899662 0.008362136282052558 -0.018822109735605882 0.012846625494609016 -0.014846020140413694 -0.0006558753645343746 0.017301389319092173 -0.03509761267620211 -0.016685527661053835 0.021440850042619367 -0.03444818158477349 -0.007949508430120173 0.02833584000894389 0.030754812586856632 -0.004625906398669466 0.01973121508292896 0.02784383619669801 0.002414136017691385 -0.02677183849755109 -0.023524042411212028 0.00020281233100912017 -0.029984502947298285 -0.03322469937649004 0.01886549959478867 -0.03458816604509999 0.03275525149419879 -0.020751028495067183 -0.013649247147467557 -0.00848709386452207 -0.030296901421330697 0.030275520336620898 -0.02577051415752067 -0.010320223361948534 0.0074833231694067396 -0.028011696098118568 0.032338756893330795 0.021951339372138168 -0.02321025864667038 0.00838156833265078 -0.012315081512625867 -0.034920386697537886 0.031106930431301767 -0.0244849255792491 0.004042261949093219 -0.030394527407113806 0.011203548830076479 -0.006769974682822654 -0.0034247182002517477 0.009333349163314157 0.03850646383894779 0.020060144663762755 0.007862252396826619 -0.011445424913805163 -0.007818648490318323 0.011329956553764411 -0.018291049925262332 0.028097347916081913 -0.008904492164445311 0.02589598524398864 -0.012804202559663913 -0.008810067859987702 0.01288002127588217 -0.018382434808259143 -0.01823093904897427 0.03690306923733659 0.018184801266750962 -0.007949521592342846 -0.007037796261572621 -0.0023279802415687063 0.00719486056844326 0.006412975419848686 0.0025092050526706045 -0.015217801854161628 0.02683250080411308 -0.0233515259069266 0.011033870366847902 -0.018053765974970847 -0.02573774717603272 -0.0255659592625995 -0.005659822667284091 0.007377724518133663 0.023927995429789153 -0.013318362829273558 0.02767796252424675 0.017651537366171005 -0.025850072552103087 -0.006438608895661776 0.006606229931158576 -0.026898259591670057 0.029768943148953696 0.009223826562053956 -0.037020006012701265 -0.0038383653686621874 -0.008390814978932017 -0.03192873099642578 0.02624107188147271 0.02834636690382244 -0.031218328180391147 -0.004236911723816128 0.022063429195228804 0.019428852650464873 0.012141576466008453 -0.0074084986135245405 0.024231379771681886 0.025767937162325154 0.0141857358166648 0.013070094310770374 -0.012640460174560855 -0.020391534927785785 -0.03309458364678088 -0.016126321375405837 0.029436961623002144 0.024075006954215238 -0.01193280254157057 0.014675988558785087 0.010724388275060469 0.011397584787454961 -0.01697559515661397 -0.03403336554554518 0.009716521866679765 0.01944911984564493 -0.028669831671662677 -0.001735562220424364 -0.016924309634781844 0.03265641420991383 -0.021734347935608387 0.004938050080865063 0.018214009323022126 0.024496554427009258 0.02217826133436189 -0.001931681831149345 -0.0002599559766230409 0.020705863248319363 0.013216409116512232 -0.0017986971703032465 -0.011910284545564781 0.019264543545405625 0.03347056397372244 -0.007031534021274592 0.006722097285578339 -0.03434400927503503 -0.03009181639983257 -0.020368135106566487 -0.00760447643935866 0.029993294302288632 -0.031122954476636246 -0.014720147073296946 0.0212197791603833 -0.006977996862852316 0.0021556209630377273 0.017166105527372633 0.007530183352488078 0.02528254164499639 0.025092275041680108 0.02055677103130571 -0.013024199179348859 -0.008258907316110519 0.0008664621062476908 -0.02856495309131396 0.002971124340576734 -0.007226418717265019 0.003459282478327496 0.005749643840729291 0.019846076492177647 0.03265031253101271 -0.020436287709278123 -0.00303465215348467 0.020718390278281328 0.02679757699773189 -0.012400679912089346 0.04008456396712479 0.03303336440437711 0.03502654285876364 0.035850115744806385 0.006798842150924184 -0.015321305193149535 -0.036698305919405316 0.039451758869983956 0.0015201840084079399 -0.01827405638322086 -0.03335182434523009 0.024420416226735926 -0.011853138078107468 0.008778049163253213 -0.010073396285666555 -0.012751235229346264 0.02965084451391249 0.00033556005657215635 0.02508706646044012 0.010328223068098646 0.03514620338465155 0.012236294220804234 -0.0015722243620618303 -0.004987907889713564 -0.007856058647060977 0.02580781626034337 0.008513918716957438 -0.018801973651274895 0.0280771548446526 -0.010817260148648134 -0.031287093634658425 -0.0022335481514121013 -0.0006139458999989966 -0.011722030292283536 -0.025486540865309427 -0.019475173827936256 -0.0022632156581120534 -0.017537812922286462 -0.02150027169262284 0.008772053751456427 -0.031857065848323894 0.012849214407722673 0.024121295795377078 -0.009696335648072218 0.00013521799343635133 0.023432202365178574 -0.0045069207634106595 -0.01937568871447375 0.01199911929807996 0.014757860876905681 0.024146414277073536 0.002530428143798058 0.011678993197716049 0.028475907187812524 -0.011098963755896028 0.033173940551890956 0.014180474591686809 0.03304341844683334 0.01073104036416737 -0.02165336904935338 0.029138937200518522 -0.03303344572196255 -0.011790230924155754 0.010308172160865409 -0.005090021191197828 -0.035065215105851845 0.013467908668614746 0.00022692994928354658 -0.012894352741032422 0.019951736415170594 -0.005887113399198321 0.017654681182360375 -0.024285155531218423 0.026970960309628325 -0.031947464693544654 -0.028916906049265695 0.023412469810935706 -0.02112931444851897 -0.013382524775481802 0.0014543776569869167 -0.019235682586138808 0.014922798232059244 -0.01711442542376278 -0.028260630385189497 -0.024042610163174587 0.01361700657933782 -0.005931497065773625 0.01853826536639606 0.026927910083077645 -0.0020098841464185396 -0.010489305446188823 -0.002513558235276146 0.011906456082265387 0.02126661298591687 0.006836923926930479 -0.013793757512908534 0.03249191681315926 -0.014046185468281066 -0.02747759586369324 0.024479935059323457 -0.030402980876814478 -0.0013559928568659843 -0.009380380386042234 -0.0036275112872946606 -0.02343710136986433 -0.036493504513893264 0.02291982590890386 -0.024698123245018685 0.02031544047950112 -0.004279053979019801 0.03123455599751984 -0.03291265228429595 0.015050087088215971 -0.009013552287456605 -0.023272327753086602 -0.0069964315431718105 -0.012608011361981926 -0.029928991280878 -0.01507224234288326 -0.009267861929088935 0.0171959387013419 -0.01792529426649512 -0.020131640458692025 0.016148116666931625 -0.008278932426953158 -0.0032722515139222723 -0.022195864523031194 0.0022705991412038194 0.02868179004184244 -0.015746697224689202 0.02339512737025078 0.025981217482331464 0.0038931030095458482 0.014467949520355055 -0.009889054336457648 0.0009515622731496404 -0.025464450509253136 0.014058251550500611 -0.014471793640137539 0.017293978258163818 -0.026667388343706442 0.018254907223284933 0.0041582288085396605 0.033138432455113095 0.01937117490815238 -0.007474319122347072 -0.019593077922118163 -0.03391561289955502 -0.03294135006699375 0.02188930824929309 -0.008705851635238517 -0.007501774860190554 -0.01271498939626674 -0.00036153354982875347 -0.03148843984426075 0.006517510617686244 -0.02976280434427417 0.02882438306224745 -0.036760977249661424 0.025611958594956824 0.017352869538503138 -0.000505012402907462 0.007501772670756271 -0.02187342441952283 0.035226552241192144 0.02592806013654038 0.023695411083300214 -0.02797083117243971 0.030318896465035123 