0.009759127871234119 0.5011798571279268 -0.2737468493647075 -0.3076684645713751 0.1384047161618996 0.1788233118229092 -0.25063963449479376 -0.04710644185552841 -0.11273405059914009 0.14646846354592813 -0.11898790153469767 -0.07054759661267349 -0.22252860980658667 -0.0640872898465252 0.19870702628382803 -0.12108668130627394 -0.2954981072087184 0.584107076181635 -0.11676891212631976 0.3018079520814063 0.030649029941851508 -0.28841252280524915 0.24310484698305335 -0.024072988742331547 0.05229172954127281 -0.017005324001290838 -0.10723434400773947 0.267164332656731 0.07557087271510961 -0.32359563421695464 -0.08119441686355158 0.1487161494686939 0.2312727949909354 0.2507566208909191 -0.206980758180005 -0.5658265372068025 -0.16827326933812137 0.046505533428464654 0.4219090728781805 -0.41121107179218924 -0.04192836536923007 -0.08635862573114171 -0.07125408169849311 0.08853793352986034 0.01373095733087561 0.004908668526675684 -0.10714097033191665 -0.0832284950948247 -0.02345632618172068 0.09615383721339378 0.28416026198598116 -0.0015128276730533366 -0.02735316103273371 -0.03352875576613191 0.028943502919561867 -0.27823808208185197 0.18609819306032307 -0.16376328976270052 -0.17354566094659019 0.09657399818326536 -0.14982662131483937 0.04403604026276279 0.07049909006427112 0.24111503200654702 -0.03908564702492285 0.22311441046486913 -0.005868647370022191 -0.0894962135295329 -0.09092736004656501 -0.050390292048953005 0.5762931462849287 -0.05317148358060769 -0.14366909042718654 -0.02618373702912065 -0.22562569415773007 0.10074707625986279 0.1324100819232713 0.14042365980018842 -0.13989346102756542 -0.38604343616751097 -0.07525589768886264 0.23903005242371916 0.026766308811803946 0.49666611803096605 0.09424028771225523 -0.21208398670159942 -0.2535451353280802 -0.1688265595484839 -0.057286945041062964 -0.0064479496516346175 0.13133552169850887 -0.47453426844359464 -0.2853421674015834 0.33728783490569963 -0.33106412460026136 0.7292341473122758 0.283644249483601 -0.39321467823602224 0.14118708148644896 -0.08070285659747106 -0.1905193222598007 0.2920885147824032 -0.10968011776317059 -0.002292404578613242 -0.022174897280336052 0.04909210810943652 -0.16743720533932918 0.3849345925520738 0.02662145748122134 -0.1758073819726583 0.11874220605406356 -0.006623511335748512 0.06550986400630866 0.1381913881778393 0.02074997133642525 -0.08992819837098019 -0.058254726596034354 -0.10616510648395727 0.038002816924952804 0.07695834105885631 -0.057480901179873964 -0.0541741526609582 0.11291027212602894 -0.08796398253619521 0.03171021511156295 0.0648434850912509 0.0239741997597636 0.06814143758057634 0.03159049432193083 -0.02483207343185409 -0.32908607160481584 0.37389653235091364 -0.4182457190289823 -0.2179297949893594 0.4662622242357969 -0.31085282064236036 -0.2879211692654978 0.16664145614230552 -0.017711503921992142 0.4769745626298859 0.28174518967063106 -0.2123140991311728 0.37079487214633494 -0.22430254937053393 -0.05123030458398734 -0.3297789832191935 0.06712276135297168 0.20361455897572162 -0.08312719638935541 0.028342960594853014 -0.0321002078288719 0.05024032203230486 -0.14734952177909233 -0.11888923144816493 -0.11384208656733068 0.15213757958240476 -0.02180773318865074 -0.013353539370725474 0.020120021448226267 0.07259086931047228 -0.056129941639675524 -0.19767254359509517 0.18001529738051225 -0.10916458889103342 0.5085689855332503 -0.08600235620359514 0.10864403055201133 -0.2752129268494109 -0.054479291343416725 0.17188800649884112 -0.20607815594084755 -0.33958614733830617 0.35218246542795995 -0.024065664893557555 0.27656107088462484 0.0714826807720342 0.15092516411232376 -0.007822875223099544 0.09861103338633903 -0.12393502530806076 0.025583326853889535 0.00710155083862815 -0.043741542253549266 -0.03136313719821791 0.1136656451459332 0.01860148674299263 -0.08255040491542197 0.013181843784748582 0.13419992183225635 0.018563204743520564 -0.02670218285522567 0.006253423449354958 0.1354183871743224 -0.009717559243022932 0.2753993852295963 0.05254415252500112 -0.1622416452265617 -0.017084312482873378 -0.03797406122069249 -0.2437244883225323 -0.06034230349300979 0.2522372930270775 0.4287908682667604 -0.08129517277811055 0.0002392155819449101 0.005854575485147386 0.011825505410339754 -0.14173413339906643 -0.08206758207982066 -0.23753405915345874 0.2766179838730673 -0.18152346804785002 -0.2817073251021632 -0.13480734140781084 -0.33160321139115667 0.38181880477022107 0.3506663873891675 -0.025005192073647896 0.14020882436469534 -0.21415452018261646 0.06310492853509408 0.23493570514888168 -0.04162587522523814 -0.3326742867840302 0.29597335809752295 -0.25715504980605636 0.055122950364733386 -0.22139529635849506 0.5044963878509016 -0.10032349777526386 -0.24908101661249868 0.13490772419898336 -0.3465557291644734 -0.25327332126419194 0.14656956054028983 0.09201992965398498 0.28169673994146205 -0.20537892299655514 0.3534917410157983 -0.08516309573679023 -0.17812849061895086 -0.16667686889969274 0.2571080492014733 0.05563698787175075 0.15899896775770994 -0.01026355145202884 -0.13578427584980918 0.08628860258301946 -0.37082761074146803 0.15123192678136302 -0.04574609638020129 -0.3754741151560183 0.5167052408996302 0.152470984495208 -0.10716921196924988 -0.2725659450598017 -0.2873426270963543 0.23088653681846089 0.2696178709510219 0.028989379554404136 -0.08964268638416928 -0.16149298849558646 0.1110981401044696 -0.16921014813097948 0.40100676864347173 0.13408787471368483 0.09167776517546261 -0.08302837111756878 -0.1998935515242088 -0.23418746893242115 -0.21777350774775897 0.318006189611476 0.09995292023271862 0.29019430331208523 -0.34984733799019835 -0.017298193571406134 -0.3303245120743215 0.3110112358532481 0.2726082954162191 -0.4206582424001779 -0.02050931603065729 -0.19884467716906726 -0.06655138315284718 0.1188763289193538 -0.010424662846130636 -0.13343206930073623 0.009468241042316724 0.33983500213436546 -0.1936665254792055 0.3668446327002392 -0.048424428745035594 -0.25488590559375246 -0.1544687401961651 -0.0680288072793244 -0.0540375220566244 0.3093640902856503 -0.12446244278866851 -0.28282099301270636 0.22343148382481653 0.42498760258691715 0.11756443773957159 -0.09149835979509376 -0.11257246423062964 0.006158978982852115 -0.2160735304151133 -0.058580721895535176 0.13803915140400472 0.11214270568105345 -0.01374463575176336 -0.03551484995963323 -0.0805415852476012 -0.08119064206030549 -0.06989263628414641 -0.01555872962294847 0.07437281719787033 0.04357942337752584 0.08064711247598351 0.028330269303770837 0.16913839651265736 0.0017487321362278005 0.0934194737504468 -0.15048631709156 -0.17811819565316053 -0.010160531732747929 -0.03542414883262207 -0.03219765239002604 0.151602354650835 0.0675009974358533 -0.07387875429601597 -0.07728091873199606 -0.12308440700889517 0.13376485285948772 -0.2693056239056145 0.3702941548959258 -0.036480948120913105 -0.08931853798272227 -0.0011543717253137923 0.24840853464380833 -0.16525182368522512 0.10853023322314466 -0.21392377409366756 -0.08426941785328186 -0.3328555750825385 0.00959986898795444 0.30691207956995686 0.016106862441020314 -0.2802067199163058 0.34941420396598166 -0.1536911995298199 0.3291071176960097 -0.03871251303767068 -0.1259847858902229 -0.07014639865787198 -0.06844383703095512 0.08454610810010188 0.35888924647964404 -0.16826584022661026 0.5302589319567126 -0.27615181354568413 -0.09038735543929644 0.07070407626167344 -0.00713737057068067 -0.20593115430494674 -0.0713141249699084 -0.12828893615272208 0.13801823107197408 -0.050931312018411196 0.05081706614645485 0.07842059581379646 0.17247956403304732 -0.3393717929519065 0.5570323695420513 -0.34158491490959036 -0.4718646876356432 -0.08154569394228624 0.40157456497889366 0.5146345094903971 -0.44346076008782775 0.3119202630334292 -0.11729821055135697 -0.35657579602087236 0.08809594820758297 -0.30089449757211767 -0.06847020814435786 -0.24357046180335412 0.5181805938480344 0.12477471562990788 -0.2823355293374848 0.45669205959670206 0.08366613512983086 -0.07595821557924594 0.08580402313372566 -0.03740390534450989 0.17714489006068476 -0.13453832651546166 0.09249283163929489 0.3723550605778619 -0.3093309278711708 0.014936758205734448 0.044049250973880724 -0.005908743804057902 -0.09824483132951325 -0.34579998636181913 -0.13296358229712224 0.3878888606563343 -0.12611175398197907 0.380036526422207 -0.20146912291635544 0.31481325977461505 -0.1839096227726297 0.08325788008474451 -0.0480286612979837 0.2585123074863945 -0.05150753623055143 0.06775314824464336 -0.23901315053641903 0.39075064885319466 -0.14120919158536094 -0.21431629368809416 0.010931751469517244 0.06058716163198003 0.05104445679236962 -0.29685722304322393 0.29679546045940636 -0.17174992558183597 -0.04406847673468477 -0.20679676342693004 0.10732027163379582 0.14847672604542758 -0.1510132157297309 0.4100298333074822 -0.06357117054733367 -0.09948004949938578 -0.07460065618141504 -0.036104648262606294 -0.19207882010155497 0.04835761765918268 -0.20010364366494338 -0.13981716210984305 0.03065310839915398 0.08341368151465067 -0.22413909932680257 -0.14071093107520646 0.2243423543875101 -0.12358688101274676 -0.2729192499248846 -0.24418293537300972 -0.07267289736348224 0.2793445526050599 0.4100253556004539 -0.0765346570369773 -0.26018575317329834 -0.0004791653773122143 -0.09754157691380459 -0.10264374523146526 0.22672856434849345 0.048556884952599334 -0.07875025983901535 0.4328478131939147 -0.13396910401306267 -0.2938695689895572 -0.27040705703628726 -0.15615339943334314 -0.21545534717170697 0.30249821779209457 0.28289775446474585 -0.28061602971671995 0.2778112003969329 0.28575264553525626 -0.012685805911226495 0.04353580319023463 -0.25220281287124807 0.6271877183123703 0.2322307686938707 -0.4662066662329608 -0.1228795841713124 -0.23000112517756877 0.016160795279719125 0.1774555871432856 -0.33455702492026046 0.13814990605816233 -0.18694118622952385 -0.08405644466797692 0.06741519044622789 0.28079914282576934 -0.03384919966346153 0.3069270479186268 -0.14714228341999344 -0.03590635536291335 -0.19634537951338504 -0.010844288054580728 0.035402930897121355 0.08121298389069083 0.15345591508134224 0.3531380969098514 -0.20391987389482968 -0.42247021498982007 -0.16752712829352806 -0.05199025150893952 0.1762664334255518 -0.04448190255266865 0.24109888541136698 0.20143450137041985 0.0008745041542234509 -0.059124541015021424 0.0282344209144919 -0.13855876317417531 -0.009285751372733013 -0.1525025074102199 -0.01568690883880642 0.12159480226960773 -0.02627607887675142 -0.048057364693606434 -0.05902315073402748 -0.0351938248011995 -0.07154014601638446 -0.102042841835709 0.06566088185262113 0.053900688635682495 -0.03696505286606088 0.048846175561224274 -0.06438103288358522 -0.03991225050863703 0.04440291641448218 -0.08979071564509693 0.0400267606588979 0.01298468608829502 -0.05259706445187809 0.02177412754121909 0.03109090189434534 0.06927034215591195 -0.07016227638510546 0.17065014148795082 0.04506720556192536 -0.13766533677858755 0.02338859449125514 0.05653731536654018 -0.22318471065680887 -0.06015281266239395 -0.10749312103058829 -0.08758579175734398 -0.10894253030818421 -0.028727207770849562 0.2910800530877815 -0.18268387337245023 0.20555552134139962 -0.10792840935896157 -0.2623746543021824 0.22386577301758104 0.10303367986601779 0.07803870437816966 0.0060417739999298 -0.001403761973130272 -0.10655814354556391 0.013754225296720785 0.057189915253394306 -0.04526949229681886 0.07406870793398546 -0.00595609706966636 0.08664345036329128 -0.037227830839341475 0.2530942918189687 -0.18679678843650177 -0.03754130654799753 -0.09346012991344511 0.06246345919527996 -0.10690288810097333 0.30782201829963207 -0.0054311270341764455 -0.013541470144497102 -0.1170499673953119 -0.11526997762910567 0.19847518437521822 -0.24256177186544187 0.35534612454871406 -0.2099534636631761 -0.21144443057396556 -0.10612028239618986 0.13945981648460565 0.4791524769425021 -0.21518144911415168 0.231313555594641 -0.34308424469996823 0.5822063030960204 -0.22164835327767063 0.4809998428500031 -0.4082246545183559 -0.008122155193333503 -0.22950726855257017 -0.05327555922914793 0.09101312944347492 -0.0624141295427867 -0.008092643777590901 0.059743703420467136 0.015580128746635377 0.03145961805637255 -0.08288009868093418 -0.04667577721547646 0.01607954287307398 0.03818329841682544 -0.11396138686498167 -0.2138515415550146 -0.30566022646107543 0.0007380621245001687 0.26929500144234286 -0.2906684792757792 -0.3280532012155107 0.10924110302380631 0.1901783216460691 0.454024643592499 -0.024187121491513214 0.06508345512550896 0.03299614078739472 -0.052765516463031154 -0.011402178799329034 -0.03970166590969261 -0.04810103488895541 -0.026947493232636437 -0.03795683812020559 0.04639001283607009 -0.018946246710936383 0.15837382666989008 0.061791070905735324 0.0020448855983304687 -0.08031133509794589 0.11563416166179465 -0.09349139577272761 -0.03575704752661863 0.05173805252267264 0.0030025675887650734 -0.030155524547449925 0.4974618535221595 0.16057554440914806 -0.33178507504676613 0.13008661756393877 0.055336313174023384 -0.23025240185809992 0.1564772252934839 -0.3107133499985833 -0.06074767174850603 -0.007648138782129952 -0.22016661375794672 -0.14476937464860118 0.004414805723080925 0.3000667922476915 -0.22167136592527195 0.38135746912071655 -0.20683591982070026 0.16413317310639733 -0.09241166859069548 0.13779028123990997 -0.14169735718315252 0.11861127740653364 0.3159224007458364 -0.1546457072185861 -0.16384298412023277 -0.20368232243788773 0.11402303460469328 0.3159916467599358 -0.14075767232540487 -0.03617460745225409 0.15672942097054843 0.27783285980490396 -0.12317348466035223 -0.006312828147317101 0.0849055026001569 -0.09313663759531894 0.19645666680339324 -0.055460082943333745 -0.16374740460082302 -0.3545595712775167 0.12197145368653767 0.6854149036584923 0.2910636792937287 -0.11707624998148115 -0.20884525190883793 -0.49952467009198714 0.3886106426752324 -0.10427437441130118 -0.4245045232073079 -0.12405878076193524 0.18966438630230525 -0.1394843885687551 0.0486163608058365 -0.02900834017831176 -0.14643733578170784 -0.14880458396417684 -0.0051579146495755925 0.0019395265533504614 0.11335861423983966 0.4884775821140933 -0.2070915762633256 0.11169874682159224 -0.06757607213072367 0.06648393831464136 -0.386484774636603 0.17850609757742486 -0.3672551163237115 -0.14273021988055992 0.18810256370953266 0.11568718185656272 -0.07485285335194762 0.23261490636731266 -0.014870981195450996 -0.17159997100968247 0.006039586152326352 0.10822209987692383 -0.03567274294107468 0.04056501959615708 0.04144818389067672 -0.08569560020142096 0.031126375728561934 -0.04524139724072303 -0.07246828496691918 -0.08522651381161299 0.27623284348816085 0.04423761012047322 0.041788412943142096 -0.08364525502028798 0.08818790684431436 0.22891190896493593 -0.20905567818801152 0.17015824351463246 -0.019599273868582276 -0.19369057336382103 -0.018186171735756824 -0.08413129749231794 0.30895994763611445 0.10334502731629518 -0.2972417895232168 -0.4349001584827678 -0.18288372264255293 -0.4257212418307489 0.4361448101454403 0.3981560942935404 0.38719971111487345 -0.49698810491889295 0.02429178195068088 -0.11072628127573138 0.5789519301296597 0.5377305951136132 -0.029582836990955336 0.005127453316376153 -0.4130071045921812 -0.1342960553166999 -0.06189211137498161 -0.23133648147255548 0.1544824667867049 0.12602553824044885 -0.15221283920016218 -0.10591667446379817 0.026294362522396905 0.04269082003947841 -0.030586989151104253 -0.06905639963925074 -0.06822424197425636 0.11628818941300963 0.156693220924172 -0.0897785552525475 -0.07424332294653718 -0.0626348109819117 0.17959561514899336 0.2185558091780695 -0.2374246193306624 -0.014945183913804179 -0.22737060376854187 0.22792838154258088 -0.13616364255311136 0.17931307678656735 -0.15950886246156107 -0.027435822906798652 0.04963701869087401 0.07761658135219009 -0.05446642777098393 0.004040002349506468 0.07594248894638815 0.010504231266026157 -0.21508935832970014 -0.15070149008957595 0.1297856764243905 -0.03627984598025063 -0.202074061628407 0.0161433555362799 -0.04873801095144772 0.10985433424711503 -0.08322808859631754 0.4028403385807108 -0.09623312076208286 0.21525251998787975 -0.0893739123743061 0.14086177732556696 -0.022934899084509026 -0.12385356262717184 0.02676599482070468 -0.024832940202073352 0.03422070496162986 0.13692654088884904 -0.20003737713273512 -0.09040953514935539 0.05626863443170086 -0.18130683807278725 -0.03394152129543495 -0.08574408657473175 0.21544390158209378 -0.11014624503495066 0.3203724986309334 -0.05485129919704302 -0.12349333040113818 0.1470120936237475 -0.15222503450030053 -0.21046494271638275 -0.06832204802131088 0.13605217064856215 0.17072935841054954 -0.36826566412962203 0.2143177020232867 0.24592236946521853 -0.057211249265478444 0.09229173564333613 -0.18510020798220417 0.2612863706429753 -0.046101728027511946 0.11459527968778059 -0.07683675653957713 -0.11812185376190859 -0.2678069355092152 -0.0722482849237471 -0.06363974560592228 0.3646736052540162 -0.0625895708440808 0.06786311266431895 -0.1349956564863717 -0.08163331926564289 -0.05024409792397601 -0.22784770173592583 0.041848809584613116 0.2560046790552221 -0.279157745604309 0.5361071661505339 -0.22380603722534445 -0.016856140679031198 -0.038351689006297665 0.049174794604962394 -0.01092263987207611 -0.21443008035513328 0.37041133795848985 -0.05321711000339576 -0.06182368974606925 0.0427663218948857 0.08973586964621116 -0.17868520530480225 -0.3657951247534142 0.20622188699796318 -0.09916679545928617 -0.1430965577166051 -0.32340751391902894 0.06339667994662304 -0.31008383178332466 0.4515864426026569 0.5113917231790963 0.008482437074696066 0.06315085945131577 0.10366359965521012 -0.08971239334310137 0.08101670274601326 -0.09057663145584062 0.03572136663768046 -0.03768984193901023 0.009435968490930206 0.08102451269301669 0.2587467783960531 -0.1904103242864619 -0.11499475252887055 -0.20176094393249652 0.38098957043437287 -0.17975072902565956 -0.10777221011110444 -0.09957678627951957 -0.10149946054928774 -0.10459074037540644 -0.2153035318195657 0.18259678694804243 -0.03158190338625377 0.31578142336786935 -0.20451313823885547 0.04672555164724694 -0.3143059533733894 0.11416319764748956 -0.004504289832920025 -0.16258579245640273 0.3012988049178003 -0.0372841147382416 0.08794106035731426 -0.07902361125126867 -0.1602143293404109 -0.025438677394084376 -0.13394848375635537 0.06796998479543684 -0.17311169083844716 0.14883037781176683 -0.009335246844659601 -0.03792470450051451 0.0749983166099609 -0.09537103266517698 -0.11512974740392257 0.046068101379027254 -0.0397374237189295 -0.05774617772619692 -0.02188957407389355 0.007531451285157877 -0.04296569634588402 -0.0680050032735218 -0.010827319993881862 0.08802637452422359 -0.12215334282068022 0.17014215306764907 0.3731988314228239 -0.12413285594916763 -0.045971467240055366 -0.12972136439525497 0.11111894253068459 -0.32575076128103847 0.12274591184000729 0.27801124497863955 -0.012329261613433692 0.44827823486282636 -0.3610556100599508 -0.10541380729814481 -0.24555619011354068 0.053346968858858444 -0.20385416021527955 0.08005512666589651 -0.27885146068816197 -0.1587768936217466 0.06831426105873459 0.15469380865013135 -0.2913502345028712 0.27285584692594694 -0.07306965566659619 0.38297452323306475 0.4194412434607155 -0.17376605424333133 -0.12266126487450468 -0.24708023729595346 -0.103980947534876 0.21601923252784738 0.10732652417288045 0.19370985380730474 -0.2957833632945592 -0.04049509481769928 -0.40252066411929843 0.2751723961641518 0.31873780347208425 0.42864017840087487 -0.054452783924565616 -0.24063393562918944 -0.20469745389554053 0.3346605277946129 -0.2583558671411251 -0.291741087844068 0.05330394478024691 0.061184198120574664 -0.08828168992202863 -0.035466944463288644 0.051154851484127004 0.0630522158137076 -0.10749762119927803 -0.09813488473381402 -0.03970058848600909 -0.09717007399160453 -0.11915297703928773 0.316904508803193 -0.06643156963721318 0.16332054442878585 -0.03897507739048255 -0.29187150137953977 -0.09231874257536327 -0.11531002310465138 0.3375691275094698 -0.08427270621321227 -0.08636284565093165 0.10439813544381202 0.005785485501436624 0.11223366731079328 -0.1276437961372234 -0.14472126743200026 -0.09346495350410422 0.0249970520942506 -0.00838280210619012 -0.11043575203786203 -0.14550427977789496 0.07219915865831655 0.042589006912653764 0.0032552380062539805 -0.1508205424310145 0.05488660205039817 -0.00724765038147059 0.27142927197214356 0.06434681201141987 0.03275079881579385 -0.09424096047378014 0.05474638519404926 0.06219154666622153 0.16047293354314943 -0.02392901116109754 -0.042142442600708305 0.14509162105630122 0.020094749281687203 0.07987051010166586 0.10615376734055965 -0.04557096537075044 -0.10328797477113262 0.16435214654260952 -0.031902823337190404 0.1630304623278336 0.14028557592470325 -0.0136563131845276 -0.06990170950688765 -0.055750306717988495 -0.16122143438049927 0.1320980525305016 -0.1152499873940351 -0.05500333731027435 -0.355337790438626 0.5763328961934436 0.08828535741074417 -0.4240023214967097 0.1694143822496314 -0.15116244169147985 0.36316472899896896 0.03458175193510531 0.341945706813461 0.009393568047454176 0.09157914896079493 0.1641355238025358 -0.061601915800686434 0.10914746039709118 -0.03270601777774568 -0.13545735341376464 -0.1486551547486869 -0.11716142489680079 -0.04353405038673937 -0.016738195185689187 0.08064043666840372 -0.13136422347417814 -0.09995194840539313 -0.047863820043491684 0.32222206353711363 -0.11142574819730741 0.21879152979226002 0.17135453914658846 -0.21945141199655985 0.01895704033814001 -0.1734080479045672 0.09859884948794896 -0.19910180232774097 -0.2533512860989257 0.13471935272023286 0.051699079201476775 0.19689256635487307 0.03153841440845044 -0.2792868464477815 -0.027233499894998812 -0.1141822770217466 0.3349293226848667 -0.07822390435115062 0.36791234072927526 0.1865308400737829 -0.15432388196273059 -0.437936719829266 -0.02836831718574331 -0.08564218606180306 0.1292819623233528 -0.08946469562117709 0.051405110533893544 -0.14699348774327034 0.412887554326708 0.006375299708628332 -0.09426992676078821 -0.12682564990082393 0.0035268010100078196 -0.1238383965428296 -0.0616588843512952 -0.0831151381535978 0.1532025001033285 0.024370006560214645 0.10692947511655147 -0.04868735792281524 -0.14111424458405347 0.32957938337678333 -0.052827633885422644 -0.16534041932091514 0.28761681626288144 -0.012287269423624394 0.3824127657097038 0.05247438244887015 -0.17397135915205436 -0.3676919118510296 -0.15541953395467253 0.3913792921622308 -0.14937803914135075 0.492870899071821 -0.15963472434220996 -0.2180903202655436 0.1354011002982628 0.1358606267609444 0.32396786764207547 -0.1767820337555853 -0.023273935854338488 -0.2159253522961578 -0.2651596140768844 0.26948023091424067 -0.30329703906044647 -0.06920602797712182 0.19307628380968733 -0.1887617190080874 -0.2165162116790453 0.6530035957534002 -0.07354597604824116 0.16398433695301426 -0.1888218860785374 0.10450578751882335 0.32713924155726215 -0.017231357104650395 -0.3199914377789242 0.0006525446602993524 0.15694363764158575 0.04372066398953401 -0.006362253343556838 -0.187324540893518 0.03173359798522993 -0.07281579139146932 -0.08790794303207829 -0.10958950464377783 -0.08158186488648861 -0.19643232542345213 -0.2361864551039649 0.547793090105384 -0.21411876383200049 0.43782390133952387 -0.14077751437166536 -0.43053978338448345 0.011038627804829799 0.5330659784343772 -0.43043497343793463 0.2670693956066981 -0.3703638733199566 0.049266190251991145 0.29605380437586193 0.3308104198196335 -0.06931979474952663 0.18730756004309085 0.22560742139479034 -0.07639507714371764 -0.24923667815720046 -0.13259802424076825 0.4590883807914983 -0.30555836171117023 -0.1433066253292047 -0.03963168546540353 -0.06313910117079083 0.0058905160023035846 -0.2515156294350587 0.021409882379985416 -0.21744540830490924 0.44858105108616075 0.27345217098187546 -0.01580551984892143 -0.2040473691072369 0.05854925833403827 0.3519030106565483 -0.20536026465997162 -0.18846854040566127 0.29745647291663735 0.05713593571337663 -0.25590768276714654 0.3296019179557989 -0.2336713131763271 -0.052957018982218475 -0.06330556785734297 -0.05105145852285409 -0.19037346852528095 0.04625402894791492 0.0953004746507987 -0.12912949535432672 -0.07400191898558317 0.029656841242586884 0.17772234769142917 -0.03840589151021657 -0.16299614725143854 0.14440889306558521 0.17777161830196014 -0.0937830578425125 -0.008610206723337064 -0.1074336089701024 -0.043049813439687445 0.0647753671182065 -0.014983887136090508 0.0839273136102401 0.020637725652247092 0.043691692087029235 0.024785410116930518 0.055669182261352666 0.09381905580276503 -0.08183421106470126 0.19096273539409064 -0.06778679210990178 -0.02830192038584438 -0.14394346435820435 -0.1128317278709215 -0.33696651595033433 0.35484812763858664 0.3849939040298527 -0.07862594741208549 -0.047645870560908056 -0.0017923551689029758 -0.18424580237403904 0.27926054443361253 -0.2596874851484021 -0.14717796089125612 0.03983844527337456 -0.5290619280012117 0.20981472935993156 0.3430840659724368 -0.46448641883044817 0.41444305397218745 -0.25761051621421976 -0.5087605272555197 0.3333340647473004 0.33810725716120843 0.41512798631979675 -0.27688654199150897 -0.0880260849851869 -0.26377034256260995 -0.33032728954422064 -0.00086449183054229 0.0013007070675995409 0.15542956385961693 0.29307915985146826 0.1166081138962818 -0.020462611445953963 -0.30616673711079934 0.4769684668079842 0.2573997063536438 -0.4550627643951663 -0.0762064848215375 -0.2624587389481781 0.28438783074461604 0.15259493866303467 0.08963469894919465 0.32848505598248035 0.03084198117754807 0.12861115471495094 -0.27987343188547326 -0.21164659757227014 0.1664101936300869 0.15160130801324095 -0.05897584932564397 -0.034351668576260166 -0.10874250901963735 -0.16053893455353366 0.4619800946171623 0.2870617619942428 -0.3182342005245694 -0.08541206138087636 -0.4477909556428938 -0.3444797381212163 0.09618578161891243 0.2586664911787995 0.22363183637849754 -0.19805350754218806 -0.1388863734640261 -0.2324977134918475 0.6563301569201985 -0.22608835256262708 0.1760880488608126 -0.1993113170497609 -0.02941971900016364 0.3152059633369006 0.15510474827105233